{"learner":{"attributes":{"scikit_learn":"{\"_estimator_type\": \"classifier\"}"},"feature_names":[],"feature_types":[],"gradient_booster":{"model":{"cats":{"enc":[],"feature_segments":[],"sorted_idx":[]},"gbtree_model_param":{"num_parallel_tree":"1","num_trees":"500"},"iteration_indptr":[0,1,2,3,4,5,6,7,8,9,10,11,12,13,14,15,16,17,18,19,20,21,22,23,24,25,26,27,28,29,30,31,32,33,34,35,36,37,38,39,40,41,42,43,44,45,46,47,48,49,50,51,52,53,54,55,56,57,58,59,60,61,62,63,64,65,66,67,68,69,70,71,72,73,74,75,76,77,78,79,80,81,82,83,84,85,86,87,88,89,90,91,92,93,94,95,96,97,98,99,100,101,102,103,104,105,106,107,108,109,110,111,112,113,114,115,116,117,118,119,120,121,122,123,124,125,126,127,128,129,130,131,132,133,134,135,136,137,138,139,140,141,142,143,144,145,146,147,148,149,150,151,152,153,154,155,156,157,158,159,160,161,162,163,164,165,166,167,168,169,170,171,172,173,174,175,176,177,178,179,180,181,182,183,184,185,186,187,188,189,190,191,192,193,194,195,196,197,198,199,200,201,202,203,204,205,206,207,208,209,210,211,212,213,214,215,216,217,218,219,220,221,222,223,224,225,226,227,228,229,230,231,232,233,234,235,236,237,238,239,240,241,242,243,244,245,246,247,248,249,250,251,252,253,254,255,256,257,258,259,260,261,262,263,264,265,266,267,268,269,270,271,272,273,274,275,276,277,278,279,280,281,282,283,284,285,286,287,288,289,290,291,292,293,294,295,296,297,298,299,300,301,302,303,304,305,306,307,308,309,310,311,312,313,314,315,316,317,318,319,320,321,322,323,324,325,326,327,328,329,330,331,332,333,334,335,336,337,338,339,340,341,342,343,344,345,346,347,348,349,350,351,352,353,354,355,356,357,358,359,360,361,362,363,364,365,366,367,368,369,370,371,372,373,374,375,376,377,378,379,380,381,382,383,384,385,386,387,388,389,390,391,392,393,394,395,396,397,398,399,400,401,402,403,404,405,406,407,408,409,410,411,412,413,414,415,416,417,418,419,420,421,422,423,424,425,426,427,428,429,430,431,432,433,434,435,436,437,438,439,440,441,442,443,444,445,446,447,448,449,450,451,452,453,454,455,456,457,458,459,460,461,462,463,464,465,466,467,468,469,470,471,472,473,474,475,476,477,478,479,480,481,482,483,484,485,486,487,488,489,490,491,492,493,494,495,496,497,498,499,500],"tree_info":[0,0,0,0,0,0,0,0,0,0,0,0,0,0,0,0,0,0,0,0,0,0,0,0,0,0,0,0,0,0,0,0,0,0,0,0,0,0,0,0,0,0,0,0,0,0,0,0,0,0,0,0,0,0,0,0,0,0,0,0,0,0,0,0,0,0,0,0,0,0,0,0,0,0,0,0,0,0,0,0,0,0,0,0,0,0,0,0,0,0,0,0,0,0,0,0,0,0,0,0,0,0,0,0,0,0,0,0,0,0,0,0,0,0,0,0,0,0,0,0,0,0,0,0,0,0,0,0,0,0,0,0,0,0,0,0,0,0,0,0,0,0,0,0,0,0,0,0,0,0,0,0,0,0,0,0,0,0,0,0,0,0,0,0,0,0,0,0,0,0,0,0,0,0,0,0,0,0,0,0,0,0,0,0,0,0,0,0,0,0,0,0,0,0,0,0,0,0,0,0,0,0,0,0,0,0,0,0,0,0,0,0,0,0,0,0,0,0,0,0,0,0,0,0,0,0,0,0,0,0,0,0,0,0,0,0,0,0,0,0,0,0,0,0,0,0,0,0,0,0,0,0,0,0,0,0,0,0,0,0,0,0,0,0,0,0,0,0,0,0,0,0,0,0,0,0,0,0,0,0,0,0,0,0,0,0,0,0,0,0,0,0,0,0,0,0,0,0,0,0,0,0,0,0,0,0,0,0,0,0,0,0,0,0,0,0,0,0,0,0,0,0,0,0,0,0,0,0,0,0,0,0,0,0,0,0,0,0,0,0,0,0,0,0,0,0,0,0,0,0,0,0,0,0,0,0,0,0,0,0,0,0,0,0,0,0,0,0,0,0,0,0,0,0,0,0,0,0,0,0,0,0,0,0,0,0,0,0,0,0,0,0,0,0,0,0,0,0,0,0,0,0,0,0,0,0,0,0,0,0,0,0,0,0,0,0,0,0,0,0,0,0,0,0,0,0,0,0,0,0,0,0,0,0,0,0,0,0,0,0,0,0,0,0,0,0,0,0,0,0,0,0,0,0,0,0,0,0,0,0,0,0,0,0,0,0,0,0,0,0,0,0,0,0,0,0,0,0,0,0,0,0,0,0,0,0,0,0,0,0,0,0,0,0,0,0,0,0,0,0],"trees":[{"base_weights":[1.2584287E-7,-3.5457188E-1,2.0631722E-1,1.4942636E-1,-4.9681863E-1,2.9982036E-1,-6.92292E-1,2.852987E-1,-4.698145E-2,-5.7349443E-2,-6.772784E-1,1.5838328E-1,8.430966E-1,-5.4813605E-2,-9.583249E-1,8.653142E-1,-8.0121875E-2,-2.9969886E-1,7.1056E-1,-8.9283115E-1,-3.4719273E-1,2.9080725E-1,-2.1701281E-1,1.2529776E0,3.851501E-1,5.651786E-1,-4.9451366E-2,3.0192519E-3,-1.167061E0,-1.0009679E-2,1.2550251E0,8.03781E-1,-4.715344E-1,-9.3207306E-1,8.977494E-2,1.3607979E0,-1.8715104E-2,-1.033239E0,2.2752551E-2,6.038553E-1,-5.645702E-1,4.4846246E-1,-1.4419743E-1,-5.029836E-1,2.3824409E-1,1.6045871E0,6.7617756E-1,6.886891E-1,-3.8800484E-1,5.8484323E-2,-8.25287E-3,-5.1704764E-1,-1.4167061E0,8.391718E-2,-3.0667614E-3,7.7544153E-3,6.49602E-2,-7.721199E-1,3.298473E-2,-7.4724264E-2,-4.7063294E-1,5.361243E-1,-7.770883E-1,8.402879E-2,3.2264065E-2,-1.1638968E0,-2.192831E-1,-4.710233E-2,3.425227E-2,-1.706968E-2,6.316842E-2,-1.0248616E0,-2.0394522E-1,-3.7247557E-2,6.697855E-1,-5.3657734E-1,3.912834E-1,-2.979777E-1,-6.824588E-2,6.330278E-1,-7.928004E-1,9.640157E-2,1.020336E0,-1.3610332E-2,1.1121693E0,-1.0625993E-1,1.0185213E0,-6.978896E-2,2.622608E-2,-3.0667614E-3,-4.162147E-2,-4.095042E-2,-8.21401E-2,-9.652719E-2,-6.902906E-2,-5.5324234E-2,1.7288713E-2,-1.9980893E-2,9.711166E-1,-6.851996E-2,-1.7798815E-3,-8.287986E-2,-9.747024E-1,2.622608E-2,-5.7113208E-2,-1.3618336E0,-1.3042557E-3,-7.1183884E-1,4.5098704E-1,-7.782391E-1,1.7210685E-1,1.2133749E0,4.5314345E-1,-9.519302E-1,3.7874883E-1,1.3607979E0,-1.020501E-1,3.6501652E-1,-6.2143564E-1,9.6272045E-1,-1.1139179E-2,-3.0667614E-3,-6.0687937E-2,7.467505E-2,2.8699953E-3,1.2962966E-2,7.661817E-2,-3.839759E-2,2.1221306E-2,1.324639E0,-1.7798815E-3,2.8103566E-2,-5.0174534E-2,7.0027776E-2,-2.3556105E-3,-6.0151156E-2,-2.2015424E-2,-1.4843704E-2,-8.280536E-2,6.8516405E-3,-6.3466795E-2,4.26842E-2,-1.9375738E-2,-5.9345223E-2,8.710181E-3,4.6955034E-2,-3.636644E-3,7.932152E-2,3.568478E-2,-1.9730004E-3,3.2048773E-2,8.710181E-3,-5.7063468E-2,4.6070307E-2,-2.0848475E-2,8.402879E-2,3.2264065E-2,-5.078554E-2,2.0070584E-2,-3.0382771E-2,4.3881316E-2,-4.5926876E-2,9.486611E-3,-1.4843704E-2,6.5022565E-2,7.73746E-2,2.0487124E-2],"categories":[],"categories_nodes":[],"categories_segments":[],"categories_sizes":[],"default_left":[0,0,0,0,0,0,0,0,0,0,0,0,0,0,0,0,0,0,0,0,0,0,0,0,0,0,0,0,0,0,0,0,0,0,0,0,0,0,0,0,0,0,0,0,0,0,0,0,0,0,0,0,0,0,0,0,0,0,0,0,0,0,0,0,0,0,0,0,0,0,0,0,0,0,0,0,0,0,0,0,0,0,0,0,0,0,0,0,0,0,0,0,0,0,0,0,0,0,0,0,0,0,0,0,0,0,0,0,0,0,0,0,0,0,0,0,0,0,0,0,0,0,0,0,0,0,0,0,0,0,0,0,0,0,0,0,0,0,0,0,0,0,0,0,0,0,0,0,0,0,0,0,0,0,0,0,0,0,0,0,0,0,0,0,0,0,0],"id":0,"left_children":[1,3,5,7,9,11,13,15,-1,17,19,21,23,25,27,29,31,33,35,37,39,41,43,45,47,49,-1,-1,51,-1,53,55,57,59,61,63,-1,65,67,69,71,73,75,77,79,81,83,85,87,-1,-1,89,91,-1,-1,-1,-1,93,-1,-1,95,97,99,-1,-1,101,103,-1,-1,-1,-1,105,107,109,111,113,115,117,-1,119,121,-1,123,-1,125,127,129,-1,-1,-1,-1,-1,-1,131,-1,-1,-1,-1,133,-1,-1,-1,135,-1,-1,137,-1,139,141,143,145,147,149,151,153,155,157,159,161,163,-1,-1,-1,-1,-1,-1,-1,-1,-1,165,-1,-1,-1,-1,-1,-1,-1,-1,-1,-1,-1,-1,-1,-1,-1,-1,-1,-1,-1,-1,-1,-1,-1,-1,-1,-1,-1,-1,-1,-1,-1,-1,-1,-1,-1,-1,-1],"loss_changes":[4.6225666E1,1.6738E1,3.3771126E1,7.9523916E0,1.4355644E1,2.7721378E1,6.383375E0,1.0017714E1,0E0,1.0249082E1,8.838345E0,1.4422672E1,1.3529453E1,7.6453867E0,5.751194E0,7.819646E0,1.0658122E1,1.0352779E1,9.8444E0,9.941067E0,1.1180115E1,1.4738222E1,1.000102E1,6.814064E0,8.880405E0,3.7203338E0,0E0,0E0,2.8733768E0,0E0,7.616213E0,2.8478808E0,7.725666E0,3.4436703E0,1.075329E1,8.58078E-1,0E0,6.860672E0,7.8249655E0,6.8133607E0,6.960634E0,1.693315E1,1.2327716E1,7.8872156E0,1.2697012E1,2.467846E0,7.1165776E0,7.112896E0,1.0835449E1,0E0,0E0,1.0614805E0,7.464924E-1,0E0,0E0,0E0,0E0,6.948654E0,0E0,0E0,5.6969867E0,7.807026E0,4.1255136E0,0E0,0E0,3.747963E0,7.7987156E0,0E0,0E0,0E0,0E0,6.2668552E0,8.792172E0,7.9188333E0,1.2180988E1,1.3174811E1,1.2080621E1,8.632882E0,0E0,6.484275E0,2.61658E0,0E0,4.692483E0,0E0,3.7190676E0,3.394809E0,6.170265E0,0E0,0E0,0E0,0E0,0E0,0E0,6.0825915E0,0E0,0E0,0E0,0E0,5.634159E0,0E0,0E0,0E0,4.831749E0,0E0,0E0,3.8902588E0,0E0,7.1454406E0,4.293413E0,4.5801835E0,7.569975E0,4.4992104E0,7.325096E0,5.2029953E0,5.235961E0,8.58078E-1,8.447287E0,7.2559414E0,6.6125784E0,7.2900677E0,0E0,0E0,0E0,0E0,0E0,0E0,0E0,0E0,0E0,2.3694572E0,0E0,0E0,0E0,0E0,0E0,0E0,0E0,0E0,0E0,0E0,0E0,0E0,0E0,0E0,0E0,0E0,0E0,0E0,0E0,0E0,0E0,0E0,0E0,0E0,0E0,0E0,0E0,0E0,0E0,0E0,0E0,0E0,0E0,0E0,0E0,0E0,0E0],"parents":[2147483647,0,0,1,1,2,2,3,3,4,4,5,5,6,6,7,7,9,9,10,10,11,11,12,12,13,13,14,14,15,15,16,16,17,17,18,18,19,19,20,20,21,21,22,22,23,23,24,24,25,25,28,28,30,30,31,31,32,32,33,33,34,34,35,35,37,37,38,38,39,39,40,40,41,41,42,42,43,43,44,44,45,45,46,46,47,47,48,48,51,51,52,52,57,57,60,60,61,61,62,62,65,65,66,66,71,71,72,72,73,73,74,74,75,75,76,76,77,77,79,79,80,80,82,82,84,84,85,85,86,86,93,93,98,98,102,102,105,105,107,107,108,108,109,109,110,110,111,111,112,112,113,113,114,114,115,115,116,116,117,117,118,118,119,119,129,129],"right_children":[2,4,6,8,10,12,14,16,-1,18,20,22,24,26,28,30,32,34,36,38,40,42,44,46,48,50,-1,-1,52,-1,54,56,58,60,62,64,-1,66,68,70,72,74,76,78,80,82,84,86,88,-1,-1,90,92,-1,-1,-1,-1,94,-1,-1,96,98,100,-1,-1,102,104,-1,-1,-1,-1,106,108,110,112,114,116,118,-1,120,122,-1,124,-1,126,128,130,-1,-1,-1,-1,-1,-1,132,-1,-1,-1,-1,134,-1,-1,-1,136,-1,-1,138,-1,140,142,144,146,148,150,152,154,156,158,160,162,164,-1,-1,-1,-1,-1,-1,-1,-1,-1,166,-1,-1,-1,-1,-1,-1,-1,-1,-1,-1,-1,-1,-1,-1,-1,-1,-1,-1,-1,-1,-1,-1,-1,-1,-1,-1,-1,-1,-1,-1,-1,-1,-1,-1,-1,-1,-1],"split_conditions":[2.4724111E-2,5.357949E0,-1.4368496E0,4.1382226E-1,2.7268705E1,6.0861602E-2,4.2675967E0,-3.136772E-2,-4.698145E-2,2.4814377E-2,1.7469673E-1,7.964615E1,-7.967389E0,1.1642958E1,2.3437733E1,-6.7687936E-2,3.4503057E0,-7.882671E-2,-1.484049E0,1.0378731E-1,-7.646904E-2,-5.327342E0,-1.20245E0,9.809087E0,1.0264687E1,7.347269E0,-4.9451366E-2,3.0192519E-3,-2.3147085E-1,-1.0009679E-2,1.3171703E-2,-1.0664146E-2,2.9205643E1,4.006438E-2,7.389523E-2,3.8606357E-2,-1.8715104E-2,2.8434477E1,1.4718503E-2,-8.133476E-2,2.330398E1,-4.565808E-2,3.7013443E1,1.0697648E1,-7.7012707E-3,1.2051082E1,-4.035715E-2,-4.3672554E-2,8.88844E-2,5.8484323E-2,-8.25287E-3,2.5041035E1,7.6410093E0,8.391718E-2,-3.0667614E-3,7.7544153E-3,6.49602E-2,3.0647562E1,3.298473E-2,-7.4724264E-2,5.8971043E0,1.361964E-1,-2.9202051E-2,8.402879E-2,3.2264065E-2,1.967042E1,3.9717588E0,-4.710233E-2,3.425227E-2,-1.706968E-2,6.316842E-2,-5.5085385E-1,-8.370076E0,-7.465872E0,1.8994434E1,-3.0986884E0,1.3021207E0,-6.911848E0,-6.824588E-2,-1.022228E-2,-6.26938E-2,9.640157E-2,-1.5610463E1,-1.3610332E-2,-3.5178463E0,-4.888149E-2,8.635627E0,-6.978896E-2,2.622608E-2,-3.0667614E-3,-4.162147E-2,-4.095042E-2,-8.21401E-2,1.09688286E2,-6.902906E-2,-5.5324234E-2,1.7288713E-2,-1.9980893E-2,-2.418855E-3,-6.851996E-2,-1.7798815E-3,-8.287986E-2,8.065585E-3,2.622608E-2,-5.7113208E-2,-3.6190614E-2,-1.3042557E-3,6.9000416E0,4.009744E1,2.2156042E1,-1.1771562E-1,3.1856243E-2,1.0815013E2,7.163247E0,3.443728E0,3.3903755E-2,-3.086161E-2,4.884478E0,-2.0456324E0,-6.21378E-2,-1.1139179E-2,-3.0667614E-3,-6.0687937E-2,7.467505E-2,2.8699953E-3,1.2962966E-2,7.661817E-2,-3.839759E-2,2.1221306E-2,1.361964E-1,-1.7798815E-3,2.8103566E-2,-5.0174534E-2,7.0027776E-2,-2.3556105E-3,-6.0151156E-2,-2.2015424E-2,-1.4843704E-2,-8.280536E-2,6.8516405E-3,-6.3466795E-2,4.26842E-2,-1.9375738E-2,-5.9345223E-2,8.710181E-3,4.6955034E-2,-3.636644E-3,7.932152E-2,3.568478E-2,-1.9730004E-3,3.2048773E-2,8.710181E-3,-5.7063468E-2,4.6070307E-2,-2.0848475E-2,8.402879E-2,3.2264065E-2,-5.078554E-2,2.0070584E-2,-3.0382771E-2,4.3881316E-2,-4.5926876E-2,9.486611E-3,-1.4843704E-2,6.5022565E-2,7.73746E-2,2.0487124E-2],"split_indices":[57,29,24,6,12,57,49,39,0,42,56,1,24,13,20,39,49,18,8,22,19,24,48,21,21,8,0,0,2,0,50,22,20,55,55,11,0,5,57,11,5,14,12,21,31,13,30,18,57,0,0,5,21,0,0,0,0,12,0,0,36,56,31,0,0,20,44,0,0,0,0,48,24,32,20,24,44,32,0,39,6,0,8,0,48,30,36,0,0,0,0,0,0,4,0,0,0,0,42,0,0,0,42,0,0,19,0,29,12,20,18,6,4,21,8,11,38,41,48,39,0,0,0,0,0,0,0,0,0,56,0,0,0,0,0,0,0,0,0,0,0,0,0,0,0,0,0,0,0,0,0,0,0,0,0,0,0,0,0,0,0,0,0,0,0,0,0],"split_type":[0,0,0,0,0,0,0,0,0,0,0,0,0,0,0,0,0,0,0,0,0,0,0,0,0,0,0,0,0,0,0,0,0,0,0,0,0,0,0,0,0,0,0,0,0,0,0,0,0,0,0,0,0,0,0,0,0,0,0,0,0,0,0,0,0,0,0,0,0,0,0,0,0,0,0,0,0,0,0,0,0,0,0,0,0,0,0,0,0,0,0,0,0,0,0,0,0,0,0,0,0,0,0,0,0,0,0,0,0,0,0,0,0,0,0,0,0,0,0,0,0,0,0,0,0,0,0,0,0,0,0,0,0,0,0,0,0,0,0,0,0,0,0,0,0,0,0,0,0,0,0,0,0,0,0,0,0,0,0,0,0,0,0,0,0,0,0],"sum_hessian":[6.2989294E2,2.314351E2,3.9845786E2,5.0930702E1,1.8050441E2,3.6150815E2,3.6949726E1,4.5937496E1,4.993206E0,5.2927986E1,1.2757642E2,2.8785834E2,7.3649796E1,1.12347145E1,2.5715012E1,1.7226562E1,2.8710936E1,4.069463E1,1.22333555E1,7.614639E1,5.1430023E1,2.1296025E2,7.4898094E1,3.7948368E1,3.5701424E1,6.990489E0,4.2442255E0,4.4938855E0,2.1221127E1,4.743546E0,1.2483016E1,8.488451E0,2.0222485E1,1.4979619E1,2.5715012E1,7.4898095E0,4.743546E0,6.5910324E1,1.0236073E1,9.237432E0,4.2192593E1,1.5628735E2,5.667289E1,4.5937496E1,2.8960596E1,2.2469429E1,1.5478939E1,2.5715012E1,9.986412E0,3.4952445E0,3.4952445E0,6.7408285E0,1.4480298E1,9.237432E0,3.245584E0,4.2442255E0,4.2442255E0,1.622792E1,3.994565E0,5.742187E0,9.237432E0,1.7226562E1,8.488451E0,4.2442255E0,3.245584E0,5.642323E1,9.487092E0,3.994565E0,6.241508E0,3.994565E0,5.2428665E0,1.7725882E1,2.4466711E1,4.9183083E1,1.0710427E2,3.27055E1,2.396739E1,3.819803E1,7.7394695E0,2.1221127E1,7.7394695E0,1.2982336E1,9.487092E0,4.993206E0,1.0485733E1,7.7394695E0,1.7975542E1,4.4938855E0,5.492527E0,3.245584E0,3.4952445E0,5.2428665E0,9.237432E0,8.2387905E0,7.98913E0,4.993206E0,4.2442255E0,5.492527E0,1.1734035E1,4.2442255E0,4.2442255E0,1.3481657E1,4.2941574E1,5.492527E0,3.994565E0,1.2982336E1,4.743546E0,1.37313175E1,1.0735394E1,1.0236073E1,3.894701E1,2.9210257E1,7.789402E1,2.2469429E1,1.0236073E1,7.4898095E0,1.6477581E1,1.2483016E1,2.5715012E1,1.52292795E1,5.9918475E0,3.245584E0,4.4938855E0,5.9918475E0,3.4952445E0,3.994565E0,6.491168E0,3.245584E0,4.4938855E0,1.37313175E1,4.2442255E0,4.993206E0,3.245584E0,7.98913E0,3.7449048E0,2.9210257E1,1.37313175E1,3.245584E0,9.7367525E0,5.742187E0,7.98913E0,7.240149E0,3.4952445E0,6.990489E0,3.245584E0,8.738111E0,3.0208899E1,1.5478939E1,1.37313175E1,2.1720448E1,5.617357E1,3.245584E0,1.9223845E1,5.9918475E0,4.2442255E0,4.2442255E0,3.245584E0,5.492527E0,1.0985054E1,4.2442255E0,8.2387905E0,1.8724524E1,6.990489E0,3.245584E0,1.1983695E1,1.0485733E1,3.245584E0],"tree_param":{"num_deleted":"0","num_feature":"59","num_nodes":"167","size_leaf_vector":"1"}},{"base_weights":[-1.8569788E-4,-2.8206486E-1,2.8983596E-1,-1.4974788E-1,-6.201831E-1,5.374713E-1,-1.5382996E-1,-1.0076476E0,-8.370076E-2,-7.925248E-1,-2.351547E-1,9.940875E-1,3.4760255E-1,9.060357E-1,-2.6899853E-1,-2.585585E-1,-7.5004146E-2,1.0042038E-2,-6.613676E-1,-5.9322447E-1,-1.2178642E0,-1.20119145E-2,-5.981461E-2,1.2985282E0,3.3438686E-1,1.7171527E-1,1.0178314E0,-2.8950342E-3,1.3045423E0,-4.3474832E-1,5.4416937E-1,2.4203774E-2,-4.925106E-2,-1.4110985E-1,3.904854E-1,-1.22009516E-1,-9.973542E-1,-9.8479056E-1,-2.7062923E-1,-8.658098E-3,-1.4466801E0,-5.75323E-1,5.4102963E-1,1.4394685E0,1.8704573E-3,9.749138E-1,-2.099397E-1,3.3054122E-1,-6.988559E-1,1.4074843E0,4.8706234E-2,3.1725224E-2,8.145251E-2,4.1411752E-1,-5.9973484E-1,-1.7801357E-2,1.0336626E0,1.9085805E-1,-5.4890853E-1,-5.0103456E-2,7.505977E-1,-4.037943E-2,4.6542767E-1,-5.281207E-1,-8.260503E-2,9.071252E-3,-1.2294091E0,-1.0247936E0,5.5703573E-2,-8.604964E-2,-2.982894E-2,2.1219542E-2,-9.621607E-1,-1.7330406E-2,6.751981E-2,8.304827E-2,8.671885E-1,8.211491E-3,7.485872E-2,5.726976E-1,-6.711947E-2,1.1988791E-1,9.2034477E-1,6.24235E-2,-1.1892997E0,3.1146368E-2,7.7768326E-2,4.086185E-2,-4.4611003E-2,6.6970155E-2,-1.3610697E-1,2.9683828E-1,-7.752194E-1,7.1135126E-2,8.017146E-3,-8.3341286E-2,9.7488594E-1,-8.099694E-1,2.3176795E-2,-6.011964E-1,3.7361148E-1,1.1499183E0,1.5486006E-1,-1.3973209E-2,5.498878E-2,7.622581E-3,-5.7679623E-2,-1.5189226E0,-2.7475846E-3,-2.6333883E-2,-6.335713E-2,-4.575954E-2,3.8080496E-1,-2.346298E-3,-7.15346E-2,6.4636886E-2,1.3439844E-2,6.579668E-2,-1.530644E-2,-2.9774144E-1,4.7662035E-1,1.1918122E0,-1.0955049E-2,3.9157998E-2,-3.7910316E-2,-7.522523E-2,-2.2873662E-2,3.9497282E-2,-4.0911213E-2,-2.8087735E-2,5.2566797E-2,-5.185294E-1,-1.352801E0,3.8229354E-2,-1.383019E-2,7.1822114E-2,-2.0510974E-4,-1.4248555E-2,-5.546063E-2,-3.1618036E-2,2.3347208E-2,-6.968013E-2,6.6914447E-3,5.7970118E-2,-1.2895695E-2,2.3302337E-2,7.55655E-2,3.8979646E-2,-3.2250814E-2,-8.498593E-2,-3.7316855E-2,3.3950858E-2,-2.5809785E-2,6.0043084E-3,-5.6779105E-2,4.0004995E-2,-1.6951159E-2,7.2143706E-3,7.4679665E-2,-3.4510236E-2,3.0703349E-2,-3.4227196E-2,-7.95895E-2],"categories":[],"categories_nodes":[],"categories_segments":[],"categories_sizes":[],"default_left":[0,0,0,0,0,0,0,0,0,0,0,0,0,0,0,0,0,0,0,0,0,0,0,0,0,0,0,0,0,0,0,0,0,0,0,0,0,0,0,0,0,0,0,0,0,0,0,0,0,0,0,0,0,0,0,0,0,0,0,0,0,0,0,0,0,0,0,0,0,0,0,0,0,0,0,0,0,0,0,0,0,0,0,0,0,0,0,0,0,0,0,0,0,0,0,0,0,0,0,0,0,0,0,0,0,0,0,0,0,0,0,0,0,0,0,0,0,0,0,0,0,0,0,0,0,0,0,0,0,0,0,0,0,0,0,0,0,0,0,0,0,0,0,0,0,0,0,0,0,0,0,0,0,0,0,0,0,0,0,0,0,0,0],"id":1,"left_children":[1,3,5,7,9,11,13,15,17,19,21,23,25,27,29,31,-1,33,35,37,39,41,-1,43,45,47,49,-1,51,53,55,-1,-1,57,59,61,63,65,67,-1,69,71,73,75,-1,77,79,81,83,85,87,-1,-1,89,91,-1,93,95,97,99,101,-1,103,105,-1,-1,107,109,111,-1,-1,-1,113,-1,-1,-1,115,-1,-1,117,-1,119,121,123,125,-1,-1,-1,-1,-1,127,129,131,-1,-1,133,135,137,139,141,143,145,147,-1,-1,-1,-1,149,-1,-1,-1,-1,151,-1,-1,-1,-1,-1,-1,153,155,157,-1,-1,-1,-1,-1,-1,-1,-1,-1,159,161,-1,-1,-1,-1,-1,-1,-1,-1,-1,-1,-1,-1,-1,-1,-1,-1,-1,-1,-1,-1,-1,-1,-1,-1,-1,-1,-1,-1,-1,-1],"loss_changes":[5.162625E1,1.4234636E1,3.4279728E1,1.30324E1,5.769539E0,1.699237E1,1.394837E1,5.682871E0,1.1705362E1,4.497795E0,6.2428174E0,1.1253864E1,1.6657576E1,4.39065E0,1.3989996E1,4.6502767E0,0E0,1.08002405E1,5.347062E0,5.276618E0,4.219309E0,8.002419E0,0E0,6.962181E0,7.081211E0,1.603623E1,1.106336E1,0E0,7.0367813E-1,1.2197538E1,8.176924E0,0E0,0E0,1.8307568E1,8.509428E0,5.4997315E0,4.7974663E0,5.7698E0,6.3178997E0,0E0,2.5185509E0,5.3255935E0,9.788105E0,3.0567932E0,0E0,3.665388E0,1.0947897E1,1.19848175E1,6.7789936E0,1.4663734E0,7.591263E0,0E0,0E0,7.5521684E0,1.1533684E1,0E0,3.759181E0,1.6175518E1,9.068871E0,6.051036E0,6.826294E0,0E0,3.8447046E0,5.3778696E0,0E0,0E0,5.425123E0,2.6634598E-1,6.252382E0,0E0,0E0,0E0,3.9953527E0,0E0,0E0,0E0,2.7063274E0,0E0,0E0,5.296684E0,0E0,1.0999786E1,8.139397E0,5.3173003E0,1.8425684E0,0E0,0E0,0E0,0E0,0E0,6.9539533E0,8.677311E0,8.247589E0,0E0,0E0,9.451802E0,8.806704E0,6.225191E0,6.101716E0,6.7266955E0,7.6052217E0,3.6138344E0,6.9848237E0,0E0,0E0,0E0,0E0,5.416069E-1,0E0,0E0,0E0,0E0,4.2876887E0,0E0,0E0,0E0,0E0,0E0,0E0,1.2105373E1,1.0743342E1,6.3359184E0,0E0,0E0,0E0,0E0,0E0,0E0,0E0,0E0,0E0,8.864509E0,1.7771378E0,0E0,0E0,0E0,0E0,0E0,0E0,0E0,0E0,0E0,0E0,0E0,0E0,0E0,0E0,0E0,0E0,0E0,0E0,0E0,0E0,0E0,0E0,0E0,0E0,0E0,0E0,0E0,0E0,0E0,0E0],"parents":[2147483647,0,0,1,1,2,2,3,3,4,4,5,5,6,6,7,7,8,8,9,9,10,10,11,11,12,12,13,13,14,14,15,15,17,17,18,18,19,19,20,20,21,21,23,23,24,24,25,25,26,26,28,28,29,29,30,30,33,33,34,34,35,35,36,36,37,37,38,38,40,40,41,41,42,42,43,43,45,45,46,46,47,47,48,48,49,49,50,50,53,53,54,54,56,56,57,57,58,58,59,59,60,60,62,62,63,63,66,66,67,67,68,68,72,72,76,76,79,79,81,81,82,82,83,83,84,84,90,90,91,91,92,92,95,95,96,96,97,97,98,98,99,99,100,100,101,101,102,102,107,107,112,112,119,119,120,120,121,121,131,131,132,132],"right_children":[2,4,6,8,10,12,14,16,18,20,22,24,26,28,30,32,-1,34,36,38,40,42,-1,44,46,48,50,-1,52,54,56,-1,-1,58,60,62,64,66,68,-1,70,72,74,76,-1,78,80,82,84,86,88,-1,-1,90,92,-1,94,96,98,100,102,-1,104,106,-1,-1,108,110,112,-1,-1,-1,114,-1,-1,-1,116,-1,-1,118,-1,120,122,124,126,-1,-1,-1,-1,-1,128,130,132,-1,-1,134,136,138,140,142,144,146,148,-1,-1,-1,-1,150,-1,-1,-1,-1,152,-1,-1,-1,-1,-1,-1,154,156,158,-1,-1,-1,-1,-1,-1,-1,-1,-1,160,162,-1,-1,-1,-1,-1,-1,-1,-1,-1,-1,-1,-1,-1,-1,-1,-1,-1,-1,-1,-1,-1,-1,-1,-1,-1,-1,-1,-1,-1,-1],"split_conditions":[-2.028882E2,1.3767774E-1,4.129781E2,-9.862019E-2,3.360897E-1,4.804891E0,-1.7870337E-1,-1.23466E-1,1.4732115E0,1.0038228E-2,9.671685E0,1.2165016E1,-1.2277473E2,-1.3700803E-1,7.23409E0,5.4629173E0,-7.5004146E-2,5.141348E0,4.8838205E0,-9.194162E-2,3.3617587E2,5.350289E0,-5.981461E-2,2.1892982E-2,-1.7866672E2,1.1236259E1,1.8008485E-2,-2.8950342E-3,-5.533268E0,1.702518E-1,-1.7456111E2,2.4203774E-2,-4.925106E-2,7.143208E0,-9.405898E-3,4.202416E0,-4.349162E-2,3.927361E0,6.4138565E0,-8.658098E-3,1.8511814E-1,-6.333689E-2,7.894893E0,4.555433E0,1.8704573E-3,-1.8947568E2,-1.9666938E-2,2.8738188E-2,-3.430761E-2,-5.1891092E-2,7.667124E0,3.1725224E-2,8.145251E-2,-8.7027565E-2,5.634104E0,-1.7801357E-2,8.4255345E-2,8.9597857E-1,6.780522E-3,-3.3704183E0,-6.6537084E-3,-4.037943E-2,-4.2693877E0,7.3974934E0,-8.260503E-2,9.071252E-3,2.4621956E-2,6.846378E0,-1.2293211E-1,-8.604964E-2,-2.982894E-2,2.1219542E-2,-4.664553E-2,-1.7330406E-2,6.751981E-2,8.304827E-2,5.0242925E0,8.211491E-3,7.485872E-2,6.923132E0,-6.711947E-2,-2.589314E0,7.0430865E0,-4.0224954E-2,7.8493E-3,3.1146368E-2,7.7768326E-2,4.086185E-2,-4.4611003E-2,6.6970155E-2,-1.2130119E-2,-2.8640153E-2,-7.534985E0,7.1135126E-2,8.017146E-3,-8.8306785E-2,1.24233E-2,-2.8152103E-2,-1.3257392E-2,5.5116377E0,-2.5872258E-2,-2.8602772E0,-3.0784627E-2,-1.3973209E-2,5.498878E-2,7.622581E-3,-5.7679623E-2,-1.6798347E-2,-2.7475846E-3,-2.6333883E-2,-6.335713E-2,-4.575954E-2,5.2359736E-1,-2.346298E-3,-7.15346E-2,6.4636886E-2,1.3439844E-2,6.579668E-2,-1.530644E-2,6.3959823E0,1.2647936E1,4.3327155E0,-1.0955049E-2,3.9157998E-2,-3.7910316E-2,-7.522523E-2,-2.2873662E-2,3.9497282E-2,-4.0911213E-2,-2.8087735E-2,5.2566797E-2,2.0446649E-2,-1.8492535E2,3.8229354E-2,-1.383019E-2,7.1822114E-2,-2.0510974E-4,-1.4248555E-2,-5.546063E-2,-3.1618036E-2,2.3347208E-2,-6.968013E-2,6.6914447E-3,5.7970118E-2,-1.2895695E-2,2.3302337E-2,7.55655E-2,3.8979646E-2,-3.2250814E-2,-8.498593E-2,-3.7316855E-2,3.3950858E-2,-2.5809785E-2,6.0043084E-3,-5.6779105E-2,4.0004995E-2,-1.6951159E-2,7.2143706E-3,7.4679665E-2,-3.4510236E-2,3.0703349E-2,-3.4227196E-2,-7.95895E-2],"split_indices":[0,6,53,27,6,37,14,27,2,50,21,28,0,30,37,33,0,49,37,7,53,37,0,23,0,21,42,0,32,56,0,0,0,25,42,41,14,45,25,0,56,15,21,37,0,0,15,15,34,46,37,0,0,7,25,0,2,2,27,8,35,0,32,36,0,0,15,36,14,0,0,0,46,0,0,0,33,0,0,36,0,48,37,7,35,0,0,0,0,0,27,27,8,0,0,15,35,2,46,45,39,48,15,0,0,0,0,23,0,0,0,0,2,0,0,0,0,0,0,36,28,45,0,0,0,0,0,0,0,0,0,51,0,0,0,0,0,0,0,0,0,0,0,0,0,0,0,0,0,0,0,0,0,0,0,0,0,0,0,0,0,0,0],"split_type":[0,0,0,0,0,0,0,0,0,0,0,0,0,0,0,0,0,0,0,0,0,0,0,0,0,0,0,0,0,0,0,0,0,0,0,0,0,0,0,0,0,0,0,0,0,0,0,0,0,0,0,0,0,0,0,0,0,0,0,0,0,0,0,0,0,0,0,0,0,0,0,0,0,0,0,0,0,0,0,0,0,0,0,0,0,0,0,0,0,0,0,0,0,0,0,0,0,0,0,0,0,0,0,0,0,0,0,0,0,0,0,0,0,0,0,0,0,0,0,0,0,0,0,0,0,0,0,0,0,0,0,0,0,0,0,0,0,0,0,0,0,0,0,0,0,0,0,0,0,0,0,0,0,0,0,0,0,0,0,0,0,0,0],"sum_hessian":[6.2950555E2,3.1924802E2,3.1025757E2,2.3049176E2,8.8756256E1,1.9898256E2,1.11275E2,1.545729E1,2.1503447E2,6.058126E1,2.8174997E1,5.7196003E1,1.4178656E2,1.0233332E1,1.01041664E2,6.735838E0,8.721453E0,1.858566E2,2.9177877E1,4.2882576E1,1.7698687E1,2.368797E1,4.4870276E0,3.8473E1,1.8723001E1,1.133076E2,2.8478958E1,3.2431862E0,6.9901457E0,8.431992E1,1.6721746E1,3.4958367E0,3.2400012E0,1.3346101E2,5.2395576E1,1.1722664E1,1.7455212E1,1.8443336E1,2.4439238E1,3.4956071E0,1.4203079E1,1.1715071E1,1.19728985E1,3.4478344E1,3.9946551E0,8.238014E0,1.0484987E1,9.634995E1,1.6957651E1,1.9989515E1,8.489443E0,3.2450697E0,3.745076E0,1.3475846E1,7.084407E1,5.9859743E0,1.0735772E1,7.386406E1,5.959695E1,2.3951883E1,2.8443695E1,5.2365217E0,6.486142E0,1.1220489E1,6.234724E0,3.2426028E0,1.5200733E1,6.7347364E0,1.7704502E1,9.963559E0,4.2395205E0,3.241335E0,8.473736E0,5.983027E0,5.9898715E0,2.3485922E1,1.0992423E1,3.742752E0,4.4952617E0,6.4923797E0,3.992607E0,7.188049E1,2.4469456E1,6.9862056E0,9.971445E0,3.9969401E0,1.5992576E1,4.745149E0,3.7442932E0,4.490354E0,8.985492E0,1.1483233E1,5.936084E1,6.991968E0,3.7438042E0,5.538713E1,1.847693E1,4.0637115E1,1.8959837E1,1.0228978E1,1.3722904E1,1.64722E1,1.1971495E1,3.2404478E0,3.2456944E0,5.735732E0,5.4847565E0,1.1959356E1,3.2413774E0,3.2428036E0,3.4919329E0,3.9858685E0,1.3718633E1,3.2416363E0,5.232099E0,5.745867E0,5.2465563E0,3.248067E0,3.2443128E0,3.3190033E1,3.869046E1,1.9724285E1,4.7451706E0,3.7437947E0,3.2424111E0,6.23161E0,3.7398353E0,3.744213E0,5.241279E0,5.4905877E0,5.9926457E0,4.2410458E1,1.6950382E1,9.7320595E0,4.565507E1,1.223929E1,6.2376394E0,1.546221E1,2.5174904E1,7.48215E0,1.1477687E1,4.491187E0,5.7377915E0,5.74218E0,7.980725E0,6.4867425E0,9.985457E0,6.735882E0,5.235613E0,8.718957E0,3.2403986E0,1.0478139E1,3.2404938E0,2.2717556E1,1.0472478E1,2.771708E1,1.097338E1,4.7420583E0,1.4982226E1,3.716735E1,5.243107E0,5.483064E0,1.1467318E1],"tree_param":{"num_deleted":"0","num_feature":"59","num_nodes":"163","size_leaf_vector":"1"}},{"base_weights":[-4.2668547E-4,-7.545731E-2,4.8251843E-1,4.2076093E-1,-1.24010414E-1,9.632002E-1,-1.8342316E-1,-5.927932E-1,6.5550256E-1,4.240824E-1,-1.694252E-1,1.3024857E0,2.529364E-1,2.0329285E-1,-8.3839375E-1,-6.210379E-2,1.7542494E-2,7.928389E-1,-3.0633172E-2,8.487193E-1,-4.5411475E-2,-4.5034464E-2,-3.4946522E-1,1.4711283E0,6.1253137E-3,-4.097237E-1,8.042728E-1,-7.147128E-1,5.900572E-1,-1.1269728E0,-2.7197239E-3,9.9910456E-1,-1.138671E-2,6.0085966E-3,1.1290258E0,-5.7046705E-1,4.4589257E-1,2.4518584E-1,-1.9699872E-1,-3.8408488E-1,5.7509363E-2,1.6488318E0,2.575626E-2,1.2094149E-2,-5.217225E-2,6.0698204E-3,7.864982E-2,-2.7782638E-3,-6.0276747E-2,-1.4291574E-2,9.702889E-1,-7.243832E-2,-2.0614404E-2,2.5816187E-3,1.1187195E0,1.7239217E-2,1.3701509E0,-5.3224273E-2,8.611734E-3,5.780663E-2,-3.7426099E-3,-6.883763E-2,6.8571216E-1,-2.3329578E-1,5.9705157E-2,-6.3296147E-3,-5.17224E-1,8.82987E-2,4.4670742E-2,1.0728535E-2,6.905431E-2,1.3906001E0,4.6396133E-1,8.095021E-2,3.0402446E-2,3.3452466E-1,-5.2637714E-1,9.6710134E-1,-4.3864714E-4,5.9248585E-1,-3.010928E-1,2.2300516E-1,-7.792544E-1,-2.556079E-1,-7.769543E-1,7.769247E-2,2.906309E-2,-2.7105197E-2,5.3685676E-2,3.296679E-2,-4.0002752E-2,-4.2733163E-2,1.2324247E-2,-1.51490895E-2,6.1142683E-2,3.197766E-2,-4.319768E-2,5.0285976E-2,-1.6669266E-2,-5.6798037E-2,-1.20583875E-2,4.186964E-2,-5.9968513E-3,1.3491869E-2,-6.3654914E-2,-5.305766E-2,-3.2848686E-3,-5.8971565E-2,-2.445831E-2],"categories":[],"categories_nodes":[],"categories_segments":[],"categories_sizes":[],"default_left":[0,0,0,0,0,0,0,0,0,0,0,0,0,0,0,0,0,0,0,0,0,0,0,0,0,0,0,0,0,0,0,0,0,0,0,0,0,0,0,0,0,0,0,0,0,0,0,0,0,0,0,0,0,0,0,0,0,0,0,0,0,0,0,0,0,0,0,0,0,0,0,0,0,0,0,0,0,0,0,0,0,0,0,0,0,0,0,0,0,0,0,0,0,0,0,0,0,0,0,0,0,0,0,0,0,0,0,0,0],"id":2,"left_children":[1,3,5,7,9,11,13,15,17,19,21,23,25,27,29,-1,-1,31,-1,33,35,37,39,41,-1,43,45,47,49,51,-1,53,-1,-1,55,57,59,61,63,65,-1,67,-1,-1,-1,-1,-1,-1,-1,-1,69,-1,-1,-1,71,-1,73,-1,-1,-1,-1,75,77,79,-1,81,83,-1,-1,-1,-1,85,87,-1,-1,89,91,93,95,97,99,101,103,105,107,-1,-1,-1,-1,-1,-1,-1,-1,-1,-1,-1,-1,-1,-1,-1,-1,-1,-1,-1,-1,-1,-1,-1,-1],"loss_changes":[2.2859428E1,1.3207375E1,2.7331478E1,1.2021108E1,1.2470984E1,1.1581905E1,9.3906975E0,6.390666E0,7.4824276E0,7.6944904E0,1.0302341E1,6.42815E0,6.6206813E0,8.8340225E0,3.0403395E0,0E0,0E0,7.9496803E0,0E0,3.9925528E0,5.2038383E0,1.2115806E1,1.0207705E1,4.0713997E0,0E0,3.755243E0,4.920317E0,2.3514993E0,6.011538E0,1.6955957E0,0E0,3.4216747E0,0E0,0E0,2.2656116E0,3.747322E0,3.9601202E0,1.3117117E1,9.374397E0,9.281504E0,0E0,5.434494E-1,0E0,0E0,0E0,0E0,0E0,0E0,0E0,0E0,3.5014868E0,0E0,0E0,0E0,4.198902E0,0E0,1.0520477E0,0E0,0E0,0E0,0E0,1.0523776E1,7.6097546E0,1.0054035E1,0E0,8.881032E0,9.075737E0,0E0,0E0,0E0,0E0,1.571064E0,6.4004536E0,0E0,0E0,1.1734298E1,6.9744906E0,9.449312E0,7.439289E0,5.5847254E0,7.914666E0,8.245936E0,6.282077E0,1.0560601E1,7.2994537E0,0E0,0E0,0E0,0E0,0E0,0E0,0E0,0E0,0E0,0E0,0E0,0E0,0E0,0E0,0E0,0E0,0E0,0E0,0E0,0E0,0E0,0E0,0E0,0E0],"parents":[2147483647,0,0,1,1,2,2,3,3,4,4,5,5,6,6,7,7,8,8,9,9,10,10,11,11,12,12,13,13,14,14,17,17,19,19,20,20,21,21,22,22,23,23,25,25,26,26,27,27,28,28,29,29,31,31,34,34,35,35,36,36,37,37,38,38,39,39,41,41,50,50,54,54,56,56,61,61,62,62,63,63,65,65,66,66,71,71,72,72,75,75,76,76,77,77,78,78,79,79,80,80,81,81,82,82,83,83,84,84],"right_children":[2,4,6,8,10,12,14,16,18,20,22,24,26,28,30,-1,-1,32,-1,34,36,38,40,42,-1,44,46,48,50,52,-1,54,-1,-1,56,58,60,62,64,66,-1,68,-1,-1,-1,-1,-1,-1,-1,-1,70,-1,-1,-1,72,-1,74,-1,-1,-1,-1,76,78,80,-1,82,84,-1,-1,-1,-1,86,88,-1,-1,90,92,94,96,98,100,102,104,106,108,-1,-1,-1,-1,-1,-1,-1,-1,-1,-1,-1,-1,-1,-1,-1,-1,-1,-1,-1,-1,-1,-1,-1,-1],"split_conditions":[1.3784702E2,3.4503057E0,3.6542287E0,-9.686489E-2,-2.7567825E-1,2.33471E1,6.4904386E-1,5.258712E-3,1.7818503E0,1.0254317E1,-5.065093E-3,2.3812553E1,-2.3036607E-2,-2.510643E-1,1.7522629E1,-6.210379E-2,1.7542494E-2,8.8663936E-1,-3.0633172E-2,-7.3910534E-2,2.689021E1,-4.2153634E-2,1.890665E-1,-1.12100825E-1,6.1253137E-3,-5.4041926E-2,1.5009491E2,1.2685685E1,-3.07631E-2,6.3788947E-3,-2.7197239E-3,-8.213725E-2,-1.138671E-2,6.0085966E-3,-2.2812301E-2,2.0244977E-2,2.9940605E1,-6.098374E-2,1.3611168E-1,-1.5464134E1,5.7509363E-2,1.1481278E1,2.575626E-2,1.2094149E-2,-5.217225E-2,6.0698204E-3,7.864982E-2,-2.7782638E-3,-6.0276747E-2,-1.4291574E-2,5.2984853E0,-7.243832E-2,-2.0614404E-2,2.5816187E-3,8.200465E0,1.7239217E-2,1.3509061E-2,-5.3224273E-2,8.611734E-3,5.780663E-2,-3.7426099E-3,8.154309E0,1.7268567E-1,4.382407E0,5.9705157E-2,1.2287619E-1,1.08740525E-2,8.82987E-2,4.4670742E-2,1.0728535E-2,6.905431E-2,2.750465E1,-2.3510637E-2,8.095021E-2,3.0402446E-2,-6.933896E-2,1.2370177E2,3.5873062E2,-3.1651195E-2,1.3822985E1,-2.3191756E-1,2.4407158E1,9.724125E0,-9.852317E-2,-1.4847314E-2,7.769247E-2,2.906309E-2,-2.7105197E-2,5.3685676E-2,3.296679E-2,-4.0002752E-2,-4.2733163E-2,1.2324247E-2,-1.51490895E-2,6.1142683E-2,3.197766E-2,-4.319768E-2,5.0285976E-2,-1.6669266E-2,-5.6798037E-2,-1.20583875E-2,4.186964E-2,-5.9968513E-3,1.3491869E-2,-6.3654914E-2,-5.305766E-2,-3.2848686E-3,-5.8971565E-2,-2.445831E-2],"split_indices":[4,49,8,30,3,20,3,43,48,28,7,9,46,6,8,0,0,3,0,18,5,39,18,8,0,23,4,28,50,30,0,19,0,0,43,6,5,39,15,8,0,28,0,0,0,0,0,0,0,0,36,0,0,0,21,0,43,0,0,0,0,36,6,33,0,55,14,0,0,0,0,20,39,0,0,39,4,53,23,28,18,5,28,38,51,0,0,0,0,0,0,0,0,0,0,0,0,0,0,0,0,0,0,0,0,0,0,0,0],"split_type":[0,0,0,0,0,0,0,0,0,0,0,0,0,0,0,0,0,0,0,0,0,0,0,0,0,0,0,0,0,0,0,0,0,0,0,0,0,0,0,0,0,0,0,0,0,0,0,0,0,0,0,0,0,0,0,0,0,0,0,0,0,0,0,0,0,0,0,0,0,0,0,0,0,0,0,0,0,0,0,0,0,0,0,0,0,0,0,0,0,0,0,0,0,0,0,0,0,0,0,0,0,0,0,0,0,0,0,0,0],"sum_hessian":[6.288494E2,5.450188E2,8.3830666E1,4.7891922E1,4.9712686E2,4.842834E1,3.5402325E1,8.71923E0,3.917269E1,3.7401783E1,4.5972507E2,3.2208755E1,1.6219585E1,2.269316E1,1.2709167E1,4.9778895E0,3.7413397E0,3.568319E1,3.4895036E0,1.9214956E1,1.8186827E1,2.7262024E2,1.8710484E2,2.7965225E1,4.2435308E0,7.482773E0,8.736813E0,6.4754376E0,1.621772E1,8.969977E0,3.7391891E0,2.9701351E1,5.9818373E0,5.735772E0,1.3479183E1,8.713548E0,9.473279E0,9.347977E1,1.7914047E2,1.8361006E2,3.4947798E0,2.2970682E1,4.9945436E0,3.9941797E0,3.4885933E0,5.239952E0,3.4968605E0,3.238934E0,3.2365036E0,4.9843082E0,1.1233413E1,5.4768386E0,3.4931386E0,3.4898462E0,2.6211506E1,3.7411776E0,9.738006E0,4.9726562E0,3.7408922E0,3.491329E0,5.98195E0,5.506858E1,3.8411186E1,1.7539627E2,3.7442007E0,4.8121784E1,1.3548828E2,1.8728685E1,4.2419972E0,4.492031E0,6.741381E0,1.7726814E1,8.484691E0,6.4933157E0,3.2446897E0,2.9409935E1,2.5658646E1,2.6949703E1,1.1461481E1,1.2720377E1,1.6267589E2,3.7659344E1,1.0462439E1,6.848757E1,6.70007E1,1.3985867E1,3.7409487E0,3.2436879E0,5.241003E0,2.3189922E1,6.220013E0,1.7934727E1,7.723918E0,4.486211E0,2.2463493E1,6.731677E0,4.729804E0,8.7353735E0,3.9850032E0,9.691997E0,1.529839E2,1.2974135E1,2.468521E1,3.4938712E0,6.9685674E0,1.2190667E1,5.629691E1,2.6642466E1,4.035824E1],"tree_param":{"num_deleted":"0","num_feature":"59","num_nodes":"109","size_leaf_vector":"1"}},{"base_weights":[-5.0162198E-5,-2.6413575E-1,2.7143922E-1,-1.3767876E-1,-5.8776855E-1,1.348503E-1,1.1702366E0,-4.58954E-2,-6.911005E-1,-6.8445843E-1,5.053907E-2,2.1185392E-1,-7.2957546E-1,1.3800246E0,-1.4194386E-2,2.037632E-1,-2.4322279E-1,-2.0018753E-2,-8.7112486E-1,-7.988844E-1,8.664286E-2,7.329417E-1,-4.924881E-2,9.160911E-2,7.847105E-1,3.157664E-2,-9.931175E-1,2.360077E-2,1.5113902E0,-1.1915122E-2,8.112436E-1,-5.1633507E-1,2.4750866E-1,-3.596171E-2,3.0390834E-2,-1.1313934E0,-2.9961908E-1,-5.046133E-2,-9.3410385E-1,5.4089844E-2,-4.731312E-1,-6.727913E-3,6.99245E-2,3.3691895E-1,-2.8222668E-1,1.0875336E0,2.8788224E-1,-4.871013E-1,-6.946663E-2,1.6351228E0,2.0966856E-2,7.605817E-1,-2.1410802E-1,1.1551772E0,-6.605662E-2,-6.431206E-1,5.834315E-1,-4.959648E-2,3.8135847E-1,-7.627548E-2,-6.826868E-1,-5.011117E-2,3.0574882E-2,-4.840667E-2,4.6993738E-1,-7.7577434E-2,-6.6602683E-1,-4.9446687E-2,9.132657E-3,-7.88053E-2,5.847155E-1,4.2902085E-1,-4.3300375E-1,1.2896641E0,4.0375254E-1,9.273455E-1,-3.663086E-1,-4.7918823E-2,1.504153E-2,8.730482E-2,3.931368E-2,1.3091477E0,-3.788121E-3,-7.0495385E-1,1.373713E-1,1.2053173E-2,1.3781576E0,3.2107998E-2,-3.7949402E-2,2.6312036E-2,-8.095706E-1,6.770365E-2,-1.1514313E-2,6.859168E-1,-2.648386E-1,-6.103303E-2,-1.0255725E-2,-1.6614022E-2,5.8215737E-2,2.2997824E-2,-8.398426E-1,2.3674548E-1,-8.828699E-1,7.809866E-1,4.796603E-3,8.8677335E-1,-1.7712105E-2,-6.544208E-1,2.2987016E-2,4.0447956E-1,8.6731866E-2,5.2635647E-2,-1.7003281E-2,7.272823E-2,6.042077E-3,1.8527394E-2,-4.0462784E-2,3.3407837E-2,8.1204765E-2,-4.7217604E-2,1.9355886E-2,-3.0255517E-2,2.447497E-2,2.0889662E-2,8.738174E-2,3.7180025E-2,-4.28387E-2,-4.716944E-2,1.0236761E-3,-2.6479697E-2,4.4240694E-2,3.073131E-2,-4.8188742E-2,-5.02294E-2,3.2635387E-2,6.350153E-2,2.1855517E-3,-6.3405E-2,2.1022619E-3,4.5744047E-2,-2.4848646E-2,3.1085813E-2,-3.6822688E-2,7.099717E-2,1.079536E-2,2.1892559E-2,-4.0222645E-2,2.6074652E-2,-3.0881856E-2,-1.5935123E-2,4.8300814E-2],"categories":[],"categories_nodes":[],"categories_segments":[],"categories_sizes":[],"default_left":[0,0,0,0,0,0,0,0,0,0,0,0,0,0,0,0,0,0,0,0,0,0,0,0,0,0,0,0,0,0,0,0,0,0,0,0,0,0,0,0,0,0,0,0,0,0,0,0,0,0,0,0,0,0,0,0,0,0,0,0,0,0,0,0,0,0,0,0,0,0,0,0,0,0,0,0,0,0,0,0,0,0,0,0,0,0,0,0,0,0,0,0,0,0,0,0,0,0,0,0,0,0,0,0,0,0,0,0,0,0,0,0,0,0,0,0,0,0,0,0,0,0,0,0,0,0,0,0,0,0,0,0,0,0,0,0,0,0,0,0,0,0,0,0,0,0,0,0,0,0,0],"id":3,"left_children":[1,3,5,7,9,11,13,15,17,19,21,23,25,27,-1,29,31,33,35,37,39,41,-1,43,45,-1,47,-1,49,51,53,55,57,-1,-1,59,61,63,65,-1,67,-1,-1,69,71,73,75,77,-1,79,-1,81,83,85,87,89,91,-1,93,-1,95,-1,-1,-1,97,-1,99,-1,-1,101,103,105,107,109,111,113,115,-1,-1,-1,-1,117,-1,119,121,-1,123,-1,-1,125,127,-1,-1,129,131,-1,-1,-1,-1,-1,133,135,137,139,141,143,-1,145,147,149,-1,-1,-1,-1,-1,-1,-1,-1,-1,-1,-1,-1,-1,-1,-1,-1,-1,-1,-1,-1,-1,-1,-1,-1,-1,-1,-1,-1,-1,-1,-1,-1,-1,-1,-1,-1,-1,-1,-1,-1,-1],"loss_changes":[4.5186302E1,1.2993935E1,3.7993637E1,1.1703115E1,5.555544E0,1.8186724E1,1.2858349E1,9.864562E0,3.9443264E0,6.929901E0,9.695609E0,1.7115585E1,8.656219E0,3.566925E0,0E0,1.1604572E1,1.5102896E1,3.931475E0,3.5035744E0,6.8149185E0,6.6114106E0,4.938747E0,0E0,1.9111233E1,6.1797867E0,0E0,3.1608505E0,0E0,3.4889297E0,1.0517709E1,7.077072E0,1.0429478E1,7.11814E0,0E0,0E0,2.0337734E0,6.6582384E0,5.9149084E0,8.463135E0,0E0,2.7863607E0,0E0,0E0,1.2990824E1,9.054712E0,3.13546E0,7.7453785E0,3.9814527E0,0E0,1.2087097E0,0E0,6.50947E0,9.296238E0,3.0761375E0,4.158265E0,7.278496E0,5.314637E0,0E0,7.539981E0,0E0,2.3038397E0,0E0,0E0,0E0,4.825945E0,0E0,8.558567E0,0E0,0E0,1.2339374E1,8.970999E0,5.6806755E0,6.954734E0,7.16098E0,3.9741125E0,3.7511554E0,3.3899617E0,0E0,0E0,0E0,0E0,6.2929344E-1,0E0,6.225312E0,8.638943E0,0E0,3.9644947E0,0E0,0E0,9.4656925E0,5.8165092E0,0E0,0E0,6.679591E0,8.397915E0,0E0,0E0,0E0,0E0,0E0,9.6371765E0,6.9501905E0,4.9297037E0,1.0533997E1,1.0035581E1,3.1745257E0,0E0,7.939966E0,7.805374E0,3.5492368E0,0E0,0E0,0E0,0E0,0E0,0E0,0E0,0E0,0E0,0E0,0E0,0E0,0E0,0E0,0E0,0E0,0E0,0E0,0E0,0E0,0E0,0E0,0E0,0E0,0E0,0E0,0E0,0E0,0E0,0E0,0E0,0E0,0E0,0E0,0E0,0E0,0E0,0E0,0E0,0E0,0E0],"parents":[2147483647,0,0,1,1,2,2,3,3,4,4,5,5,6,6,7,7,8,8,9,9,10,10,11,11,12,12,13,13,15,15,16,16,17,17,18,18,19,19,20,20,21,21,23,23,24,24,26,26,28,28,29,29,30,30,31,31,32,32,35,35,36,36,37,37,38,38,40,40,43,43,44,44,45,45,46,46,47,47,49,49,51,51,52,52,53,53,54,54,55,55,56,56,58,58,60,60,64,64,66,66,69,69,70,70,71,71,72,72,73,73,74,74,75,75,76,76,81,81,83,83,84,84,86,86,89,89,90,90,93,93,94,94,100,100,101,101,102,102,103,103,104,104,105,105,107,107,108,108,109,109],"right_children":[2,4,6,8,10,12,14,16,18,20,22,24,26,28,-1,30,32,34,36,38,40,42,-1,44,46,-1,48,-1,50,52,54,56,58,-1,-1,60,62,64,66,-1,68,-1,-1,70,72,74,76,78,-1,80,-1,82,84,86,88,90,92,-1,94,-1,96,-1,-1,-1,98,-1,100,-1,-1,102,104,106,108,110,112,114,116,-1,-1,-1,-1,118,-1,120,122,-1,124,-1,-1,126,128,-1,-1,130,132,-1,-1,-1,-1,-1,134,136,138,140,142,144,-1,146,148,150,-1,-1,-1,-1,-1,-1,-1,-1,-1,-1,-1,-1,-1,-1,-1,-1,-1,-1,-1,-1,-1,-1,-1,-1,-1,-1,-1,-1,-1,-1,-1,-1,-1,-1,-1,-1,-1,-1,-1,-1,-1],"split_conditions":[-2.028882E2,1.3767774E-1,1.372316E2,1.4732115E0,7.226408E-2,-1.4368496E0,2.5981222E1,7.0294495E0,1.024261E2,3.0337173E-2,9.424826E-3,-1.25794525E2,5.322415E0,4.104867E-2,-1.4194386E-2,8.9597857E-1,5.141348E0,-2.0291583E-1,-4.5637355E0,1.1564092E1,4.753075E-2,-5.6527294E-2,-4.924881E-2,7.2366455E1,3.140748E-1,3.157664E-2,-1.0272478E-2,2.360077E-2,6.844847E0,-1.15791E1,1.283753E-2,6.7508354E0,-6.176795E-2,-3.596171E-2,3.0390834E-2,-1.4802845E0,1.2307503E2,-2.6435858E2,1.5827369E1,5.4089844E-2,-1.4562439E-2,-6.727913E-3,6.99245E-2,9.8808945E1,1.3774519E-1,5.7598865E-3,9.094775E-4,-2.2630727E-2,-6.946663E-2,8.35589E0,2.0966856E-2,-7.2259543E-4,1.6914177E1,-2.6652591E0,2.2004128E1,-1.2398963E1,-3.4942274E0,-4.959648E-2,1.8313332E-2,-7.627548E-2,-2.0528546E-2,-5.011117E-2,3.0574882E-2,-4.840667E-2,-1.1545911E-1,-7.7577434E-2,-6.669181E-1,-4.9446687E-2,9.132657E-3,-9.7546273E-1,-1.604691E2,2.3856087E0,1.5800728E-1,6.3667536E-2,-8.942786E1,-8.558557E-2,1.9281174E-1,-4.7918823E-2,1.504153E-2,8.730482E-2,3.931368E-2,5.8786526E0,-3.788121E-3,3.7639E-2,-3.1855035E0,1.2053173E-2,-4.6840634E0,3.2107998E-2,-3.7949402E-2,5.8920536E0,9.0145774E-2,6.770365E-2,-1.1514313E-2,-1.2716881E1,-1.2187001E-2,-6.103303E-2,-1.0255725E-2,-1.6614022E-2,5.8215737E-2,2.2997824E-2,1.7967464E-1,3.555223E0,2.7721124E-2,3.1478374E1,1.2223678E1,2.1738003E1,-1.7712105E-2,1.0063971E1,7.087657E0,-3.616534E-2,8.6731866E-2,5.2635647E-2,-1.7003281E-2,7.272823E-2,6.042077E-3,1.8527394E-2,-4.0462784E-2,3.3407837E-2,8.1204765E-2,-4.7217604E-2,1.9355886E-2,-3.0255517E-2,2.447497E-2,2.0889662E-2,8.738174E-2,3.7180025E-2,-4.28387E-2,-4.716944E-2,1.0236761E-3,-2.6479697E-2,4.4240694E-2,3.073131E-2,-4.8188742E-2,-5.02294E-2,3.2635387E-2,6.350153E-2,2.1855517E-3,-6.3405E-2,2.1022619E-3,4.5744047E-2,-2.4848646E-2,3.1085813E-2,-3.6822688E-2,7.099717E-2,1.079536E-2,2.1892559E-2,-4.0222645E-2,2.6074652E-2,-3.0881856E-2,-1.5935123E-2,4.8300814E-2],"split_indices":[0,6,4,2,18,24,20,25,4,26,26,0,29,57,0,2,49,18,24,9,26,15,0,1,2,0,43,0,33,24,35,16,47,0,0,48,4,0,9,0,47,0,0,4,56,47,35,15,0,8,0,47,9,48,5,24,32,0,15,0,51,0,0,0,14,0,2,0,0,8,0,16,2,57,0,18,56,0,0,0,0,25,0,26,48,0,32,0,0,33,6,0,0,24,43,0,0,0,0,0,11,49,57,20,13,9,0,13,29,18,0,0,0,0,0,0,0,0,0,0,0,0,0,0,0,0,0,0,0,0,0,0,0,0,0,0,0,0,0,0,0,0,0,0,0,0,0,0,0,0,0],"split_type":[0,0,0,0,0,0,0,0,0,0,0,0,0,0,0,0,0,0,0,0,0,0,0,0,0,0,0,0,0,0,0,0,0,0,0,0,0,0,0,0,0,0,0,0,0,0,0,0,0,0,0,0,0,0,0,0,0,0,0,0,0,0,0,0,0,0,0,0,0,0,0,0,0,0,0,0,0,0,0,0,0,0,0,0,0,0,0,0,0,0,0,0,0,0,0,0,0,0,0,0,0,0,0,0,0,0,0,0,0,0,0,0,0,0,0,0,0,0,0,0,0,0,0,0,0,0,0,0,0,0,0,0,0,0,0,0,0,0,0,0,0,0,0,0,0,0,0,0,0,0,0],"sum_hessian":[6.282447E2,3.184785E2,3.0976617E2,2.3002385E2,8.845462E1,2.6989993E2,3.986626E1,1.9823079E2,3.1793064E1,7.675551E1,1.1699113E1,2.485168E2,2.1383123E1,3.488441E1,4.9818506E0,8.749699E1,1.107338E2,6.9598503E0,2.4833214E1,6.680595E1,9.949562E0,7.228042E0,4.4710703E0,2.063608E2,4.215601E1,3.2421513E0,1.8140972E1,4.9895306E0,2.989488E1,6.529515E1,2.2201841E1,7.110742E1,3.962638E1,3.223872E0,3.7359786E0,1.6389585E1,8.443627E0,1.0433115E1,5.6372833E1,3.2461207E0,6.7034416E0,3.4843009E0,3.7437415E0,1.2465882E2,8.1701965E1,2.5453083E1,1.6702927E1,8.945646E0,9.195326E0,2.6405745E1,3.4891362E0,1.2972156E1,5.2322994E1,1.5721643E1,6.4801984E0,6.412953E1,6.977891E0,3.2374156E0,3.6388966E1,7.4479637E0,8.941623E0,4.7108665E0,3.7327614E0,3.4641163E0,6.9689984E0,1.5616545E1,4.075629E1,3.467829E0,3.2356126E0,4.6809406E1,7.784942E1,1.3967745E1,6.773422E1,1.896177E1,6.4913144E0,8.23539E0,8.467536E0,5.4622593E0,3.4833868E0,2.2417938E1,3.9878058E0,7.492459E0,5.479697E0,2.1413317E1,3.0909676E1,3.4910579E0,1.2230586E1,3.2409883E0,3.23921E0,1.2937818E1,5.119171E1,3.2427485E0,3.7351425E0,2.4690603E1,1.1698363E1,3.4731889E0,5.468434E0,3.475363E0,3.4936354E0,5.229996E0,3.5526295E1,3.412342E1,1.26859865E1,5.7904995E1,1.9944422E1,8.732289E0,5.2354546E0,4.5301735E1,2.2432486E1,6.981825E0,1.1979943E1,3.2449257E0,3.2463887E0,4.494047E0,3.741343E0,3.2404284E0,5.227107E0,3.4969146E0,3.995544E0,1.7674149E1,3.7391682E0,9.712304E0,2.1197372E1,3.990094E0,8.240492E0,7.226241E0,5.711577E0,4.3966896E1,7.2248135E0,3.238241E0,2.1452364E1,5.2336E0,6.464763E0,3.2289196E1,3.2370985E0,4.493119E0,2.9630302E1,8.693904E0,3.9920826E0,5.267069E1,5.2343035E0,1.0973106E1,8.971315E0,4.2433276E0,4.488962E0,5.2393737E0,4.0062363E1,1.2720164E1,9.712321E0,3.2406976E0,3.7411273E0],"tree_param":{"num_deleted":"0","num_feature":"59","num_nodes":"151","size_leaf_vector":"1"}},{"base_weights":[3.7058542E-4,-2.5177535E-1,2.5942674E-1,-1.3116771E-1,-5.609774E-1,4.794011E-1,-1.3489556E-1,-9.3325084E-1,-6.971414E-2,-6.544378E-1,9.893686E-2,5.509242E-1,-9.0342534E-1,8.624021E-1,-2.437024E-1,-2.2268048E-1,-7.023954E-2,-7.444577E-2,-3.4333598E-2,-8.1224614E-1,-2.653007E-1,-4.6178754E-2,5.820429E-1,8.7730914E-1,2.836713E-1,-7.687067E-2,-3.7480716E-3,-8.52138E-3,6.750613E-2,-4.0012962E-1,5.2161807E-1,2.3539882E-2,-4.54868E-2,5.461602E-1,-1.1662579E-1,-4.3565866E-1,-1.1095864E0,-8.911302E-1,1.7943195E-1,-1.378411E-3,5.2166928E-2,1.2604325E-1,1.0165745E0,7.364347E-2,8.5611457E-1,1.9509362E-3,-8.5871744E-1,-1.6054466E-2,9.7792053E-1,7.696007E-1,-3.1971745E-2,-1.8164891E-1,6.2539977E-1,-8.2427955E-1,3.3476475E-1,-9.147178E-3,-1.2531989E0,-6.9288276E-2,-1.3881699E-3,-3.9655708E-2,8.243286E-1,5.4672033E-2,-3.130663E-1,-7.7496804E-3,1.0877227E0,3.0164784E-1,-5.923189E-1,1.1260388E0,2.4642605E-2,-9.210671E-1,2.3185705E-1,8.949432E-3,-1.0207633E0,1.2858882E0,6.546897E-3,1.0401251E0,-1.3581808E-2,-2.9709464E-1,2.633512E-1,-7.389592E-2,6.771687E-2,-1.1492422E0,-8.139248E-3,4.442249E-2,-2.0387823E-2,-7.2291195E-1,-1.47703E0,-4.644647E-3,6.8521306E-2,1.6053742E-2,-4.5991745E-2,6.9170743E-1,1.3279183E0,4.7787187E-1,-3.203658E-1,2.0724459E-2,-9.016863E-1,1.3514773E0,-1.2742811E-3,3.535674E-2,-3.7239328E-2,-6.861735E-2,-2.2116692E-3,8.047887E-1,-9.012256E-2,-6.476443E-1,-1.4979798E0,2.9891873E-2,7.985716E-2,-1.5911994E-3,6.368018E-2,-7.782885E-3,-4.763275E-2,-4.0022388E-2,2.3552757E-2,-3.8988587E-2,2.709194E-2,-2.6550058E-2,-7.1408495E-2,-6.196573E-2,1.1822972E-2,-8.0220036E-2,-3.510052E-2,5.335136E-2,-8.651934E-3,7.8296855E-2,3.455216E-2,4.55731E-2,8.068276E-3,3.5446946E-2,-4.2797554E-2,8.116353E-3,-5.9309553E-2,2.917332E-2,7.7298604E-2,7.21629E-2,6.1595473E-3,-3.8626816E-2,1.5913231E-2,-6.1091788E-2,-9.469128E-3,-8.31095E-2,-3.5546303E-2],"categories":[],"categories_nodes":[],"categories_segments":[],"categories_sizes":[],"default_left":[0,0,0,0,0,0,0,0,0,0,0,0,0,0,0,0,0,0,0,0,0,0,0,0,0,0,0,0,0,0,0,0,0,0,0,0,0,0,0,0,0,0,0,0,0,0,0,0,0,0,0,0,0,0,0,0,0,0,0,0,0,0,0,0,0,0,0,0,0,0,0,0,0,0,0,0,0,0,0,0,0,0,0,0,0,0,0,0,0,0,0,0,0,0,0,0,0,0,0,0,0,0,0,0,0,0,0,0,0,0,0,0,0,0,0,0,0,0,0,0,0,0,0,0,0,0,0,0,0,0,0,0,0,0,0,0,0,0,0,0,0,0,0],"id":4,"left_children":[1,3,5,7,9,11,13,15,17,19,21,23,25,27,29,31,-1,-1,33,35,37,-1,39,41,43,-1,-1,-1,-1,45,47,-1,-1,49,51,53,55,57,59,-1,-1,61,63,65,67,69,71,-1,73,75,-1,77,79,81,83,-1,85,-1,-1,-1,87,-1,89,-1,91,93,95,97,99,101,103,-1,105,107,-1,109,-1,111,113,115,-1,117,-1,-1,-1,119,121,-1,-1,-1,-1,123,125,127,129,-1,131,133,-1,-1,-1,-1,-1,135,137,139,141,-1,-1,-1,-1,-1,-1,-1,-1,-1,-1,-1,-1,-1,-1,-1,-1,-1,-1,-1,-1,-1,-1,-1,-1,-1,-1,-1,-1,-1,-1,-1,-1,-1,-1,-1,-1],"loss_changes":[4.1090702E1,1.1814648E1,2.6978743E1,1.1303286E1,5.563059E0,2.02184E1,1.2351622E1,5.1596212E0,1.0759812E1,4.587963E0,6.4298043E0,1.6342415E1,5.234105E0,5.885415E0,1.2379471E1,4.098648E0,0E0,0E0,1.0147581E1,5.693878E0,6.854707E0,0E0,2.4792738E0,8.780975E0,1.2687816E1,0E0,0E0,0E0,0E0,1.5670293E1,7.115173E0,0E0,0E0,7.4818525E0,9.073727E0,8.056306E0,3.787075E0,4.300379E0,9.995025E0,0E0,0E0,6.48402E0,6.144676E0,1.2125942E1,6.3400555E0,1.0033489E1,6.858593E0,0E0,2.8890448E0,6.664013E0,0E0,8.889763E0,7.8416853E0,3.5880823E0,4.2367864E0,0E0,2.013523E0,0E0,0E0,0E0,4.8586125E0,0E0,4.4208016E0,0E0,5.5225525E0,6.6506634E0,6.729398E0,5.589037E0,4.7149916E0,3.6702857E0,7.0541162E0,0E0,5.1706467E0,8.617573E-1,0E0,4.5930653E0,0E0,1.2522715E1,8.300776E0,4.2035937E0,0E0,1.2440119E0,0E0,0E0,0E0,5.080697E0,5.810623E-1,0E0,0E0,0E0,0E0,9.159348E0,5.142441E0,6.2469206E0,8.151099E0,0E0,5.0129576E0,1.7736053E0,0E0,0E0,0E0,0E0,0E0,5.791727E0,7.249012E0,5.3249617E0,6.7567444E-1,0E0,0E0,0E0,0E0,0E0,0E0,0E0,0E0,0E0,0E0,0E0,0E0,0E0,0E0,0E0,0E0,0E0,0E0,0E0,0E0,0E0,0E0,0E0,0E0,0E0,0E0,0E0,0E0,0E0,0E0,0E0,0E0,0E0,0E0,0E0,0E0],"parents":[2147483647,0,0,1,1,2,2,3,3,4,4,5,5,6,6,7,7,8,8,9,9,10,10,11,11,12,12,13,13,14,14,15,15,18,18,19,19,20,20,22,22,23,23,24,24,29,29,30,30,33,33,34,34,35,35,36,36,37,37,38,38,41,41,42,42,43,43,44,44,45,45,46,46,48,48,49,49,51,51,52,52,53,53,54,54,56,56,60,60,62,62,64,64,65,65,66,66,67,67,68,68,69,69,70,70,72,72,73,73,75,75,77,77,78,78,79,79,81,81,85,85,86,86,91,91,92,92,93,93,94,94,96,96,97,97,103,103,104,104,105,105,106,106],"right_children":[2,4,6,8,10,12,14,16,18,20,22,24,26,28,30,32,-1,-1,34,36,38,-1,40,42,44,-1,-1,-1,-1,46,48,-1,-1,50,52,54,56,58,60,-1,-1,62,64,66,68,70,72,-1,74,76,-1,78,80,82,84,-1,86,-1,-1,-1,88,-1,90,-1,92,94,96,98,100,102,104,-1,106,108,-1,110,-1,112,114,116,-1,118,-1,-1,-1,120,122,-1,-1,-1,-1,124,126,128,130,-1,132,134,-1,-1,-1,-1,-1,136,138,140,142,-1,-1,-1,-1,-1,-1,-1,-1,-1,-1,-1,-1,-1,-1,-1,-1,-1,-1,-1,-1,-1,-1,-1,-1,-1,-1,-1,-1,-1,-1,-1,-1,-1,-1,-1,-1],"split_conditions":[-2.028882E2,1.3767774E-1,4.129781E2,-9.862019E-2,9.239892E-1,3.1934162E1,-1.7870337E-1,-1.23466E-1,-1.4170386E-1,3.360897E-1,2.3305935E1,6.381437E1,3.2191032E-3,-1.1158749E1,7.23409E0,5.4629173E0,-7.023954E-2,-7.444577E-2,2.1442818E1,-8.532079E-1,-2.961903E0,-4.6178754E-2,2.4108116E-1,-4.1996643E-2,-1.2973186E2,-7.687067E-2,-3.7480716E-3,-8.52138E-3,6.750613E-2,6.258948E0,-1.7456111E2,2.3539882E-2,-4.54868E-2,2.8340397E-2,8.475267E0,7.6005225E0,5.237974E0,1.203088E-2,-1.16352975E-1,-1.378411E-3,5.2166928E-2,6.86713E0,-2.2107045E-1,7.014976E0,1.8008485E-2,3.8943745E1,1.7876547E1,-1.6054466E-2,1.4237647E-3,2.6838985E1,-3.1971745E-2,4.880401E0,-4.234116E-2,1.6958922E-2,-3.62633E-2,-9.147178E-3,4.65758E0,-6.9288276E-2,-1.3881699E-3,-3.9655708E-2,2.3437822E-2,5.4672033E-2,5.398496E0,-7.7496804E-3,-2.3444066E-2,9.077433E1,-7.159186E-2,1.6831666E-2,7.27826E0,-4.214564E0,5.7272747E1,8.949432E-3,5.8434186E0,2.5178867E1,6.546897E-3,-7.680284E-2,-1.3581808E-2,7.334664E0,5.8359966E0,-6.4056073E-3,6.771687E-2,1.8164873E1,-8.139248E-3,4.442249E-2,-2.0387823E-2,4.949385E0,7.6147964E1,-4.644647E-3,6.8521306E-2,1.6053742E-2,-4.5991745E-2,-5.3824794E-2,2.4907356E1,9.325396E0,6.0980783E0,2.0724459E-2,3.1629457E0,1.3379248E1,-1.2742811E-3,3.535674E-2,-3.7239328E-2,-6.861735E-2,-2.2116692E-3,6.0921803E0,4.2961224E2,4.909051E0,2.5436575E-2,2.9891873E-2,7.985716E-2,-1.5911994E-3,6.368018E-2,-7.782885E-3,-4.763275E-2,-4.0022388E-2,2.3552757E-2,-3.8988587E-2,2.709194E-2,-2.6550058E-2,-7.1408495E-2,-6.196573E-2,1.1822972E-2,-8.0220036E-2,-3.510052E-2,5.335136E-2,-8.651934E-3,7.8296855E-2,3.455216E-2,4.55731E-2,8.068276E-3,3.5446946E-2,-4.2797554E-2,8.116353E-3,-5.9309553E-2,2.917332E-2,7.7298604E-2,7.21629E-2,6.1595473E-3,-3.8626816E-2,1.5913231E-2,-6.1091788E-2,-9.469128E-3,-8.31095E-2,-3.5546303E-2],"split_indices":[0,6,53,27,40,20,14,27,46,6,20,1,42,16,37,33,0,0,12,16,16,0,6,35,0,0,0,0,0,29,0,0,0,58,29,25,29,58,11,0,0,21,14,33,42,1,20,0,39,5,0,16,6,14,31,0,41,0,0,0,57,0,37,0,46,1,34,23,37,16,1,0,37,5,0,31,0,29,25,27,0,20,0,0,0,37,1,0,0,0,0,7,20,28,29,0,28,20,0,0,0,0,0,25,53,37,26,0,0,0,0,0,0,0,0,0,0,0,0,0,0,0,0,0,0,0,0,0,0,0,0,0,0,0,0,0,0,0,0,0,0,0,0],"split_type":[0,0,0,0,0,0,0,0,0,0,0,0,0,0,0,0,0,0,0,0,0,0,0,0,0,0,0,0,0,0,0,0,0,0,0,0,0,0,0,0,0,0,0,0,0,0,0,0,0,0,0,0,0,0,0,0,0,0,0,0,0,0,0,0,0,0,0,0,0,0,0,0,0,0,0,0,0,0,0,0,0,0,0,0,0,0,0,0,0,0,0,0,0,0,0,0,0,0,0,0,0,0,0,0,0,0,0,0,0,0,0,0,0,0,0,0,0,0,0,0,0,0,0,0,0,0,0,0,0,0,0,0,0,0,0,0,0,0,0,0,0,0,0],"sum_hessian":[6.270682E2,3.1778653E2,3.0928162E2,2.2963794E2,8.81486E1,1.9839203E2,1.1088959E2,1.5332614E1,2.1430533E2,7.7220535E1,1.0928062E1,1.8920737E2,9.184662E0,1.0226836E1,1.0066276E2,6.703401E0,8.629212E0,4.213378E0,2.1009195E2,5.4166763E1,2.305377E1,3.2139251E0,7.714137E0,8.415259E1,1.0505477E2,4.7182484E0,4.4664135E0,3.4889538E0,6.737882E0,8.397575E1,1.6687002E1,3.4927557E0,3.2106457E0,2.5385357E1,1.8470659E2,2.49863E1,2.9180466E1,9.160015E0,1.3893754E1,3.7278929E0,3.9862442E0,1.3458089E1,7.06945E1,7.768208E1,2.737269E1,4.5275158E1,3.8700596E1,5.9657226E0,1.0721279E1,2.1655058E1,3.7302973E0,1.7051932E2,1.4187276E1,1.656207E1,8.424228E0,4.2207065E0,2.4959759E1,5.4389124E0,3.721103E0,5.4479938E0,8.44576E0,3.7363799E0,9.721709E0,3.979943E0,6.671456E1,5.8276955E1,1.9405128E1,2.0396893E1,6.9757986E0,8.428893E0,3.6846264E1,5.213016E0,3.3487583E1,7.4824266E0,3.2388525E0,1.7189985E1,4.4650736E0,1.3565811E2,3.486121E1,7.6994987E0,6.4877768E0,1.0611684E1,5.950387E0,4.713169E0,3.711059E0,8.663784E0,1.6295975E1,3.4615917E0,4.9841685E0,4.9838605E0,4.7378483E0,2.6652246E1,4.0062313E1,4.5591938E1,1.2685017E1,4.481312E0,1.4923818E1,1.6912268E1,3.4846237E0,3.7396498E0,3.236149E0,5.1917424E0,3.2371504E0,1.2717391E1,2.4128872E1,2.01164E1,1.3371182E1,3.2402844E0,4.242142E0,3.228938E0,1.3961047E1,1.1260175E2,2.305635E1,5.22851E0,2.9632698E1,3.4630563E0,4.2364426E0,4.201908E0,6.4097757E0,5.442462E0,3.2213225E0,1.3076736E1,3.219238E0,1.8422525E1,8.22972E0,2.8101267E1,1.1961044E1,1.8444536E1,2.71474E1,4.230684E0,8.454332E0,3.2391665E0,1.1684651E1,4.225751E0,1.2686518E1,5.989457E0,6.727934E0,8.6998205E0,1.5429052E1,8.189236E0,1.1927164E1,1.0143034E1,3.2281482E0],"tree_param":{"num_deleted":"0","num_feature":"59","num_nodes":"143","size_leaf_vector":"1"}},{"base_weights":[-1.3600258E-4,-7.44559E-2,8.13609E-1,-3.1243616E-1,7.04932E-2,1.4113338E0,4.9321175E-1,-4.1580635E-1,4.3084756E-1,1.649384E-1,-4.286806E-1,8.057155E-2,3.1016348E-2,8.841349E-2,9.655993E-1,-9.1766685E-1,-2.9787168E-1,-3.1535566E-1,7.850658E-1,1.0474036E0,1.1304505E-1,-5.933584E-1,4.4163638E-1,5.8089924E-1,-4.35339E-1,1.2024204E0,6.360685E-3,-1.0979569E0,1.747185E-3,2.788133E-1,-4.133655E-1,1.3329153E-2,-4.4684883E-2,-9.844224E-3,1.0857891E0,1.1605692E-2,7.394335E-2,1.6628785E-1,-5.647686E-1,2.462056E-2,-7.2857225E-1,5.2817907E-2,-2.153095E-2,-4.094014E-3,7.354929E-2,5.1115495E-3,-4.957411E-2,7.3464975E-2,1.9254459E-2,-4.5562202E-1,-1.3749088E0,-7.2019595E-1,6.776117E-1,-1.227031E0,-2.8954807E-1,1.320131E0,1.0321765E-2,5.160178E-1,3.694842E-2,-1.9998379E-1,-7.5697005E-2,-1.8977663E-1,-9.803813E-1,-5.3993296E-2,5.9032375E-3,-8.036283E-2,-2.6440058E-2,-8.523892E-3,-5.6987442E-2,1.2500774E0,5.1027313E-2,-7.197512E-2,-1.2149286E-2,-8.590799E-1,-1.2591173E-1,8.062039E-2,3.1506415E-2,5.802357E-1,-2.902777E-2,1.6288134E-1,-3.8927904E-1,5.072542E-1,-8.49517E-1,4.715763E-1,-9.386161E-1,-3.862489E-1,-1.3474649E0,7.250782E-2,3.1230295E-2,4.623062E-2,-2.8669411E-2,-6.1605252E-2,-1.130475E-2,-2.1430464E-2,1.797553E-2,3.587578E-2,-4.757418E-3,3.392197E-2,-2.656296E-4,-3.2983597E-2,9.312185E-3,7.030918E-2,-3.637836E-2,-8.93857E-3,-7.067669E-2,-2.1161659E-2,6.1249893E-2,-1.357397E-2,-6.923274E-2,-4.874884E-2,4.0243957E-2,-7.4921936E-2,-2.5319466E-2],"categories":[],"categories_nodes":[],"categories_segments":[],"categories_sizes":[],"default_left":[0,0,0,0,0,0,0,0,0,0,0,0,0,0,0,0,0,0,0,0,0,0,0,0,0,0,0,0,0,0,0,0,0,0,0,0,0,0,0,0,0,0,0,0,0,0,0,0,0,0,0,0,0,0,0,0,0,0,0,0,0,0,0,0,0,0,0,0,0,0,0,0,0,0,0,0,0,0,0,0,0,0,0,0,0,0,0,0,0,0,0,0,0,0,0,0,0,0,0,0,0,0,0,0,0,0,0,0,0,0,0,0,0],"id":5,"left_children":[1,3,5,7,9,11,13,15,17,19,21,-1,-1,23,25,27,29,31,33,35,37,39,41,43,45,47,-1,49,-1,51,53,-1,-1,-1,55,-1,-1,57,59,-1,61,-1,-1,-1,-1,-1,-1,-1,-1,63,65,67,69,71,73,75,-1,77,79,81,-1,83,85,-1,-1,-1,-1,-1,-1,87,89,-1,-1,91,93,-1,-1,95,-1,97,99,101,103,105,107,109,111,-1,-1,-1,-1,-1,-1,-1,-1,-1,-1,-1,-1,-1,-1,-1,-1,-1,-1,-1,-1,-1,-1,-1,-1,-1,-1],"loss_changes":[3.7966026E1,1.9864712E1,9.365173E0,1.6923101E1,1.6962976E1,1.8171844E0,6.748911E0,1.1080284E1,7.4101415E0,1.3712463E1,8.472227E0,0E0,0E0,5.5014057E0,3.1016893E0,6.224716E0,1.0559151E1,3.414073E0,5.7245893E0,5.5147457E0,1.0428632E1,7.4933376E0,5.649477E0,6.5597143E0,3.220317E0,2.1964607E0,0E0,4.767166E0,0E0,1.1149798E1,1.2847034E1,0E0,0E0,0E0,2.7031689E0,0E0,0E0,1.2026088E1,6.997351E0,0E0,5.7318363E0,0E0,0E0,0E0,0E0,0E0,0E0,0E0,0E0,3.9342213E0,3.2173767E0,1.6784234E0,6.9815617E0,3.20438E0,1.0613739E1,1.2460041E0,0E0,5.3940487E0,1.05555315E1,7.956681E0,0E0,7.9370265E0,5.9103165E0,0E0,0E0,0E0,0E0,0E0,0E0,3.7337017E-1,6.2140794E0,0E0,0E0,5.7437973E0,1.34578495E1,0E0,0E0,6.4047203E0,0E0,1.3148925E1,7.1064496E0,1.0423893E1,3.1194072E0,6.384618E0,1.835423E0,9.664227E0,1.5044556E0,0E0,0E0,0E0,0E0,0E0,0E0,0E0,0E0,0E0,0E0,0E0,0E0,0E0,0E0,0E0,0E0,0E0,0E0,0E0,0E0,0E0,0E0,0E0,0E0,0E0,0E0],"parents":[2147483647,0,0,1,1,2,2,3,3,4,4,5,5,6,6,7,7,8,8,9,9,10,10,13,13,14,14,15,15,16,16,17,17,18,18,19,19,20,20,21,21,22,22,23,23,24,24,25,25,27,27,29,29,30,30,34,34,37,37,38,38,40,40,49,49,50,50,51,51,52,52,53,53,54,54,55,55,57,57,58,58,59,59,61,61,62,62,69,69,70,70,73,73,74,74,77,77,79,79,80,80,81,81,82,82,83,83,84,84,85,85,86,86],"right_children":[2,4,6,8,10,12,14,16,18,20,22,-1,-1,24,26,28,30,32,34,36,38,40,42,44,46,48,-1,50,-1,52,54,-1,-1,-1,56,-1,-1,58,60,-1,62,-1,-1,-1,-1,-1,-1,-1,-1,64,66,68,70,72,74,76,-1,78,80,82,-1,84,86,-1,-1,-1,-1,-1,-1,88,90,-1,-1,92,94,-1,-1,96,-1,98,100,102,104,106,108,110,112,-1,-1,-1,-1,-1,-1,-1,-1,-1,-1,-1,-1,-1,-1,-1,-1,-1,-1,-1,-1,-1,-1,-1,-1,-1,-1],"split_conditions":[-1.2277473E2,-2.27033E2,1.6634114E-1,7.685099E-2,5.318666E2,7.6085777E0,8.055347E0,-1.0829842E-1,-4.900034E0,6.104069E0,6.376725E-2,8.057155E-2,3.1016348E-2,-3.4639325E0,1.6318625E-2,4.9132228E-2,4.833225E1,1.3484313E-2,-3.727951E0,4.0507092E0,1.1730843E1,3.4667697E0,-2.8441725E-2,1.5985576E-2,-2.4751326E-2,2.4889145E-2,6.360685E-3,1.0447184E-1,1.747185E-3,-2.682654E2,-1.0846026E-1,1.3329153E-2,-4.4684883E-2,-9.844224E-3,1.4333467E-1,1.1605692E-2,7.394335E-2,2.0297583E1,2.9345747E-2,2.462056E-2,-7.291199E-2,5.2817907E-2,-2.153095E-2,-4.094014E-3,7.354929E-2,5.1115495E-3,-4.957411E-2,7.3464975E-2,1.9254459E-2,-6.1925497E-2,1.6935508E-1,1.0051737E-1,-1.66973E-2,2.630407E-2,-8.0766656E-2,4.2411995E0,1.0321765E-2,5.1028836E-1,1.4554071E1,7.360548E1,-7.5697005E-2,4.0306016E-3,1.116769E-2,-5.3993296E-2,5.9032375E-3,-8.036283E-2,-2.6440058E-2,-8.523892E-3,-5.6987442E-2,4.880401E0,4.045285E0,-7.197512E-2,-1.2149286E-2,-2.9489214E0,1.6858223E-3,8.062039E-2,3.1506415E-2,2.0577154E-1,-2.902777E-2,-7.58541E-2,-2.5114862E-2,3.2191032E-3,2.2177354E-2,2.6357658E0,-6.135178E0,5.563577E-2,8.223038E0,7.250782E-2,3.1230295E-2,4.623062E-2,-2.8669411E-2,-6.1605252E-2,-1.130475E-2,-2.1430464E-2,1.797553E-2,3.587578E-2,-4.757418E-3,3.392197E-2,-2.656296E-4,-3.2983597E-2,9.312185E-3,7.030918E-2,-3.637836E-2,-8.93857E-3,-7.067669E-2,-2.1161659E-2,6.1249893E-2,-1.357397E-2,-6.923274E-2,-4.874884E-2,4.0243957E-2,-7.4921936E-2,-2.5319466E-2],"split_indices":[0,0,56,18,52,25,25,14,40,21,22,0,0,40,42,22,1,22,16,41,21,49,23,19,23,46,0,56,0,0,22,0,0,0,18,0,0,20,46,0,22,0,0,0,0,0,0,0,0,23,56,56,30,57,23,44,0,6,28,1,0,15,6,0,0,0,0,0,0,16,49,0,0,32,42,0,0,56,0,34,23,42,18,44,32,14,36,0,0,0,0,0,0,0,0,0,0,0,0,0,0,0,0,0,0,0,0,0,0,0,0,0,0],"split_type":[0,0,0,0,0,0,0,0,0,0,0,0,0,0,0,0,0,0,0,0,0,0,0,0,0,0,0,0,0,0,0,0,0,0,0,0,0,0,0,0,0,0,0,0,0,0,0,0,0,0,0,0,0,0,0,0,0,0,0,0,0,0,0,0,0,0,0,0,0,0,0,0,0,0,0,0,0,0,0,0,0,0,0,0,0,0,0,0,0,0,0,0,0,0,0,0,0,0,0,0,0,0,0,0,0,0,0,0,0,0,0,0,0],"sum_hessian":[6.2576996E2,5.7423334E2,5.1536625E1,2.1692545E2,3.5730786E2,1.6796522E1,3.4740105E1,1.9082722E2,2.609821E1,3.0102298E2,5.6284893E1,1.2577632E1,4.2188916E0,1.9347775E1,1.5392329E1,3.5020306E1,1.5580693E2,8.436154E0,1.7662054E1,1.5653073E1,2.853699E2,4.7597008E1,8.687883E0,9.915292E0,9.432483E0,1.1663499E1,3.7288299E0,2.931887E1,5.7014337E0,2.576129E1,1.3004564E2,4.4736943E0,3.96246E0,4.2218294E0,1.3440226E1,5.949297E0,9.703776E0,2.6528613E2,2.0083767E1,4.978427E0,4.261858E1,4.9724708E0,3.7154129E0,6.203802E0,3.7114897E0,5.211351E0,4.221132E0,8.191191E0,3.472308E0,9.629739E0,1.968913E1,7.1198373E0,1.864145E1,1.5998908E1,1.1404673E2,1.0216377E1,3.2238479E0,7.081497E1,1.9447118E2,1.5382623E1,4.701144E0,1.413264E1,2.848594E1,4.189119E0,5.4406195E0,1.4741431E1,4.947701E0,3.6905868E0,3.4292507E0,9.221425E0,9.420027E0,1.277725E1,3.2216575E0,2.4505629E1,8.95411E1,6.237454E0,3.9789236E0,6.734212E1,3.4728522E0,1.5059447E2,4.38767E1,7.4690585E0,7.9135647E0,7.701319E0,6.4313207E0,1.1662367E1,1.6823574E1,5.9875855E0,3.233839E0,3.7261763E0,5.693851E0,1.4823483E1,9.682145E0,5.522264E1,3.431846E1,5.591446E1,1.142766E1,3.6298004E1,1.1429646E2,2.9752247E1,1.4124456E1,4.2421036E0,3.226955E0,4.216335E0,3.6972299E0,3.7206728E0,3.9806461E0,3.2215369E0,3.2097836E0,7.926217E0,3.7361503E0,1.3600667E1,3.2229073E0],"tree_param":{"num_deleted":"0","num_feature":"59","num_nodes":"113","size_leaf_vector":"1"}},{"base_weights":[-2.544211E-4,-7.141461E-2,7.807118E-1,-2.327285E-1,1.2761836E-1,1.3570651E0,4.7321016E-1,-1.2365723E0,-1.9836105E-1,6.5421325E-1,-3.23154E-2,7.755937E-2,2.9792089E-2,8.540067E-2,9.2626476E-1,-7.545816E-2,-2.4133874E-2,-8.554446E-2,-4.9906617E-1,9.9096096E-1,2.1028154E-2,3.58753E-1,-2.2763245E-1,4.7962073E-2,-2.5898615E-1,9.439777E-3,1.2552075E0,-8.5692143E-1,-2.7630767E-2,2.3071538E-1,-5.94163E-1,1.1066345E0,-1.161143E-2,-5.4765874E-1,5.1721764E-1,5.7007456E-1,-3.513002E-1,3.040562E-1,-3.7876654E-1,3.1253114E-1,-5.2338164E-2,7.388654E-2,2.6869943E-2,-1.4747809E-1,-6.658382E-2,5.152463E-1,-1.0464759E-1,-4.11153E-2,5.0017543E-2,-7.021301E-1,8.37308E-2,1.2179891E0,5.5916584E-3,5.280632E-3,-5.414725E-2,9.493717E-1,-2.594555E-2,1.1020628E0,2.0321952E-1,2.006309E-2,-6.8142617E-1,-4.2662647E-2,5.522691E-1,4.235526E-1,-4.995552E-1,4.095738E-2,-2.6706204E-2,3.1357925E-2,-4.4693682E-2,7.996218E-1,-5.8491092E-2,-1.6670817E-1,6.026955E-1,-1.2011805E0,-4.6477696E-1,-3.7113424E-2,3.6932416E-2,6.780957E-1,1.4111267E0,6.810341E-2,1.4623961E-2,8.081767E-3,1.3139013E0,5.4299766E-1,-9.8124397E-1,7.058609E-3,-1.0233984E0,-2.2274327E-1,9.0160877E-1,8.8557994E-1,-3.888116E-2,3.4915306E-2,-5.58883E-1,6.07368E-3,5.490601E-2,-1.0983994E-3,-2.2333091E-2,5.5292528E-2,-2.861143E-2,-6.826821E-2,-1.5862672E-2,1.9822042E-2,-3.0248377E-2,-1.5663774E-3,6.0901176E-2,7.6071456E-2,3.3218693E-2,7.856136E-2,2.4520643E-2,3.891564E-2,-3.2661032E-2,-1.5345563E-2,-7.1195126E-2,-6.966322E-2,-2.5183246E-2,-4.5472883E-2,3.1098414E-2,6.734101E-2,-6.880544E-3,-7.3602176E-3,7.02491E-2,1.46794645E-2,-3.224892E-2],"categories":[],"categories_nodes":[],"categories_segments":[],"categories_sizes":[],"default_left":[0,0,0,0,0,0,0,0,0,0,0,0,0,0,0,0,0,0,0,0,0,0,0,0,0,0,0,0,0,0,0,0,0,0,0,0,0,0,0,0,0,0,0,0,0,0,0,0,0,0,0,0,0,0,0,0,0,0,0,0,0,0,0,0,0,0,0,0,0,0,0,0,0,0,0,0,0,0,0,0,0,0,0,0,0,0,0,0,0,0,0,0,0,0,0,0,0,0,0,0,0,0,0,0,0,0,0,0,0,0,0,0,0,0,0,0,0,0,0,0,0,0,0],"id":6,"left_children":[1,3,5,7,9,11,13,15,17,19,21,-1,-1,23,25,-1,-1,27,29,31,33,35,37,-1,39,-1,41,43,45,47,49,51,-1,53,55,57,59,61,63,65,-1,-1,-1,67,-1,69,71,-1,-1,73,75,77,-1,-1,-1,79,-1,81,83,-1,85,-1,87,89,91,-1,-1,-1,-1,93,-1,95,97,99,101,-1,-1,103,105,-1,-1,-1,107,109,111,-1,113,115,117,119,-1,-1,121,-1,-1,-1,-1,-1,-1,-1,-1,-1,-1,-1,-1,-1,-1,-1,-1,-1,-1,-1,-1,-1,-1,-1,-1,-1,-1,-1,-1,-1,-1],"loss_changes":[3.482047E1,1.8466599E1,8.631132E0,1.070923E1,2.1725582E1,1.6866226E0,6.1854725E0,1.3923464E0,1.0413072E1,1.2790337E1,1.525326E1,0E0,0E0,6.3612437E0,3.7275295E0,0E0,0E0,1.0042502E1,5.9581947E0,5.8036346E0,6.4577847E0,1.018579E1,1.0808889E1,0E0,7.241584E0,0E0,9.8279953E-1,5.092416E0,8.860344E0,9.243278E0,5.5105457E0,3.8503914E0,0E0,3.8496397E0,5.9554214E0,9.859373E0,4.219122E0,9.091873E0,1.02970085E1,4.585519E0,0E0,0E0,0E0,4.850636E0,0E0,1.3556108E1,8.234306E0,0E0,0E0,7.0652943E0,6.567592E0,2.407421E0,0E0,0E0,0E0,2.0313778E0,0E0,3.9435425E0,1.3332992E1,0E0,3.3541422E0,0E0,7.055316E0,8.54632E0,6.8509502E0,0E0,0E0,0E0,0E0,4.5484133E0,0E0,6.9243326E0,9.596215E0,2.4857788E0,5.702754E0,0E0,0E0,4.031684E0,8.703537E-1,0E0,0E0,0E0,2.8075867E0,7.646702E0,1.7856574E0,0E0,8.708391E-1,5.593793E0,8.351176E0,5.9428444E0,0E0,0E0,6.587515E0,0E0,0E0,0E0,0E0,0E0,0E0,0E0,0E0,0E0,0E0,0E0,0E0,0E0,0E0,0E0,0E0,0E0,0E0,0E0,0E0,0E0,0E0,0E0,0E0,0E0,0E0,0E0,0E0,0E0,0E0],"parents":[2147483647,0,0,1,1,2,2,3,3,4,4,5,5,6,6,7,7,8,8,9,9,10,10,13,13,14,14,17,17,18,18,19,19,20,20,21,21,22,22,24,24,26,26,27,27,28,28,29,29,30,30,31,31,33,33,34,34,35,35,36,36,37,37,38,38,39,39,43,43,45,45,46,46,49,49,50,50,51,51,55,55,57,57,58,58,60,60,62,62,63,63,64,64,69,69,71,71,72,72,73,73,74,74,77,77,78,78,82,82,83,83,84,84,86,86,87,87,88,88,89,89,92,92],"right_children":[2,4,6,8,10,12,14,16,18,20,22,-1,-1,24,26,-1,-1,28,30,32,34,36,38,-1,40,-1,42,44,46,48,50,52,-1,54,56,58,60,62,64,66,-1,-1,-1,68,-1,70,72,-1,-1,74,76,78,-1,-1,-1,80,-1,82,84,-1,86,-1,88,90,92,-1,-1,-1,-1,94,-1,96,98,100,102,-1,-1,104,106,-1,-1,-1,108,110,112,-1,114,116,118,120,-1,-1,122,-1,-1,-1,-1,-1,-1,-1,-1,-1,-1,-1,-1,-1,-1,-1,-1,-1,-1,-1,-1,-1,-1,-1,-1,-1,-1,-1,-1,-1,-1],"split_conditions":[-1.2277473E2,-2.028882E2,1.6634114E-1,-1.4170386E-1,1.361964E-1,7.6085777E0,8.055347E0,2.2306502E-1,1.3767774E-1,-1.3462336E0,-8.612172E-2,7.755937E-2,2.9792089E-2,5.5628595E0,-3.6891062E0,-7.545816E-2,-2.4133874E-2,-9.862019E-2,-1.3472031E-1,3.1813776E1,-3.8681284E-2,2.284838E1,8.350334E0,4.7962073E-2,-8.0778805E-4,9.439777E-3,1.2022421E1,-1.23466E-1,2.1442818E1,-2.5455437E0,3.0121498E1,5.525261E0,-1.161143E-2,-2.9440684E-2,1.0038228E-2,2.0718763E1,-5.7206437E-2,-1.1506845E-1,2.2493036E0,9.724125E0,-5.2338164E-2,7.388654E-2,2.6869943E-2,4.56156E0,-6.658382E-2,1.2421117E1,8.475267E0,-4.11153E-2,5.0017543E-2,-6.8010926E-2,9.644829E-2,5.849412E2,5.5916584E-3,5.280632E-3,-5.414725E-2,-2.1396315E0,-2.594555E-2,-1.9322621E2,3.0904375E-2,2.006309E-2,1.1810701E1,-4.2662647E-2,-3.3024747E0,1.2006094E1,3.321315E0,4.095738E-2,-2.6706204E-2,3.1357925E-2,-4.4693682E-2,-5.1042993E-2,-5.8491092E-2,9.141403E-3,1.2180934E1,4.4024567E2,1.5183684E1,-3.7113424E-2,3.6932416E-2,-1.1134253E-2,1.3286133E-1,6.810341E-2,1.4623961E-2,8.081767E-3,1.5472907E-2,4.4483274E-2,4.6418476E0,7.058609E-3,-1.1378654E-2,-1.0171642E-2,-5.5085385E-1,-2.1554666E-2,-3.888116E-2,3.4915306E-2,1.4163485E1,6.07368E-3,5.490601E-2,-1.0983994E-3,-2.2333091E-2,5.5292528E-2,-2.861143E-2,-6.826821E-2,-1.5862672E-2,1.9822042E-2,-3.0248377E-2,-1.5663774E-3,6.0901176E-2,7.6071456E-2,3.3218693E-2,7.856136E-2,2.4520643E-2,3.891564E-2,-3.2661032E-2,-1.5345563E-2,-7.1195126E-2,-6.966322E-2,-2.5183246E-2,-4.5472883E-2,3.1098414E-2,6.734101E-2,-6.880544E-3,-7.3602176E-3,7.02491E-2,1.46794645E-2,-3.224892E-2],"split_indices":[0,0,56,46,56,25,25,6,6,40,7,0,0,29,48,0,0,27,15,20,15,9,17,0,35,0,25,27,12,48,20,49,0,34,50,20,38,30,36,28,0,0,0,49,0,17,29,0,0,23,56,54,0,0,0,32,0,0,26,0,13,0,48,17,49,0,0,0,0,31,0,51,17,53,20,0,0,38,56,0,0,0,23,46,45,0,47,38,48,46,0,0,12,0,0,0,0,0,0,0,0,0,0,0,0,0,0,0,0,0,0,0,0,0,0,0,0,0,0,0,0,0,0],"split_type":[0,0,0,0,0,0,0,0,0,0,0,0,0,0,0,0,0,0,0,0,0,0,0,0,0,0,0,0,0,0,0,0,0,0,0,0,0,0,0,0,0,0,0,0,0,0,0,0,0,0,0,0,0,0,0,0,0,0,0,0,0,0,0,0,0,0,0,0,0,0,0,0,0,0,0,0,0,0,0,0,0,0,0,0,0,0,0,0,0,0,0,0,0,0,0,0,0,0,0,0,0,0,0,0,0,0,0,0,0,0,0,0,0,0,0,0,0,0,0,0,0,0,0],"sum_hessian":[6.2456055E2,5.732368E2,5.1323715E1,3.165265E2,2.5671033E2,1.6668531E1,3.4655186E1,9.319878E0,3.0720663E2,5.908328E1,1.9762704E2,1.2454669E1,4.213863E0,1.931245E1,1.5342734E1,6.1091337E0,3.210744E0,2.2432886E2,8.287777E1,3.820149E1,2.088179E1,6.554817E1,1.3207887E2,4.95482E0,1.435763E1,5.2180777E0,1.0124657E1,1.470257E1,2.0962628E2,9.390227E0,7.348754E1,3.4988056E1,3.213434E0,9.68174E0,1.1200051E1,5.066632E1,1.4881854E1,2.9010015E1,1.03068855E2,8.67057E0,5.6870594E0,6.9205823E0,3.2040744E0,6.419829E0,8.282741E0,2.5337437E1,1.8428885E2,3.936222E0,5.4540057E0,6.336047E1,1.0127072E1,3.1264107E1,3.7239468E0,4.721837E0,4.959903E0,7.9626703E0,3.2373807E0,1.9861067E1,3.0805254E1,4.4719725E0,1.0409882E1,4.692649E0,2.4317368E1,1.3158576E1,8.991028E1,5.4449463E0,3.2256246E0,3.2287083E0,3.1911209E0,2.2128458E1,3.208978E0,1.7012666E2,1.4162185E1,1.911313E1,4.424734E1,4.4195905E0,5.707482E0,9.425944E0,2.1838163E1,4.2310104E0,3.73166E0,3.9754803E0,1.5885586E1,2.4359106E1,6.446147E0,3.229251E0,7.1806307E0,7.668076E0,1.6649292E1,9.692958E0,3.465618E0,3.7346842E0,8.617559E1,7.193269E0,1.493519E1,1.128566E2,5.727006E1,9.956959E0,4.2052255E0,1.5659774E1,3.4533567E0,5.938446E0,3.8308895E1,4.48067E0,4.9452744E0,1.8123726E1,3.7144365E0,1.1411634E1,4.473952E0,2.064689E1,3.7122164E0,3.2256403E0,3.2205067E0,3.2132254E0,3.9674053E0,4.1873174E0,3.4807587E0,1.1448609E1,5.2006817E0,3.483306E0,6.2096524E0,7.6838613E0,7.849173E1],"tree_param":{"num_deleted":"0","num_feature":"59","num_nodes":"123","size_leaf_vector":"1"}},{"base_weights":[-1.3821156E-5,-6.815827E-2,7.5002605E-1,-2.2241427E-1,1.2224681E-1,1.640583E-1,9.637734E-1,-1.1937939E0,-1.893549E-1,-2.7115634E-1,3.435112E-1,4.5074604E-2,-3.771493E-1,1.149232E0,4.2731443E-1,-7.298408E-2,-2.3247572E-2,-2.1285622E-1,5.7219215E-2,5.619572E-1,-3.5543263E-1,6.86002E-1,6.583552E-2,-5.5083055E-2,3.3794295E-2,1.407011E0,5.597671E-1,-1.4816026E-2,6.38599E-2,-1.0202569E-1,-5.0770915E-1,6.083153E-2,-1.0923579E-3,-2.1974538E-1,-1.0747244E0,8.803433E-1,-1.9502912E-1,-3.7193766E-1,2.5082606E-1,7.542706E-2,3.490795E-2,-1.1185738E-2,4.784755E-2,-9.168999E-1,-4.2259328E-2,-6.6283846E-1,-1.5116614E-1,2.8442815E-1,-5.2599835E-1,-1.3460371E-2,-7.775438E-2,9.72847E-1,-2.9380549E-2,5.8302786E-2,-8.916398E-1,4.6863922E-1,-8.837853E-1,3.4437922E-1,-5.1532157E-2,-5.711112E-4,-1.1594218E0,1.6449474E-1,-2.1913528E-1,2.3602981E-2,-7.672152E-1,-9.217671E-1,2.3927532E-1,6.1844885E-1,-5.1248246E-1,-6.9374824E-1,2.6865086E-1,1.1423484E0,2.4876675E-1,-7.1855925E-4,-6.557621E-2,4.938283E-2,-1.8948859E-2,-1.1736456E0,1.5683455E-2,5.548355E-1,-2.7393204E-1,-6.884579E-2,-2.3992954E-2,1.666707E-2,-3.1949997E-2,-2.3622736E-2,9.253657E-3,-6.522583E-2,-2.687536E-2,7.85782E-4,-7.181328E-2,-2.9666325E-2,4.1139886E-2,5.0224632E-2,-4.0145107E-3,4.973059E-3,-5.7407636E-2,-9.75922E-3,-4.595078E-2,-1.77391E-2,4.668865E-2,6.662318E-2,2.9488597E-2,-2.0564165E-2,4.7481157E-2,-7.290112E-2,-1.4128514E-2,-5.3731645E-3,4.0634584E-2,4.363672E-2,-3.259198E-2],"categories":[],"categories_nodes":[],"categories_segments":[],"categories_sizes":[],"default_left":[0,0,0,0,0,0,0,0,0,0,0,0,0,0,0,0,0,0,0,0,0,0,0,0,0,0,0,0,0,0,0,0,0,0,0,0,0,0,0,0,0,0,0,0,0,0,0,0,0,0,0,0,0,0,0,0,0,0,0,0,0,0,0,0,0,0,0,0,0,0,0,0,0,0,0,0,0,0,0,0,0,0,0,0,0,0,0,0,0,0,0,0,0,0,0,0,0,0,0,0,0,0,0,0,0,0,0,0,0,0,0],"id":7,"left_children":[1,3,5,7,9,11,13,15,17,19,21,-1,23,25,27,-1,-1,29,-1,31,33,35,37,-1,-1,39,41,-1,-1,43,45,-1,-1,47,49,51,53,55,57,-1,-1,-1,-1,59,61,63,65,67,69,-1,-1,71,-1,-1,73,75,77,79,-1,-1,81,83,85,-1,87,89,91,93,95,97,99,101,103,-1,-1,-1,-1,105,-1,107,109,-1,-1,-1,-1,-1,-1,-1,-1,-1,-1,-1,-1,-1,-1,-1,-1,-1,-1,-1,-1,-1,-1,-1,-1,-1,-1,-1,-1,-1,-1],"loss_changes":[3.194465E1,1.6855362E1,6.3617287E0,9.949849E0,2.2470413E1,6.373815E0,3.2832718E0,1.3059044E0,9.886293E0,6.736363E0,1.564419E1,0E0,7.934737E0,3.4061012E0,7.3512287E0,0E0,0E0,9.85479E0,0E0,3.4434528E0,8.075223E0,1.2800995E1,7.5611935E0,0E0,0E0,2.812004E-1,3.343942E0,0E0,0E0,1.0752823E1,4.4666443E0,0E0,0E0,1.1405844E1,4.7113724E0,8.8021965E0,1.4454656E1,1.2372861E1,8.197805E0,0E0,0E0,0E0,0E0,3.3011599E0,7.6239333E0,7.1425743E0,8.142108E0,7.8227224E0,6.278723E0,0E0,0E0,6.7600937E0,0E0,0E0,3.637198E0,5.28958E0,6.4846306E0,8.183231E0,0E0,0E0,1.0973015E0,1.3269153E1,1.158155E1,0E0,5.8154354E0,4.3924856E0,9.363774E0,5.5625486E0,3.5665312E0,4.0902214E0,3.9334712E0,4.0707283E0,6.0183606E0,0E0,0E0,0E0,0E0,3.2366161E0,0E0,8.00735E0,7.6504865E0,0E0,0E0,0E0,0E0,0E0,0E0,0E0,0E0,0E0,0E0,0E0,0E0,0E0,0E0,0E0,0E0,0E0,0E0,0E0,0E0,0E0,0E0,0E0,0E0,0E0,0E0,0E0,0E0,0E0,0E0],"parents":[2147483647,0,0,1,1,2,2,3,3,4,4,5,5,6,6,7,7,8,8,9,9,10,10,12,12,13,13,14,14,17,17,19,19,20,20,21,21,22,22,25,25,26,26,29,29,30,30,33,33,34,34,35,35,36,36,37,37,38,38,43,43,44,44,45,45,46,46,47,47,48,48,51,51,54,54,55,55,56,56,57,57,60,60,61,61,62,62,64,64,65,65,66,66,67,67,68,68,69,69,70,70,71,71,72,72,77,77,79,79,80,80],"right_children":[2,4,6,8,10,12,14,16,18,20,22,-1,24,26,28,-1,-1,30,-1,32,34,36,38,-1,-1,40,42,-1,-1,44,46,-1,-1,48,50,52,54,56,58,-1,-1,-1,-1,60,62,64,66,68,70,-1,-1,72,-1,-1,74,76,78,80,-1,-1,82,84,86,-1,88,90,92,94,96,98,100,102,104,-1,-1,-1,-1,106,-1,108,110,-1,-1,-1,-1,-1,-1,-1,-1,-1,-1,-1,-1,-1,-1,-1,-1,-1,-1,-1,-1,-1,-1,-1,-1,-1,-1,-1,-1,-1,-1],"split_conditions":[-1.2277473E2,-2.028882E2,6.2433925E-2,-1.4170386E-1,9.8808945E1,-5.764695E-2,1.8008485E-2,2.2306502E-1,2.728366E-1,-1.7206712E-1,9.414353E0,4.5074604E-2,1.17370695E-1,3.1132247E-2,2.5837496E1,-7.298408E-2,-2.3247572E-2,1.3767774E-1,5.7219215E-2,-1.7574419E2,1.7926843E0,2.9205643E1,-3.810822E-2,-5.5083055E-2,3.3794295E-2,2.2641644E1,-4.336724E-2,-1.4816026E-2,6.38599E-2,-9.862019E-2,3.360897E-1,6.083153E-2,-1.0923579E-3,-1.1004318E-3,-4.6906766E-2,6.834757E-2,4.4218745E0,-6.1925497E-2,2.728095E-1,7.542706E-2,3.490795E-2,-1.1185738E-2,4.784755E-2,9.524835E0,3.223672E1,1.0835266E1,-1.0855362E-1,1.2921249E-2,-1.8695056E0,-1.3460371E-2,-7.775438E-2,2.1443909E1,-2.9380549E-2,5.8302786E-2,1.0869892E2,-8.537834E-2,2.6067132E-1,7.014976E0,-5.1532157E-2,-5.711112E-4,3.8255165E1,1.2006094E1,2.8697827E-3,2.3602981E-2,1.0510513E1,1.0543523E2,2.0271402E-2,1.9804926E1,5.1323126E2,-6.911848E0,-1.3658564E1,5.0304575E0,5.258712E-3,-7.1855925E-4,-6.557621E-2,4.938283E-2,-1.8948859E-2,-1.9565244E0,1.5683455E-2,-1.456855E-2,3.6675755E-2,-6.884579E-2,-2.3992954E-2,1.666707E-2,-3.1949997E-2,-2.3622736E-2,9.253657E-3,-6.522583E-2,-2.687536E-2,7.85782E-4,-7.181328E-2,-2.9666325E-2,4.1139886E-2,5.0224632E-2,-4.0145107E-3,4.973059E-3,-5.7407636E-2,-9.75922E-3,-4.595078E-2,-1.77391E-2,4.668865E-2,6.662318E-2,2.9488597E-2,-2.0564165E-2,4.7481157E-2,-7.290112E-2,-1.4128514E-2,-5.3731645E-3,4.0634584E-2,4.363672E-2,-3.259198E-2],"split_indices":[0,0,57,46,4,23,42,6,11,14,17,0,55,27,12,0,0,6,0,0,8,20,46,0,0,9,10,0,0,27,6,0,0,10,39,46,45,23,10,0,0,0,0,13,12,9,11,43,32,0,0,9,0,0,4,46,6,33,0,0,12,17,42,0,13,4,57,9,52,32,8,8,43,0,0,0,0,8,0,51,57,0,0,0,0,0,0,0,0,0,0,0,0,0,0,0,0,0,0,0,0,0,0,0,0,0,0,0,0,0,0],"split_type":[0,0,0,0,0,0,0,0,0,0,0,0,0,0,0,0,0,0,0,0,0,0,0,0,0,0,0,0,0,0,0,0,0,0,0,0,0,0,0,0,0,0,0,0,0,0,0,0,0,0,0,0,0,0,0,0,0,0,0,0,0,0,0,0,0,0,0,0,0,0,0,0,0,0,0,0,0,0,0,0,0,0,0,0,0,0,0,0,0,0,0,0,0,0,0,0,0,0,0,0,0,0,0,0,0,0,0,0,0,0,0],"sum_hessian":[6.230046E2,5.719495E2,5.1055027E1,3.158758E2,2.5607376E2,1.4118382E1,3.6936646E1,9.240903E0,3.066349E2,9.209875E1,1.63975E2,5.6940837E0,8.424298E0,2.6598911E1,1.0337733E1,6.036134E0,3.2047696E0,3.0215118E2,4.4836893E0,7.9399858E0,8.415876E1,7.276037E1,9.1214645E1,4.9632764E0,3.461022E0,1.7541088E1,9.057824E0,5.9353814E0,4.4023514E0,2.205834E2,8.156778E1,3.231848E0,4.708138E0,7.190088E1,1.2257884E1,5.9611755E1,1.3148611E1,2.6794912E1,6.441973E1,1.4356615E1,3.1844723E0,3.1940374E0,5.863786E0,1.4093028E1,2.0649039E2,5.6239365E1,2.5328417E1,2.7197634E1,4.4703243E1,5.1620717E0,7.095813E0,5.6395264E1,3.2164898E0,4.22318E0,8.925431E0,1.0172931E1,1.6621983E1,6.0718277E1,3.7014508E0,3.1984441E0,1.0894584E1,9.523646E1,1.1125392E2,4.4400144E0,5.179935E1,8.059945E0,1.726847E1,1.9322609E1,7.8750243E0,3.701614E1,7.6871037E0,4.5229694E1,1.116557E1,3.22391E0,5.7015214E0,6.207005E0,3.9659257E0,1.3398559E1,3.223423E0,4.5376137E1,1.5342141E1,7.4757824E0,3.4188018E0,7.918222E1,1.6054243E1,6.82884E1,4.296552E1,1.4111843E1,3.7687508E1,3.1994984E0,4.860447E0,7.108653E0,1.0159819E1,1.2164379E1,7.1582313E0,4.4421816E0,3.4328423E0,1.2100861E1,2.4915277E1,4.208748E0,3.4783561E0,3.2601658E1,1.2628035E1,5.9629626E0,5.2026076E0,9.674727E0,3.723832E0,1.2879254E1,3.2496883E1,3.4784043E0,1.1863737E1],"tree_param":{"num_deleted":"0","num_feature":"59","num_nodes":"111","size_leaf_vector":"1"}},{"base_weights":[-1.8363692E-4,-6.5493315E-2,7.209101E-1,-2.8221217E-1,6.198705E-2,8.717801E-1,-1.7102964E-2,2.7829787E-1,-3.634435E-1,1.3357726E-1,-6.20447E-1,9.819915E-2,1.0436066E0,6.494706E-1,-6.04065E-1,-6.690821E-1,-2.1336691E-1,1.7974511E-1,-5.116162E-1,-3.1933498E-2,-9.00619E-1,-3.4664303E-2,4.7364514E-2,7.511648E-1,1.4349772E0,9.028123E-2,1.2813997E0,1.4065916E-2,-7.074356E-2,1.5062465E-1,-8.401895E-1,5.150167E-2,-2.62298E-1,-4.9554728E-2,3.0948985E-1,-1.870893E-1,-7.149689E-2,-3.939735E-2,3.4782693E-2,-3.7600052E-1,-1.1811197E0,9.87286E-1,-2.7822787E-2,7.871686E-2,3.5255756E-2,6.777099E-1,-3.8367644E-2,7.892101E-2,2.7920187E-2,6.44223E-1,-4.269373E-2,-1.1114448E0,-2.8070098E-1,1.630876E-1,-4.1263962E-1,-4.597231E-1,1.703333E-1,8.0409E-1,1.3612574E-1,4.7771737E-2,-6.841572E-1,-5.4250892E-2,7.1381354E-3,-7.284852E-2,-2.8151754E-2,1.3361007E-2,1.2652427E0,5.994163E-2,-5.08167E-4,-5.098507E-3,6.02894E-2,6.32438E-3,-1.2573326E0,-5.1839482E-2,1.3218178E-1,-7.6588833E-1,5.254462E-1,5.7059044E-1,-4.9435005E-1,-1.762059E-2,-7.9948235E-1,-4.5953497E-1,3.8371062E-1,9.6585566E-1,-1.1659255E-1,3.9483628E-1,-1.9040965E-1,-1.07014E0,1.3967066E-2,7.3309645E-2,2.4183407E-2,-6.998153E-2,-1.2494084E-2,4.6572473E-2,-1.2552408E-2,-6.566983E-2,1.2355853E-2,4.896867E-2,-2.235445E-4,-1.2053223E-2,6.176532E-2,3.4052517E-2,-2.7482202E-2,1.747456E-2,-5.301106E-2,-1.8692248E-2,-6.857967E-2,1.4340182E-2,-4.8229884E-2,3.8015906E-2,1.1240019E-3,8.363642E-3,5.6359407E-2,-4.738022E-2,4.1722108E-2,4.1498274E-2,9.167119E-3,-6.0771685E-2,-4.0928936E-3,-6.707584E-2,-2.0799384E-2],"categories":[],"categories_nodes":[],"categories_segments":[],"categories_sizes":[],"default_left":[0,0,0,0,0,0,0,0,0,0,0,0,0,0,0,0,0,0,0,0,0,0,0,0,0,0,0,0,0,0,0,0,0,0,0,0,0,0,0,0,0,0,0,0,0,0,0,0,0,0,0,0,0,0,0,0,0,0,0,0,0,0,0,0,0,0,0,0,0,0,0,0,0,0,0,0,0,0,0,0,0,0,0,0,0,0,0,0,0,0,0,0,0,0,0,0,0,0,0,0,0,0,0,0,0,0,0,0,0,0,0,0,0,0,0,0,0,0,0,0,0],"id":8,"left_children":[1,3,5,7,9,11,-1,13,15,17,19,21,23,25,27,29,31,33,35,37,39,-1,-1,41,43,45,47,-1,-1,49,51,-1,53,55,57,59,-1,-1,-1,61,63,65,-1,-1,-1,67,-1,-1,-1,69,-1,71,73,75,77,79,81,83,85,-1,87,-1,-1,-1,-1,-1,89,-1,-1,-1,-1,-1,91,-1,93,95,97,99,101,103,105,107,109,111,113,115,117,119,-1,-1,-1,-1,-1,-1,-1,-1,-1,-1,-1,-1,-1,-1,-1,-1,-1,-1,-1,-1,-1,-1,-1,-1,-1,-1,-1,-1,-1,-1,-1,-1,-1],"loss_changes":[2.9355135E1,1.5808113E1,8.59997E0,9.747625E0,1.7704613E1,5.9606094E0,0E0,9.360922E0,8.365152E0,9.8403425E0,5.647008E0,6.9700184E0,3.182026E0,6.86604E0,6.5908537E0,8.628273E0,7.928047E0,9.123534E0,6.322985E0,7.225318E0,2.982233E0,0E0,0E0,7.7745247E0,3.9721107E-1,6.342905E0,1.094203E0,0E0,0E0,6.160675E0,7.3216248E0,0E0,7.8630915E0,1.0134063E1,1.6667542E1,1.0586713E1,0E0,0E0,0E0,3.6781635E0,1.6868191E0,3.7012653E0,0E0,0E0,0E0,2.6614492E0,0E0,0E0,0E0,3.5411992E0,0E0,6.215885E0,5.6817927E0,1.1358986E1,7.540804E0,5.871291E0,1.0029492E1,7.6454124E0,1.2415881E1,0E0,5.0482745E0,0E0,0E0,0E0,0E0,0E0,1.5357361E0,0E0,0E0,0E0,0E0,0E0,3.9643745E0,0E0,4.0243735E0,5.615869E0,5.7794113E0,4.2883744E0,5.8306885E0,7.2787657E0,4.87677E0,7.4410086E0,7.5068846E0,5.367817E0,7.469611E0,7.378502E0,7.1608286E0,1.097332E0,0E0,0E0,0E0,0E0,0E0,0E0,0E0,0E0,0E0,0E0,0E0,0E0,0E0,0E0,0E0,0E0,0E0,0E0,0E0,0E0,0E0,0E0,0E0,0E0,0E0,0E0,0E0,0E0,0E0,0E0,0E0,0E0,0E0],"parents":[2147483647,0,0,1,1,2,2,3,3,4,4,5,5,7,7,8,8,9,9,10,10,11,11,12,12,13,13,14,14,15,15,16,16,17,17,18,18,19,19,20,20,23,23,24,24,25,25,26,26,29,29,30,30,32,32,33,33,34,34,35,35,39,39,40,40,41,41,45,45,49,49,51,51,52,52,53,53,54,54,55,55,56,56,57,57,58,58,60,60,66,66,72,72,74,74,75,75,76,76,77,77,78,78,79,79,80,80,81,81,82,82,83,83,84,84,85,85,86,86,87,87],"right_children":[2,4,6,8,10,12,-1,14,16,18,20,22,24,26,28,30,32,34,36,38,40,-1,-1,42,44,46,48,-1,-1,50,52,-1,54,56,58,60,-1,-1,-1,62,64,66,-1,-1,-1,68,-1,-1,-1,70,-1,72,74,76,78,80,82,84,86,-1,88,-1,-1,-1,-1,-1,90,-1,-1,-1,-1,-1,92,-1,94,96,98,100,102,104,106,108,110,112,114,116,118,120,-1,-1,-1,-1,-1,-1,-1,-1,-1,-1,-1,-1,-1,-1,-1,-1,-1,-1,-1,-1,-1,-1,-1,-1,-1,-1,-1,-1,-1,-1,-1,-1,-1],"split_conditions":[-1.2277473E2,2.355462E-2,-3.2031705E0,2.1442818E1,-1.4368496E0,5.7215948E-2,-1.7102964E-2,1.224221E-1,-4.075256E0,1.1730843E1,4.2675967E0,2.2752427E-1,2.647523E1,-3.824587E-2,4.0090002E2,4.5127554E0,-2.5866288E-1,-2.028882E2,2.9345747E-2,-3.6906546E-3,5.608382E0,-3.4664303E-2,4.7364514E-2,4.3807305E-2,9.844757E0,-1.55924065E-2,1.5860563E-2,1.4065916E-2,-7.074356E-2,5.8041877E-1,5.0764213E0,5.150167E-2,9.724125E0,-2.4406856E-2,1.361964E-1,7.8194194E0,-7.149689E-2,-3.939735E-2,3.4782693E-2,1.5416999E1,-2.2630727E-2,-3.111882E-2,-2.7822787E-2,7.871686E-2,3.5255756E-2,8.938569E0,-3.8367644E-2,7.892101E-2,2.7920187E-2,5.961478E0,-4.269373E-2,8.629289E-2,-3.3505924E-2,-7.2374244E0,4.125005E0,4.589067E-1,5.9764547E0,2.7755296E-1,7.122195E1,4.7771737E-2,3.1127491E1,-5.4250892E-2,7.1381354E-3,-7.284852E-2,-2.8151754E-2,1.3361007E-2,3.892347E1,5.994163E-2,-5.08167E-4,-5.098507E-3,6.02894E-2,6.32438E-3,2.1817543E-1,-5.1839482E-2,5.468774E0,-1.300253E-2,1.1522654E-1,-1.3173506E0,-1.5117099E1,-2.7212016E-3,3.4198267E2,3.223672E1,7.1573086E0,-1.4547779E-1,1.2193265E-1,-7.9819486E-2,-1.200993E-1,6.693774E0,1.3967066E-2,7.3309645E-2,2.4183407E-2,-6.998153E-2,-1.2494084E-2,4.6572473E-2,-1.2552408E-2,-6.566983E-2,1.2355853E-2,4.896867E-2,-2.235445E-4,-1.2053223E-2,6.176532E-2,3.4052517E-2,-2.7482202E-2,1.747456E-2,-5.301106E-2,-1.8692248E-2,-6.857967E-2,1.4340182E-2,-4.8229884E-2,3.8015906E-2,1.1240019E-3,8.363642E-3,5.6359407E-2,-4.738022E-2,4.1722108E-2,4.1498274E-2,9.167119E-3,-6.0771685E-2,-4.0928936E-3,-6.707584E-2,-2.0799384E-2],"split_indices":[0,57,24,12,24,57,0,6,40,21,49,56,12,26,53,37,14,0,46,50,37,0,0,42,21,50,30,0,0,3,49,0,28,27,56,25,0,0,0,28,15,50,0,0,0,21,0,0,0,25,0,56,42,16,33,3,25,40,1,0,5,0,0,0,0,0,5,0,0,0,0,0,56,0,49,39,2,40,16,39,52,12,25,15,56,26,15,49,0,0,0,0,0,0,0,0,0,0,0,0,0,0,0,0,0,0,0,0,0,0,0,0,0,0,0,0,0,0,0,0,0],"split_type":[0,0,0,0,0,0,0,0,0,0,0,0,0,0,0,0,0,0,0,0,0,0,0,0,0,0,0,0,0,0,0,0,0,0,0,0,0,0,0,0,0,0,0,0,0,0,0,0,0,0,0,0,0,0,0,0,0,0,0,0,0,0,0,0,0,0,0,0,0,0,0,0,0,0,0,0,0,0,0,0,0,0,0,0,0,0,0,0,0,0,0,0,0,0,0,0,0,0,0,0,0,0,0,0,0,0,0,0,0,0,0,0,0,0,0,0,0,0,0,0,0],"sum_hessian":[6.213228E2,5.705565E2,5.0766304E1,2.1086632E2,3.5969022E2,4.461399E1,6.1523156E0,2.6384275E1,1.8448204E2,3.262676E2,3.3422585E1,8.394153E0,3.6219837E1,1.8757662E1,7.626614E0,5.9614925E1,1.2486712E2,3.051533E2,2.1114325E1,1.1138873E1,2.2283712E1,4.439419E0,3.954734E0,2.2400753E1,1.3819084E1,1.0557911E1,8.199751E0,3.9578087E0,3.6688054E0,1.0315797E1,4.929913E1,3.9686267E0,1.2089849E2,1.1049387E2,1.9465942E2,1.6490467E1,4.6238575E0,5.4220405E0,5.7168326E0,8.578976E0,1.3704737E1,1.9181976E1,3.2187757E0,1.0631979E1,3.187105E0,6.390552E0,4.167359E0,4.973413E0,3.2263381E0,7.1574016E0,3.1583948E0,3.2537518E1,1.676161E1,3.15485E1,8.934999E1,3.8181416E1,7.2312454E1,4.9577847E1,1.4508157E2,4.719781E0,1.1770685E1,3.1635966E0,5.4153786E0,8.537307E0,5.1674294E0,5.88858E0,1.3293397E1,3.2133524E0,3.1771996E0,3.4249003E0,3.7325015E0,3.4442515E0,2.9093266E1,5.3865075E0,1.1375103E1,8.540265E0,2.3008236E1,6.3965507E0,8.295344E1,1.7048883E1,2.1132532E1,1.8006237E1,5.430622E1,4.212699E1,7.450856E0,8.0830925E1,6.4250656E1,8.324973E0,3.4457123E0,9.877779E0,3.4156175E0,2.5151453E1,3.9418132E0,3.2228906E0,8.152213E0,5.3514066E0,3.188858E0,1.1935831E1,1.1072404E1,3.1669147E0,3.229636E0,3.2185678E0,7.973487E1,1.3100747E1,3.9481363E0,1.3065526E1,8.067006E0,7.4416876E0,1.0564549E1,2.6046339E1,2.825988E1,7.4225874E0,3.4704403E1,3.9782648E0,3.4725914E0,2.5481268E1,5.5349655E1,5.176223E0,5.9074432E1,5.1413145E0,3.1836588E0],"tree_param":{"num_deleted":"0","num_feature":"59","num_nodes":"121","size_leaf_vector":"1"}},{"base_weights":[-2.5565972E-4,-2.5506333E-1,1.4749174E-1,3.0150026E-1,-3.2694146E-1,2.2059382E-1,-5.955561E-1,6.686139E-1,-1.8153507E-1,-4.0834E-1,1.393074E-1,1.1811404E-1,6.1891717E-1,-3.1093937E-1,-1.1821277E0,9.4279313E-1,-1.41148865E-2,-8.242175E-1,3.886411E-2,-5.0836384E-1,-4.1965894E-2,3.57956E-1,-3.7747707E-2,-1.0814808E-1,2.6340887E-1,9.4804263E-1,2.6249683E-1,-1.4739236E-2,-1.0020304E0,-2.3079531E-2,-7.051954E-2,-7.1291598E-3,6.94187E-2,-6.665962E-2,-6.936575E-3,-7.2632205E-1,-2.888712E-1,-3.8743964E-1,6.4784926E-1,6.3858175E-1,-4.1218013E-1,1.08447574E-1,-4.4217247E-1,1.2033583E0,2.0596147E-1,1.3639346E-3,1.1001967E0,7.13763E-2,6.293067E-2,-6.818151E-1,4.994975E-1,-1.9921625E-2,-6.714914E-2,-1.1058832E0,-4.1614488E-1,3.0882287E-1,-5.2007264E-1,3.3980507E-2,-8.133177E-1,-1.988528E-2,1.2214094E0,1.0602329E0,-1.9188559E-2,-4.512308E-2,8.589155E-3,-5.518204E-1,2.6754364E-1,2.3597957E-1,-6.2916553E-1,3.0922964E-2,7.6257996E-2,-7.7517465E-2,4.2728528E-1,1.2056578E0,1.0666906E-2,3.8013035E-1,-7.727676E-1,-5.5740546E-3,-5.7006188E-2,9.447032E-1,-2.2894798E-2,-1.275452E0,-1.4225396E-2,-6.2776434E-1,2.875645E-1,8.1158394E-1,-2.3573382E-1,3.1739857E-2,-6.2536305E-1,-5.663906E-1,5.0465893E-2,-3.3310757E-3,-1.1937088E0,7.976021E-2,2.555964E-2,2.1860272E-2,7.8976005E-2,3.252596E-2,-3.807432E-2,2.7715554E-2,-1.0482408E0,-4.5797944E-2,3.560661E-1,5.249661E-2,-2.7599579E-2,1.28117725E-2,-8.160674E-1,9.83044E-2,-5.383063E-1,8.24549E-1,1.0746046E-1,2.7357984E-2,1.3496828E0,-2.822708E-1,6.93178E-1,-7.09027E-2,1.5323717E-3,6.727203E-2,1.3340371E-2,-7.148438E-2,-3.7137654E-2,-4.5324385E-2,-4.6739788E-4,3.963553E-2,-8.236716E-3,-1.6830759E-3,6.813107E-2,2.4291541E-2,-3.7929904E-2,1.1642869E-2,-3.632992E-2,-5.5199064E-2,1.00458795E-2,-7.113626E-2,-3.0485353E-2,-6.922604E-2,-1.3363153E-2,2.7869761E-2,-1.1523785E-2,-5.4289963E-2,-1.2942436E-2,-9.615728E-3,2.2848787E-2,-5.0314534E-2,4.5259106E-3,5.0151933E-2,-4.752101E-3,1.0617686E-2,-5.0969508E-2,7.7494316E-2,3.3960436E-2,1.0093055E-2,-4.0488448E-2,5.7404604E-2,9.999309E-3],"categories":[],"categories_nodes":[],"categories_segments":[],"categories_sizes":[],"default_left":[0,0,0,0,0,0,0,0,0,0,0,0,0,0,0,0,0,0,0,0,0,0,0,0,0,0,0,0,0,0,0,0,0,0,0,0,0,0,0,0,0,0,0,0,0,0,0,0,0,0,0,0,0,0,0,0,0,0,0,0,0,0,0,0,0,0,0,0,0,0,0,0,0,0,0,0,0,0,0,0,0,0,0,0,0,0,0,0,0,0,0,0,0,0,0,0,0,0,0,0,0,0,0,0,0,0,0,0,0,0,0,0,0,0,0,0,0,0,0,0,0,0,0,0,0,0,0,0,0,0,0,0,0,0,0,0,0,0,0,0,0,0,0,0,0,0,0,0,0,0,0,0,0,0,0],"id":9,"left_children":[1,3,5,7,9,11,13,15,17,19,21,23,25,27,29,31,-1,33,-1,35,37,39,-1,41,43,45,47,49,51,-1,-1,-1,-1,-1,-1,53,55,57,59,61,63,65,67,69,71,-1,73,75,-1,77,79,-1,-1,81,83,85,87,89,91,-1,93,95,97,-1,-1,99,101,103,105,-1,-1,107,109,111,-1,113,115,-1,-1,117,-1,119,-1,121,123,125,127,-1,129,131,-1,-1,133,-1,-1,-1,-1,-1,-1,-1,135,-1,137,-1,-1,-1,139,141,143,145,147,-1,149,151,153,-1,-1,-1,-1,-1,-1,-1,-1,-1,-1,-1,-1,-1,-1,-1,-1,-1,-1,-1,-1,-1,-1,-1,-1,-1,-1,-1,-1,-1,-1,-1,-1,-1,-1,-1,-1,-1,-1,-1,-1],"loss_changes":[2.3398146E1,9.224033E0,2.1500366E1,4.840148E0,7.7421207E0,1.4577053E1,5.560281E0,4.263744E0,8.206163E0,6.3058167E0,6.3010755E0,9.453354E0,8.338633E0,5.156783E0,1.1981754E0,6.0651608E0,0E0,2.548923E0,0E0,6.274338E0,9.334944E0,5.7661285E0,0E0,8.210084E0,9.194894E0,5.2484703E0,6.864347E0,6.7550893E0,1.0216861E0,0E0,0E0,0E0,0E0,0E0,0E0,7.4685364E0,9.722022E0,4.6981964E0,8.3381E0,5.305071E0,2.2759635E0,7.4212065E0,5.8010798E0,9.136925E-1,1.0448534E1,0E0,2.764576E0,8.557914E0,0E0,2.1111276E0,5.179365E0,0E0,0E0,3.7712822E0,5.9382763E0,5.6469164E0,6.508994E0,8.793101E0,3.6082554E0,0E0,1.4944944E0,3.0717611E0,4.6838093E0,0E0,0E0,8.142907E0,6.2423663E0,7.2253275E0,6.036379E0,0E0,0E0,6.01819E0,1.1775429E1,1.9796181E0,0E0,5.148885E0,4.6167383E0,0E0,0E0,1.7947531E0,0E0,9.3592834E-1,0E0,5.1692715E0,2.3296099E0,4.976467E0,4.2698956E0,0E0,4.2151814E0,4.0709043E0,0E0,0E0,2.7507305E-1,0E0,0E0,0E0,0E0,0E0,0E0,0E0,2.217164E0,0E0,6.417916E0,0E0,0E0,0E0,4.1249657E0,5.7312794E0,6.1208553E0,6.906519E0,6.4668894E0,0E0,2.0124245E0,2.3026419E0,3.4746222E0,0E0,0E0,0E0,0E0,0E0,0E0,0E0,0E0,0E0,0E0,0E0,0E0,0E0,0E0,0E0,0E0,0E0,0E0,0E0,0E0,0E0,0E0,0E0,0E0,0E0,0E0,0E0,0E0,0E0,0E0,0E0,0E0,0E0,0E0,0E0,0E0,0E0,0E0,0E0,0E0],"parents":[2147483647,0,0,1,1,2,2,3,3,4,4,5,5,6,6,7,7,8,8,9,9,10,10,11,11,12,12,13,13,14,14,15,15,17,17,19,19,20,20,21,21,23,23,24,24,25,25,26,26,27,27,28,28,35,35,36,36,37,37,38,38,39,39,40,40,41,41,42,42,43,43,44,44,46,46,47,47,49,49,50,50,53,53,54,54,55,55,56,56,57,57,58,58,60,60,61,61,62,62,65,65,66,66,67,67,68,68,71,71,72,72,73,73,75,75,76,76,79,79,81,81,83,83,84,84,85,85,86,86,88,88,89,89,92,92,100,100,102,102,106,106,107,107,108,108,109,109,110,110,112,112,113,113,114,114],"right_children":[2,4,6,8,10,12,14,16,18,20,22,24,26,28,30,32,-1,34,-1,36,38,40,-1,42,44,46,48,50,52,-1,-1,-1,-1,-1,-1,54,56,58,60,62,64,66,68,70,72,-1,74,76,-1,78,80,-1,-1,82,84,86,88,90,92,-1,94,96,98,-1,-1,100,102,104,106,-1,-1,108,110,112,-1,114,116,-1,-1,118,-1,120,-1,122,124,126,128,-1,130,132,-1,-1,134,-1,-1,-1,-1,-1,-1,-1,136,-1,138,-1,-1,-1,140,142,144,146,148,-1,150,152,154,-1,-1,-1,-1,-1,-1,-1,-1,-1,-1,-1,-1,-1,-1,-1,-1,-1,-1,-1,-1,-1,-1,-1,-1,-1,-1,-1,-1,-1,-1,-1,-1,-1,-1,-1,-1,-1,-1,-1,-1],"split_conditions":[2.4724111E-2,3.4503057E0,-1.276647E0,8.8210255E-3,6.5867335E-2,6.0861602E-2,3.7110038E-2,4.938876E-3,-1.9552778E-2,2.0247625E-2,2.3111431E-1,-2.2636427E-2,-7.967389E0,7.935883E-2,1.0387833E1,-4.769014E-2,-1.41148865E-2,-2.8640153E-2,3.886411E-2,1.546023E-1,5.6239643E0,4.578774E-2,-3.7747707E-2,1.0418989E-1,1.1236415E1,-3.984975E-2,1.3021588E-1,-3.2471874E0,-3.140846E-2,-2.3079531E-2,-7.051954E-2,-7.1291598E-3,6.94187E-2,-6.665962E-2,-6.936575E-3,1.7569584E1,4.510577E2,-3.5121586E-2,-1.2091048E1,1.1875508E-1,2.015034E1,-2.9783687E-2,-7.624158E-2,-9.193353E-3,4.8236156E0,1.3639346E-3,8.598082E-1,1.0264687E1,6.293067E-2,5.0611916E0,8.310104E-3,-1.9921625E-2,-6.714914E-2,1.8458545E-2,8.958617E-3,-2.9253125E-2,-2.4987444E-1,9.110959E0,1.6399635E1,-1.988528E-2,1.9085078E-2,-4.526269E0,-2.1730496E-2,-4.512308E-2,8.589155E-3,-1.6133077E-1,7.5063124E-2,-2.4967175E0,-7.30447E-2,3.0922964E-2,7.6257996E-2,1.3100107E1,-7.581676E-2,1.029754E1,1.0666906E-2,-4.3672554E-2,-5.4352947E-2,-5.5740546E-3,-5.7006188E-2,1.1642958E1,-2.2894798E-2,1.1128054E1,-1.4225396E-2,-6.289799E-2,4.799303E0,-4.5712225E-2,-4.3692105E-2,3.1739857E-2,-4.8855357E0,1.1524038E1,5.0465893E-2,-3.3310757E-3,-1.1759672E-2,7.976021E-2,2.555964E-2,2.1860272E-2,7.8976005E-2,3.252596E-2,-3.807432E-2,2.7715554E-2,2.8475907E-2,-4.5797944E-2,-5.639064E-4,5.249661E-2,-2.7599579E-2,1.28117725E-2,-2.704251E-3,-1.8154677E0,-4.362342E-2,-4.3642387E0,6.410101E-2,2.7357984E-2,1.5599044E-2,1.278455E-1,-6.1565056E-2,-7.09027E-2,1.5323717E-3,6.727203E-2,1.3340371E-2,-7.148438E-2,-3.7137654E-2,-4.5324385E-2,-4.6739788E-4,3.963553E-2,-8.236716E-3,-1.6830759E-3,6.813107E-2,2.4291541E-2,-3.7929904E-2,1.1642869E-2,-3.632992E-2,-5.5199064E-2,1.00458795E-2,-7.113626E-2,-3.0485353E-2,-6.922604E-2,-1.3363153E-2,2.7869761E-2,-1.1523785E-2,-5.4289963E-2,-1.2942436E-2,-9.615728E-3,2.2848787E-2,-5.0314534E-2,4.5259106E-3,5.0151933E-2,-4.752101E-3,1.0617686E-2,-5.0969508E-2,7.7494316E-2,3.3960436E-2,1.0093055E-2,-4.0488448E-2,5.7404604E-2,9.999309E-3],"split_indices":[57,49,24,10,18,57,7,27,26,26,6,27,24,48,13,46,0,27,0,56,41,26,0,6,9,51,57,48,15,0,0,0,0,0,0,9,52,31,24,18,5,51,10,51,41,0,16,21,0,49,27,0,0,46,38,39,10,21,9,0,57,32,27,0,0,7,56,48,27,0,0,28,7,20,0,18,31,0,0,13,0,8,0,18,41,15,31,0,48,13,0,0,31,0,0,0,0,0,0,0,18,0,39,0,0,0,46,48,23,24,58,0,26,56,23,0,0,0,0,0,0,0,0,0,0,0,0,0,0,0,0,0,0,0,0,0,0,0,0,0,0,0,0,0,0,0,0,0,0,0,0,0,0,0,0],"split_type":[0,0,0,0,0,0,0,0,0,0,0,0,0,0,0,0,0,0,0,0,0,0,0,0,0,0,0,0,0,0,0,0,0,0,0,0,0,0,0,0,0,0,0,0,0,0,0,0,0,0,0,0,0,0,0,0,0,0,0,0,0,0,0,0,0,0,0,0,0,0,0,0,0,0,0,0,0,0,0,0,0,0,0,0,0,0,0,0,0,0,0,0,0,0,0,0,0,0,0,0,0,0,0,0,0,0,0,0,0,0,0,0,0,0,0,0,0,0,0,0,0,0,0,0,0,0,0,0,0,0,0,0,0,0,0,0,0,0,0,0,0,0,0,0,0,0,0,0,0,0,0,0,0,0,0],"sum_hessian":[6.1951215E2,2.271093E2,3.9240286E2,2.5610287E1,2.0149901E2,3.5789572E2,3.4507153E1,1.4332893E1,1.1277394E1,1.7165532E2,2.9843681E1,2.8569043E2,7.220529E1,2.4263903E1,1.0243252E1,1.1131773E1,3.20112E0,6.8358173E0,4.4415765E0,1.3453764E2,3.7117687E1,2.4462318E1,5.3813634E0,1.11817276E2,1.7387314E2,3.6677074E1,3.552822E1,1.7699333E1,6.564569E0,3.1914086E0,7.051843E0,3.4377856E0,7.6939874E0,3.3807306E0,3.455087E0,6.634618E1,6.819146E1,2.502366E1,1.2094026E1,1.8054394E1,6.407924E0,6.8241745E1,4.3575527E1,8.865728E0,1.6500742E2,5.368535E0,3.1308538E1,3.0708057E1,4.820165E0,7.5628324E0,1.01365E1,3.152389E0,3.41218E0,2.8682415E1,3.7663765E1,1.8926804E1,4.9264652E1,1.3040186E1,1.1983476E1,4.392836E0,7.70119E0,1.0629011E1,7.4253826E0,3.1868844E0,3.2210395E0,1.2771209E1,5.547054E1,9.361821E0,3.4213707E1,4.1835933E0,4.682135E0,7.263011E1,9.2377304E1,2.7659878E1,3.6486588E0,2.2886702E1,7.8213544E0,3.9235213E0,3.639311E0,6.928073E0,3.2084274E0,2.3316101E1,5.366313E0,2.903906E1,8.624704E0,9.586098E0,9.340706E0,3.6960282E0,4.5568623E1,8.33119E0,4.7089953E0,4.441022E0,7.5424533E0,4.2292233E0,3.4719665E0,5.669193E0,4.959818E0,3.9685566E0,3.456826E0,3.919996E0,8.8512125E0,3.2098055E0,5.2260735E1,4.441462E0,4.9203587E0,5.8987746E0,2.8314932E1,5.3140213E1,1.9489897E1,4.0496853E1,5.188045E1,5.825248E0,2.1834631E1,7.376507E0,1.5510196E1,3.9132671E0,3.9080873E0,3.735252E0,3.192821E0,1.6775215E1,6.540886E0,1.9696106E1,9.342955E0,3.7187846E0,4.90592E0,4.1536527E0,5.432445E0,3.954388E0,5.386318E0,4.6709146E0,4.089771E1,4.640909E0,3.6902812E0,4.3862267E0,3.1562266E0,5.6469126E0,3.2043002E0,3.894325E1,1.3317485E1,1.8440073E1,9.874859E0,2.9611143E1,2.352907E1,1.0829834E1,8.660063E0,3.3838223E1,6.6586337E0,4.8204838E1,3.675612E0,1.5803946E1,6.0306854E0,4.168254E0,3.208253E0,7.3774476E0,8.132748E0],"tree_param":{"num_deleted":"0","num_feature":"59","num_nodes":"155","size_leaf_vector":"1"}},{"base_weights":[-4.2342264E-4,-2.4357826E-1,1.4039864E-1,1.7895783E-1,-3.6388555E-1,2.1241166E-1,-5.5621505E-1,4.427161E-1,-5.0453746E-1,-6.5294254E-1,-1.6474694E-1,1.1685781E-1,5.8628654E-1,-2.8895783E-1,-1.0970165E0,-1.3629228E-1,7.3048276E-1,1.7456701E-2,-8.7765884E-1,-7.319432E-1,1.3697534E-2,-3.1549528E-1,4.8256046E-1,-1.05394736E-1,2.5942597E-1,8.456315E-1,-1.0631011E-1,1.742282E-1,-7.4386173E-1,-6.85239E-2,-2.87775E-2,-7.1267307E-1,2.7024016E-2,-1.2272735E-2,9.2163336E-1,-6.4828716E-2,-1.6272498E-2,1.911767E-2,-8.281576E-1,-7.741553E-1,-1.14394285E-1,7.256582E-1,-3.192275E-2,3.362874E-3,-9.960189E-1,6.8273026E-1,1.4335574E-1,1.2785863E-2,1.1170746E0,3.6785516E-1,-6.8839735E-1,-2.4188721E-1,4.5421373E-2,-1.0823089E0,1.31324325E-2,-5.984806E-2,-1.1842638E-3,1.1415303E0,7.498999E-4,-4.0296286E-2,3.2297056E-2,-1.1125746E0,-4.662578E-1,4.1780304E-2,-1.0337404E0,8.297714E-2,-6.617863E-1,1.2165613E0,1.8181014E-1,-7.31665E-1,1.2301573E-1,-1.2471775E0,-1.0745688E-2,1.0798961E0,4.2909957E-2,-1.2605006E-1,3.393446E-1,-3.533157E-1,4.099157E-2,1.2310658E0,2.0522626E-2,-4.0956908E-1,6.5912955E-2,-5.466167E-2,4.6125273E-3,1.897207E-2,-4.2780716E-2,-7.125467E-2,-2.3338696E-2,1.2986097E0,1.7437818E-2,-1.261429E0,-6.374919E-3,7.311771E-2,-9.8100156E-1,3.3042558E-2,-3.0159054E-2,-4.971355E-4,-1.3223548E0,2.697826E-1,-6.608286E-1,9.241816E-3,-1.037861E0,2.2168322E-2,7.8466855E-2,-2.0998104E-2,3.2272305E-2,-1.1679907E0,2.006209E-2,2.906995E-1,-4.23595E-1,-3.2120876E-2,-7.313051E-2,6.1121404E-1,7.8319654E-2,-9.005706E-1,1.039609E0,-3.6791152E-1,4.5099562E-1,6.8327755E-1,-1.7239463E-2,8.82664E-3,-5.4249078E-2,1.3924815E-2,1.3453989E0,1.3255465E-2,-4.905614E-2,2.9703975E-2,7.2736435E-2,-2.1801842E-2,-6.8878435E-2,-2.1345742E-2,4.0736694E-2,-6.59432E-2,-1.527189E-2,-3.6734592E-2,-7.434233E-2,3.3880413E-2,-9.608227E-3,-5.7376154E-2,1.1478795E-2,-7.0946224E-2,-8.985375E-3,-7.121788E-2,-2.469725E-2,3.3155844E-2,-2.1072235E-3,3.0874172E-2,-3.315898E-2,6.299373E-2,3.8901013E-3,-1.415128E-2,-6.593253E-2,7.110627E-2,1.83027E-2,9.843475E-3,-3.151193E-2,5.1154833E-2,-1.5579663E-2,1.3638259E-4,4.932216E-2,3.035985E-2,-1.4615329E-2,7.2865844E-2,3.332593E-2],"categories":[],"categories_nodes":[],"categories_segments":[],"categories_sizes":[],"default_left":[0,0,0,0,0,0,0,0,0,0,0,0,0,0,0,0,0,0,0,0,0,0,0,0,0,0,0,0,0,0,0,0,0,0,0,0,0,0,0,0,0,0,0,0,0,0,0,0,0,0,0,0,0,0,0,0,0,0,0,0,0,0,0,0,0,0,0,0,0,0,0,0,0,0,0,0,0,0,0,0,0,0,0,0,0,0,0,0,0,0,0,0,0,0,0,0,0,0,0,0,0,0,0,0,0,0,0,0,0,0,0,0,0,0,0,0,0,0,0,0,0,0,0,0,0,0,0,0,0,0,0,0,0,0,0,0,0,0,0,0,0,0,0,0,0,0,0,0,0,0,0,0,0,0,0,0,0,0,0,0,0,0,0,0,0],"id":10,"left_children":[1,3,5,7,9,11,13,15,17,19,21,23,25,27,29,31,33,-1,35,37,-1,39,41,43,45,47,49,51,53,-1,-1,55,-1,-1,57,-1,-1,59,61,63,65,67,-1,69,71,73,75,77,79,81,83,85,-1,87,-1,-1,-1,89,-1,-1,-1,91,93,95,97,99,101,103,105,107,109,111,-1,113,115,117,119,121,-1,123,-1,125,-1,-1,-1,-1,-1,-1,-1,127,-1,129,-1,131,133,-1,-1,-1,135,137,139,-1,141,-1,-1,-1,-1,143,-1,145,147,-1,-1,149,-1,151,153,155,157,159,161,-1,-1,-1,163,-1,-1,-1,-1,-1,-1,-1,-1,-1,-1,-1,-1,-1,-1,-1,-1,-1,-1,-1,-1,-1,-1,-1,-1,-1,-1,-1,-1,-1,-1,-1,-1,-1,-1,-1,-1,-1,-1,-1,-1],"loss_changes":[2.1215958E1,1.1616377E1,1.9801178E1,9.423098E0,1.0092665E1,1.2661327E1,5.0360975E0,6.3234963E0,4.981284E0,5.468706E0,1.0520968E1,9.059287E0,1.30734005E1,5.6385E0,9.070406E-1,5.5514865E0,4.910515E0,0E0,2.0063944E0,4.8261566E0,0E0,7.9168015E0,6.040866E0,1.0861926E1,8.4483595E0,1.1900024E1,5.9336567E0,4.425052E0,4.8422494E0,0E0,0E0,2.5021691E0,0E0,0E0,4.2109776E0,0E0,0E0,4.9353447E0,5.55727E0,5.609703E0,6.700412E0,4.394191E0,0E0,8.964011E0,2.125965E0,9.397898E0,7.317393E0,4.4160924E0,2.6953583E0,9.401573E0,3.1307564E0,3.9759502E0,0E0,1.4887543E0,0E0,0E0,0E0,1.6708965E0,0E0,0E0,0E0,4.5801277E0,7.7618604E0,3.3150718E0,5.8897076E0,6.5834002E0,5.4173956E0,1.7346325E0,2.8873332E0,7.522391E0,8.155171E0,2.363081E-1,0E0,4.261698E0,1.5300965E1,8.365336E0,9.82622E0,4.1871004E0,0E0,3.2973099E0,0E0,3.098271E0,0E0,0E0,0E0,0E0,0E0,0E0,0E0,6.61026E-1,0E0,2.08107E0,0E0,5.708617E0,2.847889E0,0E0,0E0,0E0,4.1331482E-1,7.205219E0,4.399063E0,0E0,3.5106697E0,0E0,0E0,0E0,0E0,1.1208477E0,0E0,8.413881E0,5.642133E0,0E0,0E0,4.5031767E0,0E0,1.7911816E0,1.5128946E0,6.339112E0,8.084887E0,8.40691E0,7.0935946E0,0E0,0E0,0E0,1.2960091E0,0E0,0E0,0E0,0E0,0E0,0E0,0E0,0E0,0E0,0E0,0E0,0E0,0E0,0E0,0E0,0E0,0E0,0E0,0E0,0E0,0E0,0E0,0E0,0E0,0E0,0E0,0E0,0E0,0E0,0E0,0E0,0E0,0E0,0E0,0E0,0E0,0E0,0E0,0E0,0E0],"parents":[2147483647,0,0,1,1,2,2,3,3,4,4,5,5,6,6,7,7,8,8,9,9,10,10,11,11,12,12,13,13,14,14,15,15,16,16,18,18,19,19,21,21,22,22,23,23,24,24,25,25,26,26,27,27,28,28,31,31,34,34,37,37,38,38,39,39,40,40,41,41,43,43,44,44,45,45,46,46,47,47,48,48,49,49,50,50,51,51,53,53,57,57,61,61,62,62,63,63,64,64,65,65,66,66,67,67,68,68,69,69,70,70,71,71,73,73,74,74,75,75,76,76,77,77,79,79,81,81,89,89,91,91,93,93,94,94,98,98,99,99,100,100,102,102,107,107,109,109,110,110,113,113,115,115,116,116,117,117,118,118,119,119,120,120,124,124],"right_children":[2,4,6,8,10,12,14,16,18,20,22,24,26,28,30,32,34,-1,36,38,-1,40,42,44,46,48,50,52,54,-1,-1,56,-1,-1,58,-1,-1,60,62,64,66,68,-1,70,72,74,76,78,80,82,84,86,-1,88,-1,-1,-1,90,-1,-1,-1,92,94,96,98,100,102,104,106,108,110,112,-1,114,116,118,120,122,-1,124,-1,126,-1,-1,-1,-1,-1,-1,-1,128,-1,130,-1,132,134,-1,-1,-1,136,138,140,-1,142,-1,-1,-1,-1,144,-1,146,148,-1,-1,150,-1,152,154,156,158,160,162,-1,-1,-1,164,-1,-1,-1,-1,-1,-1,-1,-1,-1,-1,-1,-1,-1,-1,-1,-1,-1,-1,-1,-1,-1,-1,-1,-1,-1,-1,-1,-1,-1,-1,-1,-1,-1,-1,-1,-1,-1,-1,-1,-1],"split_conditions":[2.4724111E-2,5.357949E0,-1.4368496E0,1.2288089E-2,-5.781919E-2,6.0861602E-2,3.7110038E-2,5.744562E0,4.1667247E0,1.5470086E-1,6.784637E0,-2.2636427E-2,-9.1584873E-1,5.629809E0,1.4911908E-1,-9.193353E-3,2.1510128E-2,1.7456701E-2,-1.4431145E-2,6.913619E0,1.3697534E-2,-4.3186197E0,2.8897396E-1,7.677085E-1,1.4439377E1,-7.1025245E-2,8.339532E-2,4.6415683E-2,4.526417E2,-6.85239E-2,-2.87775E-2,4.525894E0,2.7024016E-2,-1.2272735E-2,1.4237647E-3,-6.4828716E-2,-1.6272498E-2,-4.2899013E-2,-1.7646428E-2,1.4439377E1,7.271848E1,2.4907356E1,-3.192275E-2,-4.4017967E-2,8.032211E0,6.2164E0,4.852882E0,2.102402E0,2.0626482E-2,4.1133933E-2,1.955721E-1,6.5473957E0,4.5421373E-2,1.2387087E0,1.31324325E-2,-5.984806E-2,-1.1842638E-3,7.245373E-3,7.498999E-4,-4.0296286E-2,3.2297056E-2,5.7750883E0,2.4313529E0,9.281574E0,-3.0264277E-2,5.6358013E-2,1.3774519E-1,-1.0841896E1,-3.552722E-1,-5.4289746E-1,-3.1486817E-2,5.0020714E0,-1.0745688E-2,6.009185E-4,5.034264E0,7.5453618E-3,7.122195E1,1.0326793E1,4.099157E-2,6.422368E-2,2.0522626E-2,6.0258675E1,6.5912955E-2,-5.466167E-2,4.6125273E-3,1.897207E-2,-4.2780716E-2,-7.125467E-2,-2.3338696E-2,-1.06749525E1,1.7437818E-2,-4.3648202E-2,-6.374919E-3,-1.0664146E-2,7.790633E0,3.3042558E-2,-3.0159054E-2,-4.971355E-4,-2.7594445E-2,4.150363E0,1.7209354E1,9.241816E-3,1.572467E-2,2.2168322E-2,7.8466855E-2,-2.0998104E-2,3.2272305E-2,3.0018153E-2,2.006209E-2,3.392498E-3,3.6439743E0,-3.2120876E-2,-7.313051E-2,-1.8174112E-2,7.8319654E-2,-2.1321679E-2,1.4931647E0,-3.3505924E-2,9.807727E-3,7.0253646E-1,1.4067739E-1,8.82664E-3,-5.4249078E-2,1.3924815E-2,1.3448618E-1,1.3255465E-2,-4.905614E-2,2.9703975E-2,7.2736435E-2,-2.1801842E-2,-6.8878435E-2,-2.1345742E-2,4.0736694E-2,-6.59432E-2,-1.527189E-2,-3.6734592E-2,-7.434233E-2,3.3880413E-2,-9.608227E-3,-5.7376154E-2,1.1478795E-2,-7.0946224E-2,-8.985375E-3,-7.121788E-2,-2.469725E-2,3.3155844E-2,-2.1072235E-3,3.0874172E-2,-3.315898E-2,6.299373E-2,3.8901013E-3,-1.415128E-2,-6.593253E-2,7.110627E-2,1.83027E-2,9.843475E-3,-3.151193E-2,5.1154833E-2,-1.5579663E-2,1.3638259E-4,4.932216E-2,3.035985E-2,-1.4615329E-2,7.2865844E-2,3.332593E-2],"split_indices":[57,29,24,51,26,57,7,25,37,11,37,27,40,37,7,51,55,0,11,21,0,40,56,40,9,30,58,10,52,0,0,41,0,0,39,0,0,31,42,9,1,20,0,43,29,29,41,44,39,58,56,25,0,24,0,0,0,31,0,0,0,49,44,28,47,30,56,24,16,40,27,37,0,51,41,26,1,28,0,57,0,1,0,0,0,0,0,0,0,16,0,43,0,22,25,0,0,0,39,44,9,0,15,0,0,0,0,58,0,6,49,0,0,42,0,51,44,42,27,44,56,0,0,0,10,0,0,0,0,0,0,0,0,0,0,0,0,0,0,0,0,0,0,0,0,0,0,0,0,0,0,0,0,0,0,0,0,0,0,0,0,0,0,0,0],"split_type":[0,0,0,0,0,0,0,0,0,0,0,0,0,0,0,0,0,0,0,0,0,0,0,0,0,0,0,0,0,0,0,0,0,0,0,0,0,0,0,0,0,0,0,0,0,0,0,0,0,0,0,0,0,0,0,0,0,0,0,0,0,0,0,0,0,0,0,0,0,0,0,0,0,0,0,0,0,0,0,0,0,0,0,0,0,0,0,0,0,0,0,0,0,0,0,0,0,0,0,0,0,0,0,0,0,0,0,0,0,0,0,0,0,0,0,0,0,0,0,0,0,0,0,0,0,0,0,0,0,0,0,0,0,0,0,0,0,0,0,0,0,0,0,0,0,0,0,0,0,0,0,0,0,0,0,0,0,0,0,0,0,0,0,0,0],"sum_hessian":[6.175979E2,2.2623407E2,3.9136383E2,5.0030933E1,1.7620314E2,3.5532672E2,3.6037117E1,3.6354244E1,1.367669E1,7.094502E1,1.0525812E2,2.840441E2,7.12826E1,2.514506E1,1.0892056E1,1.2244253E1,2.4109991E1,4.1792326E0,9.4974575E0,6.556696E1,5.3780575E0,8.579121E1,1.9466906E1,1.11103386E2,1.7294072E2,5.1701763E1,1.9580837E1,1.2764829E1,1.238023E1,6.0770664E0,4.81499E0,6.5839305E0,5.6603227E0,3.9023063E0,2.0207684E1,4.6340256E0,4.863432E0,7.536611E0,5.803035E1,2.5281342E1,6.050987E1,1.6287548E1,3.1793573E0,9.990038E1,1.1203004E1,3.6165237E1,1.3677548E2,1.2966102E1,3.873566E1,1.0993572E1,8.587266E0,8.5752535E0,4.1895757E0,9.208493E0,3.1717372E0,3.4333563E0,3.150574E0,1.6054672E1,4.1530128E0,3.130468E0,4.406143E0,3.1332157E1,2.6698195E1,6.3043537E0,1.8976988E1,4.5097588E1,1.5412281E1,7.9103436E0,8.377204E0,1.3269696E1,8.6630684E1,8.025712E0,3.1772916E0,2.1889566E1,1.4275672E1,5.7749714E1,7.902577E1,9.3065605E0,3.6595411E0,3.2715816E1,6.0198455E0,6.360105E0,4.633467E0,5.3910866E0,3.1961796E0,4.4509335E0,4.12432E0,5.069907E0,4.1385856E0,1.2867131E1,3.1875398E0,2.6975382E1,4.3567743E0,1.345612E1,1.3242075E1,3.2041707E0,3.1001832E0,4.400744E0,1.4576243E1,3.655433E1,8.54326E0,4.8968844E0,1.0515397E1,3.1854465E0,4.724897E0,3.6865184E0,4.6906857E0,9.557695E0,3.7120006E0,6.665202E1,1.9978664E1,3.1539564E0,4.871756E0,1.2298132E1,9.5914345E0,7.38317E0,6.8925014E0,4.0948914E1,1.6800802E1,3.9760113E1,3.9265656E1,5.8377657E0,3.4687946E0,3.874141E0,2.8841675E1,3.1628027E0,3.1973023E0,3.2057192E0,9.661412E0,3.913929E0,2.3061453E1,8.290571E0,5.1655483E0,8.192572E0,5.049503E0,4.383213E0,1.019303E1,1.9166508E1,1.7387821E1,5.337189E0,3.2060702E0,6.8293557E0,3.686041E0,6.1177278E0,3.4399676E0,3.0987734E1,3.5664288E1,3.4424992E0,1.6536165E1,4.9349847E0,7.3631477E0,3.6575603E0,3.72561E0,3.6871638E0,3.2053375E0,1.3066568E1,2.7882345E1,9.404129E0,7.3966722E0,1.2564399E1,2.7195715E1,1.1638153E1,2.7627502E1,2.3775478E1,5.066196E0],"tree_param":{"num_deleted":"0","num_feature":"59","num_nodes":"165","size_leaf_vector":"1"}},{"base_weights":[-8.0921594E-4,-2.3357019E-1,1.338984E-1,1.7048593E-1,-3.4891626E-1,9.555431E-1,9.436569E-2,5.489435E-1,-1.8825383E-1,-6.2667346E-1,-1.5821001E-1,1.2095178E0,1.6984552E-3,1.922609E-1,-2.4719392E-1,8.559331E-1,-1.1267236E-1,-6.408393E-1,3.2719567E-1,-7.703214E-1,-1.2227593E-1,-3.0311745E-1,4.6331823E-1,6.879222E-2,2.4573265E-2,2.7278215E-1,-2.0882785E-1,5.0223476E-1,-3.366739E-1,2.8847212E-1,7.235818E-2,2.7968401E-2,-3.517307E-2,