{"learner":{"attributes":{"scikit_learn":"{\"_estimator_type\": \"classifier\"}"},"feature_names":[],"feature_types":[],"gradient_booster":{"model":{"cats":{"enc":[],"feature_segments":[],"sorted_idx":[]},"gbtree_model_param":{"num_parallel_tree":"1","num_trees":"300"},"iteration_indptr":[0,1,2,3,4,5,6,7,8,9,10,11,12,13,14,15,16,17,18,19,20,21,22,23,24,25,26,27,28,29,30,31,32,33,34,35,36,37,38,39,40,41,42,43,44,45,46,47,48,49,50,51,52,53,54,55,56,57,58,59,60,61,62,63,64,65,66,67,68,69,70,71,72,73,74,75,76,77,78,79,80,81,82,83,84,85,86,87,88,89,90,91,92,93,94,95,96,97,98,99,100,101,102,103,104,105,106,107,108,109,110,111,112,113,114,115,116,117,118,119,120,121,122,123,124,125,126,127,128,129,130,131,132,133,134,135,136,137,138,139,140,141,142,143,144,145,146,147,148,149,150,151,152,153,154,155,156,157,158,159,160,161,162,163,164,165,166,167,168,169,170,171,172,173,174,175,176,177,178,179,180,181,182,183,184,185,186,187,188,189,190,191,192,193,194,195,196,197,198,199,200,201,202,203,204,205,206,207,208,209,210,211,212,213,214,215,216,217,218,219,220,221,222,223,224,225,226,227,228,229,230,231,232,233,234,235,236,237,238,239,240,241,242,243,244,245,246,247,248,249,250,251,252,253,254,255,256,257,258,259,260,261,262,263,264,265,266,267,268,269,270,271,272,273,274,275,276,277,278,279,280,281,282,283,284,285,286,287,288,289,290,291,292,293,294,295,296,297,298,299,300],"tree_info":[0,0,0,0,0,0,0,0,0,0,0,0,0,0,0,0,0,0,0,0,0,0,0,0,0,0,0,0,0,0,0,0,0,0,0,0,0,0,0,0,0,0,0,0,0,0,0,0,0,0,0,0,0,0,0,0,0,0,0,0,0,0,0,0,0,0,0,0,0,0,0,0,0,0,0,0,0,0,0,0,0,0,0,0,0,0,0,0,0,0,0,0,0,0,0,0,0,0,0,0,0,0,0,0,0,0,0,0,0,0,0,0,0,0,0,0,0,0,0,0,0,0,0,0,0,0,0,0,0,0,0,0,0,0,0,0,0,0,0,0,0,0,0,0,0,0,0,0,0,0,0,0,0,0,0,0,0,0,0,0,0,0,0,0,0,0,0,0,0,0,0,0,0,0,0,0,0,0,0,0,0,0,0,0,0,0,0,0,0,0,0,0,0,0,0,0,0,0,0,0,0,0,0,0,0,0,0,0,0,0,0,0,0,0,0,0,0,0,0,0,0,0,0,0,0,0,0,0,0,0,0,0,0,0,0,0,0,0,0,0,0,0,0,0,0,0,0,0,0,0,0,0,0,0,0,0,0,0,0,0,0,0,0,0,0,0,0,0,0,0,0,0,0,0,0,0,0,0,0,0,0,0,0,0,0,0,0,0,0,0,0,0,0,0,0,0,0,0,0,0],"trees":[{"base_weights":[1.4126295E-2,-3.4631318E-1,2.9525748E-1,-6.375382E-1,-2.2272776E-1,1.1287771E-1,8.529319E-1,-7.253832E-1,9.710441E-1,2.3468982E-1,-3.7536138E-1,2.9500324E-1,-2.2159967E-1,1.2260284E0,2.648647E-1,4.2123508E-1,-8.2225925E-1,1.8442959E-3,6.450093E-2,9.9608046E-1,-8.650505E-3,2.5559574E-1,-4.9007794E-1,3.9616185E-1,-6.545097E-1,1.0424579E0,-3.269178E-1,7.743529E-1,1.6050103E0,1.1025329E0,-9.881951E-2,5.5323124E-2,-4.1419682E-1,4.1620605E-2,-8.8197744E-1,-9.10608E-3,1.191216E0,-7.884942E-1,3.1087285E-1,5.4923946E-1,-6.845438E-2,-8.82359E-1,-2.6492715E-1,4.5655435E-1,-7.6363635E-1,-1.1744533E-1,-1.2251397E0,-9.10608E-3,6.9595784E-2,-1.6691293E-1,-1.1233705E0,1.1465832E0,2.1941511E-1,1.7198955E0,-9.10608E-3,-3.169407E-2,1.4727927E0,5.6245875E-1,-9.2493725E-1,2.6615852E-2,-5.4660082E-2,-3.567555E-2,-8.351682E-2,7.49342E-2,1.6836511E-2,-5.9433002E-2,2.9337978E-2,5.6049515E-2,-1.4531408E-2,5.3544664E-3,7.95648E-2,-5.8722664E-3,-5.3476054E-2,-5.681203E-2,-6.7481855E-3,3.289297E-2,7.6408535E-3,2.9337978E-2,-6.884625E-2,3.189495E-2,-3.7615977E-2,2.2128543E-3,-8.038797E-2,-1.4233346E-2,3.0213257E-2,-6.9944166E-2,2.2061003E-2,6.545995E-2,-9.10608E-3,-3.440917E-2,4.4071507E-2,2.2061003E-2,8.9870006E-2,1.31131485E-2,8.3848454E-2,4.723362E-2,-1.3051986E-3,-2.35834E-3,-7.399053E-2],"categories":[],"categories_nodes":[],"categories_segments":[],"categories_sizes":[],"default_left":[0,0,0,0,0,0,0,0,0,0,0,0,0,0,0,0,0,0,0,0,0,0,0,0,0,0,0,0,0,0,0,0,0,0,0,0,0,0,0,0,0,0,0,0,0,0,0,0,0,0,0,0,0,0,0,0,0,0,0,0,0,0,0,0,0,0,0,0,0,0,0,0,0,0,0,0,0,0,0,0,0,0,0,0,0,0,0,0,0,0,0,0,0,0,0,0,0,0,0],"id":0,"left_children":[1,3,5,7,9,11,13,15,17,19,21,23,25,27,29,31,33,-1,-1,35,37,39,41,43,45,47,49,51,53,55,57,-1,59,-1,61,-1,63,65,67,69,-1,71,73,75,77,79,81,-1,-1,83,85,87,89,91,-1,-1,93,95,97,-1,-1,-1,-1,-1,-1,-1,-1,-1,-1,-1,-1,-1,-1,-1,-1,-1,-1,-1,-1,-1,-1,-1,-1,-1,-1,-1,-1,-1,-1,-1,-1,-1,-1,-1,-1,-1,-1,-1,-1],"loss_changes":[5.123694E1,7.833132E0,2.8793594E1,9.957178E0,1.10567465E1,1.3174542E1,1.5000324E1,7.306877E0,1.0901763E0,7.405373E0,8.679449E0,1.3683426E1,1.0516824E1,6.0252304E0,8.757439E0,3.6314628E0,6.4771614E0,0E0,0E0,2.4419289E0,8.030701E0,9.739508E0,8.628836E0,9.238987E0,4.095485E0,2.871428E0,8.901287E0,4.149085E0,4.8620644E0,6.5117855E0,1.1835224E1,0E0,2.65484E0,0E0,6.3227386E0,0E0,1.7115002E0,5.8506985E0,1.1475439E1,7.509631E0,0E0,5.051428E0,7.2277565E0,7.3144073E0,6.32057E0,4.4276347E0,3.2772112E0,0E0,0E0,5.671761E0,5.685067E0,2.9424114E0,6.4885983E0,1.2794876E0,0E0,0E0,1.402111E0,2.7524168E0,4.5993605E0,0E0,0E0,0E0,0E0,0E0,0E0,0E0,0E0,0E0,0E0,0E0,0E0,0E0,0E0,0E0,0E0,0E0,0E0,0E0,0E0,0E0,0E0,0E0,0E0,0E0,0E0,0E0,0E0,0E0,0E0,0E0,0E0,0E0,0E0,0E0,0E0,0E0,0E0,0E0,0E0],"parents":[2147483647,0,0,1,1,2,2,3,3,4,4,5,5,6,6,7,7,8,8,9,9,10,10,11,11,12,12,13,13,14,14,15,15,16,16,19,19,20,20,21,21,22,22,23,23,24,24,25,25,26,26,27,27,28,28,29,29,30,30,32,32,34,34,36,36,37,37,38,38,39,39,41,41,42,42,43,43,44,44,45,45,46,46,49,49,50,50,51,51,52,52,53,53,56,56,57,57,58,58],"right_children":[2,4,6,8,10,12,14,16,18,20,22,24,26,28,30,32,34,-1,-1,36,38,40,42,44,46,48,50,52,54,56,58,-1,60,-1,62,-1,64,66,68,70,-1,72,74,76,78,80,82,-1,-1,84,86,88,90,92,-1,-1,94,96,98,-1,-1,-1,-1,-1,-1,-1,-1,-1,-1,-1,-1,-1,-1,-1,-1,-1,-1,-1,-1,-1,-1,-1,-1,-1,-1,-1,-1,-1,-1,-1,-1,-1,-1,-1,-1,-1,-1,-1,-1],"split_conditions":[-2.1167882E2,-4.0470033E0,1.261492E2,3.2966528E-2,-9.611104E0,4.243806E2,2.3387188E1,3.46677E0,9.840142E1,3.8134987E0,-3.042228E0,-1.4368492E0,4.625433E0,1.396488E2,6.828987E0,4.8547244E0,1.4384111E1,1.8442959E-3,6.450093E-2,-2.594487E2,1.5814504E1,2.353313E1,-1.9726398E0,2.8512077E0,1.0925351E2,-1.31161E1,4.84527E0,1.3465067E2,8.843405E0,-1.1277201E1,-6.722287E0,5.5323124E-2,7.7368336E0,4.1620605E-2,2.7284582E0,-9.10608E-3,3.4103153E1,-2.2490323E2,2.7149117E1,9.371762E0,-6.845438E-2,6.3457527E0,3.9277797E0,6.6030474E0,-8.351436E0,5.381168E-2,9.60914E0,-9.10608E-3,6.9595784E-2,-1.1062443E0,6.2697134E0,4.4334438E-2,-1.650509E2,3.520997E-2,-9.10608E-3,-3.169407E-2,4.1802673E0,1.353826E2,-3.243299E0,2.6615852E-2,-5.4660082E-2,-3.567555E-2,-8.351682E-2,7.49342E-2,1.6836511E-2,-5.9433002E-2,2.9337978E-2,5.6049515E-2,-1.4531408E-2,5.3544664E-3,7.95648E-2,-5.8722664E-3,-5.3476054E-2,-5.681203E-2,-6.7481855E-3,3.289297E-2,7.6408535E-3,2.9337978E-2,-6.884625E-2,3.189495E-2,-3.7615977E-2,2.2128543E-3,-8.038797E-2,-1.4233346E-2,3.0213257E-2,-6.9944166E-2,2.2061003E-2,6.545995E-2,-9.10608E-3,-3.440917E-2,4.4071507E-2,2.2061003E-2,8.9870006E-2,1.31131485E-2,8.3848454E-2,4.723362E-2,-1.3051986E-3,-2.35834E-3,-7.399053E-2],"split_indices":[0,10,1,32,6,27,5,25,1,25,10,6,20,1,18,9,3,0,0,0,15,15,4,10,1,4,11,1,19,6,6,0,18,0,11,0,3,0,3,18,0,19,23,9,6,31,17,0,0,8,25,29,0,31,0,0,20,1,10,0,0,0,0,0,0,0,0,0,0,0,0,0,0,0,0,0,0,0,0,0,0,0,0,0,0,0,0,0,0,0,0,0,0,0,0,0,0,0,0],"split_type":[0,0,0,0,0,0,0,0,0,0,0,0,0,0,0,0,0,0,0,0,0,0,0,0,0,0,0,0,0,0,0,0,0,0,0,0,0,0,0,0,0,0,0,0,0,0,0,0,0,0,0,0,0,0,0,0,0,0,0,0,0,0,0,0,0,0,0,0,0,0,0,0,0,0,0,0,0,0,0,0,0,0,0,0,0,0,0,0,0,0,0,0,0,0,0,0,0,0,0],"sum_hessian":[5.0363138E2,2.2058568E2,2.830457E2,6.448059E1,1.5610509E2,2.141977E2,6.8848E1,6.166226E1,2.8183358E0,3.892268E1,1.171824E2,1.3875987E2,7.543781E1,4.1459423E1,2.738858E1,4.5430336E0,5.7119225E1,1.0013605E0,1.8169752E0,8.677664E0,3.0245018E1,1.7838743E1,9.934366E1,1.2592674E2,1.2833132E1,5.1175356E0,7.0320274E1,2.0304043E1,2.1155378E1,7.6763034E0,1.9712276E1,2.3176556E0,2.225378E0,1.5389519E0,5.5580273E1,1.2424729E0,7.435191E0,8.36392E0,2.1881098E1,1.5668733E1,2.1700115E0,3.5161922E1,6.418173E1,1.20270424E2,5.6563177E0,7.2321806E0,5.600951E0,1.2424729E0,3.8750627E0,5.9563686E1,1.0756589E1,1.1514456E1,8.789588E0,1.9912905E1,1.2424729E0,1.2240174E0,6.4522862E0,1.1125699E1,8.586577E0,1.019816E0,1.2055619E0,4.7364E1,8.216276E0,4.9133344E0,2.5218568E0,6.583856E0,1.7800642E0,8.9556875E0,1.2925409E1,1.1775214E1,3.8935182E0,7.2321806E0,2.7929743E1,7.325649E0,5.6856083E1,7.1630615E1,4.863981E1,1.7800642E0,3.8762536E0,3.3005605E0,3.9316201E0,1.5020409E0,4.0989103E0,5.222077E1,7.3429136E0,9.236093E0,1.5204964E0,1.0271982E1,1.2424729E0,3.6905077E0,5.09908E0,1.5204964E0,1.8392408E1,1.2609284E0,5.1913576E0,6.378464E0,4.747235E0,3.7458742E0,4.840703E0],"tree_param":{"num_deleted":"0","num_feature":"33","num_nodes":"99","size_leaf_vector":"1"}},{"base_weights":[-2.200575E-2,-2.891789E-1,2.766475E-1,4.5182306E-1,-3.436133E-1,1.2204064E-1,1.243058E0,9.533604E-1,-1.345444E-1,-7.137584E-1,-2.4955998E-1,2.0238557E-1,-8.645053E-1,1.5026075E0,-4.178812E-1,5.244513E-2,1.4184462E0,-5.990593E-1,5.179134E-2,-7.958935E-1,4.754682E-2,-7.370492E-1,-1.3889138E-1,8.241235E-1,7.856605E-2,6.0261566E-2,-1.1767639E0,1.7152518E0,7.240847E-1,-6.558231E-2,5.075608E-1,-4.3488856E-2,4.627168E-2,8.1679426E-2,1.3796963E-2,2.2198338E-2,-9.432043E-1,-1.0239378E0,-4.5206852E-2,4.581698E-1,-1.1463662E0,6.960003E-1,-1.984367E-1,9.6591336E-1,-7.3833734E-1,-7.537423E-2,7.4170554E-1,1.3482029E-2,-1.3387302E0,2.8826345E-2,1.788101E0,1.0701878E0,-3.1676494E-2,5.091974E-2,-9.157679E-3,-6.813019E-2,2.6804943E-2,1.8985134E-2,-5.981466E-2,2.6655475E-2,-5.5108823E-2,-4.317297E-2,4.1521054E-2,2.6600292E-2,-6.591185E-2,-3.8099475E-2,4.9777E-2,-3.1448986E-2,-3.6510248E-3,5.4497153E-2,-5.3277757E-2,-5.5148453E-2,1.6212428E-3,1.010464E-2,-2.2075621E-2,4.51547E-2,-1.9901317E-2,-8.163685E-2,-2.675849E-2,2.49496E-2,9.155978E-2,6.888935E-2,5.606444E-4],"categories":[],"categories_nodes":[],"categories_segments":[],"categories_sizes":[],"default_left":[0,0,0,0,0,0,0,0,0,0,0,0,0,0,0,0,0,0,0,0,0,0,0,0,0,0,0,0,0,0,0,0,0,0,0,0,0,0,0,0,0,0,0,0,0,0,0,0,0,0,0,0,0,0,0,0,0,0,0,0,0,0,0,0,0,0,0,0,0,0,0,0,0,0,0,0,0,0,0,0,0,0,0],"id":1,"left_children":[1,3,5,7,9,11,13,15,17,19,21,23,25,27,29,31,33,35,-1,37,-1,39,41,43,45,-1,47,49,51,-1,53,-1,-1,-1,-1,-1,55,57,59,61,63,65,67,69,71,73,75,-1,77,-1,79,81,-1,-1,-1,-1,-1,-1,-1,-1,-1,-1,-1,-1,-1,-1,-1,-1,-1,-1,-1,-1,-1,-1,-1,-1,-1,-1,-1,-1,-1,-1,-1],"loss_changes":[4.0240932E1,1.0890673E1,3.5434097E1,5.611636E0,8.473146E0,1.6537497E1,1.4741409E1,4.188285E0,5.7700934E0,7.567766E0,1.0670934E1,1.4692593E1,1.1588017E1,3.481392E0,4.9725623E0,4.429553E0,1.1890278E0,3.0801754E0,0E0,8.173418E0,0E0,1.8486507E1,8.290075E0,7.7428265E0,1.6487804E1,0E0,3.6826E0,7.675705E-1,4.367316E0,0E0,1.3435383E0,0E0,0E0,0E0,0E0,0E0,4.3878736E0,9.352585E0,8.065599E0,5.676251E0,8.672615E0,5.622987E0,8.260941E0,8.600342E0,9.369862E-1,1.3453176E1,5.9546165E0,0E0,2.178236E0,0E0,1.9180298E-1,2.143724E0,0E0,0E0,0E0,0E0,0E0,0E0,0E0,0E0,0E0,0E0,0E0,0E0,0E0,0E0,0E0,0E0,0E0,0E0,0E0,0E0,0E0,0E0,0E0,0E0,0E0,0E0,0E0,0E0,0E0,0E0,0E0],"parents":[2147483647,0,0,1,1,2,2,3,3,4,4,5,5,6,6,7,7,8,8,9,9,10,10,11,11,12,12,13,13,14,14,15,15,16,16,17,17,19,19,21,21,22,22,23,23,24,24,26,26,27,27,28,28,30,30,36,36,37,37,38,38,39,39,40,40,41,41,42,42,43,43,44,44,45,45,46,46,48,48,50,50,51,51],"right_children":[2,4,6,8,10,12,14,16,18,20,22,24,26,28,30,32,34,36,-1,38,-1,40,42,44,46,-1,48,50,52,-1,54,-1,-1,-1,-1,-1,56,58,60,62,64,66,68,70,72,74,76,-1,78,-1,80,82,-1,-1,-1,-1,-1,-1,-1,-1,-1,-1,-1,-1,-1,-1,-1,-1,-1,-1,-1,-1,-1,-1,-1,-1,-1,-1,-1,-1,-1,-1,-1],"split_conditions":[-1.998022E2,3.9595856E1,1.3707947E2,8.898499E-3,4.112749E-1,-1.4368492E0,2.586521E1,3.5272176E0,-2.2653825E0,3.53509E1,-7.130199E0,1.361964E-1,5.114652E0,7.036381E1,5.9227124E-2,3.47489E1,-1.7055635E0,-2.354978E2,5.179134E-2,5.375474E-2,4.754682E-2,1.5824722E1,-5.6066327E0,4.1105618E2,-1.2106391E2,6.0261566E-2,1.9556282E1,1.3849367E2,6.5871716E0,-6.558231E-2,-3.6533957E0,-4.3488856E-2,4.627168E-2,8.1679426E-2,1.3796963E-2,2.2198338E-2,-1.8461447E0,4.985763E0,1.4014755E1,1.1264636E1,7.2794604E0,8.628632E1,-2.7578662E2,1.3617964E2,3.7499016E1,7.145471E1,-5.0451303E0,1.3482029E-2,1.3822531E1,2.8826345E-2,-1.9591422E2,4.848009E0,-3.1676494E-2,5.091974E-2,-9.157679E-3,-6.813019E-2,2.6804943E-2,1.8985134E-2,-5.981466E-2,2.6655475E-2,-5.5108823E-2,-4.317297E-2,4.1521054E-2,2.6600292E-2,-6.591185E-2,-3.8099475E-2,4.9777E-2,-3.1448986E-2,-3.6510248E-3,5.4497153E-2,-5.3277757E-2,-5.5148453E-2,1.6212428E-3,1.010464E-2,-2.2075621E-2,4.51547E-2,-1.9901317E-2,-8.163685E-2,-2.675849E-2,2.49496E-2,9.155978E-2,6.888935E-2,5.606444E-4],"split_indices":[0,13,1,32,11,6,5,25,8,14,4,30,20,13,31,13,8,0,0,29,0,5,4,27,0,0,5,1,21,0,6,0,0,0,0,0,6,7,16,16,17,1,0,1,3,13,6,0,16,0,0,25,0,0,0,0,0,0,0,0,0,0,0,0,0,0,0,0,0,0,0,0,0,0,0,0,0,0,0,0,0,0,0],"split_type":[0,0,0,0,0,0,0,0,0,0,0,0,0,0,0,0,0,0,0,0,0,0,0,0,0,0,0,0,0,0,0,0,0,0,0,0,0,0,0,0,0,0,0,0,0,0,0,0,0,0,0,0,0,0,0,0,0,0,0,0,0,0,0,0,0,0,0,0,0,0,0,0,0,0,0,0,0,0,0,0,0,0,0],"sum_hessian":[5.0231946E2,2.651499E2,2.3716956E2,1.764551E1,2.475044E2,2.054309E2,3.1738667E1,9.173377E0,8.472134E0,4.881296E1,1.9869144E2,1.9069539E2,1.47355E1,2.7531704E1,4.206962E0,3.5021484E0,5.6712284E0,6.4144244E0,2.0577092E0,4.7015156E1,1.7978038E0,3.5713856E1,1.6297757E2,3.0730707E1,1.5996468E2,1.5568099E0,1.317869E1,2.0679995E1,6.8517103E0,1.9278153E0,2.279147E0,1.7048397E0,1.7973086E0,4.410812E0,1.2604164E0,1.519402E0,4.8950224E0,3.5781433E1,1.1233722E1,9.080154E0,2.6633701E1,1.0138329E1,1.5283925E2,2.8524015E1,2.2066917E0,1.305462E2,2.9418478E1,1.260176E0,1.1918514E1,1.7794174E0,1.8900578E1,5.6285195E0,1.2231908E0,1.0374604E0,1.2416865E0,3.8752365E0,1.0197858E0,3.781594E0,3.199984E1,7.581281E0,3.6524405E0,1.705487E0,7.3746676E0,2.2793882E0,2.4354313E1,1.4647737E0,8.673555E0,3.357252E1,1.1926672E2,2.7319515E1,1.2045014E0,1.205421E0,1.0012708E0,7.452083E1,5.602537E1,2.595134E1,3.467137E0,7.970418E0,3.9480963E0,1.0183134E0,1.7882263E1,4.1283154E0,1.5002043E0],"tree_param":{"num_deleted":"0","num_feature":"33","num_nodes":"83","size_leaf_vector":"1"}},{"base_weights":[-1.6175875E-2,-1.4813374E-1,3.8268343E-1,2.031327E-1,-2.5775632E-1,7.508726E-1,-2.0621896E-1,3.3104056E-1,-4.9764025E-1,2.0329325E-1,-3.5879502E-1,1.2912632E0,4.9220988E-1,6.4478844E-1,-5.8925104E-1,4.9442995E-1,-3.0548725E-1,-8.5900015E-1,4.9257493E-1,-7.4001306E-1,4.1372675E-1,-4.207884E-1,2.0462051E-1,1.5068977E0,-2.1600677E-1,8.2131535E-1,9.109884E-2,8.5587674E-1,-5.2904803E-2,-1.1775782E-1,-9.1752195E-1,6.0354686E-1,-4.3334278E-1,6.2184477E-1,-7.9617256E-1,-1.2356366E0,2.0139576E-1,-1.4002402E-2,6.0090967E-2,-7.840594E-2,8.611521E-2,5.222679E-1,-6.495097E-2,-2.6383185E-1,-7.1462727E-1,4.7375128E-1,-8.3613724E-1,1.6136732E0,9.209414E-3,4.7696706E-2,-4.7513764E-2,9.446475E-1,-3.0966494E-2,-4.5130596E-1,5.185213E-1,-1.3911995E-2,1.0542988E0,6.2604976E-1,-6.668752E-1,3.6353657E-1,-1.0781687E0,4.0797453E-2,4.662362E-3,2.1765348E-2,-5.395929E-2,-3.0039191E-2,5.165566E-2,-6.0477532E-2,8.669141E-3,-7.069509E-2,1.613969E-3,-2.4115134E-2,5.0771844E-2,-4.2548668E-2,3.2782856E-2,-4.133429E-2,3.127912E-2,-4.8365053E-3,-3.1243036E-2,1.1274994E-2,-4.67169E-2,-5.303074E-2,3.1354927E-2,-6.197427E-2,1.3737849E-2,8.680597E-2,1.738417E-2,5.6365263E-2,8.530849E-3,-4.5284946E-2,2.4240796E-2,4.5183845E-2,-4.4832908E-2,6.839133E-2,-3.21894E-3,-2.538148E-2,6.706231E-2,-6.2626466E-2,8.227828E-3,3.0345973E-4,2.6881818E-2,-6.022315E-2,2.7005339E-2],"categories":[],"categories_nodes":[],"categories_segments":[],"categories_sizes":[],"default_left":[0,0,0,0,0,0,0,0,0,0,0,0,0,0,0,0,0,0,0,0,0,0,0,0,0,0,0,0,0,0,0,0,0,0,0,0,0,0,0,0,0,0,0,0,0,0,0,0,0,0,0,0,0,0,0,0,0,0,0,0,0,0,0,0,0,0,0,0,0,0,0,0,0,0,0,0,0,0,0,0,0,0,0,0,0,0,0,0,0,0,0,0,0,0,0,0,0,0,0,0,0,0,0],"id":2,"left_children":[1,3,5,7,9,11,13,15,17,19,21,23,25,27,29,31,33,35,37,39,41,43,45,47,49,51,53,55,-1,57,59,61,63,65,67,69,71,-1,-1,-1,73,75,-1,77,79,81,83,85,-1,-1,-1,87,-1,89,91,-1,93,95,97,99,101,-1,-1,-1,-1,-1,-1,-1,-1,-1,-1,-1,-1,-1,-1,-1,-1,-1,-1,-1,-1,-1,-1,-1,-1,-1,-1,-1,-1,-1,-1,-1,-1,-1,-1,-1,-1,-1,-1,-1,-1,-1,-1],"loss_changes":[2.6938457E1,1.4858072E1,2.774543E1,8.412169E0,1.3744591E1,1.03386E1,1.659199E1,8.3058605E0,5.647934E0,1.0905038E1,8.506935E0,8.385616E0,7.1475935E0,6.62637E0,5.2814436E0,6.616741E0,8.064045E0,4.666896E0,2.824102E0,7.042789E0,8.913347E0,9.843468E0,7.278417E0,2.7845497E0,4.324142E0,5.902731E0,6.211493E0,3.604165E0,0E0,6.723698E0,4.586336E0,6.057415E0,4.502507E0,3.7972682E0,4.7453203E0,1.9223213E0,2.5819454E0,0E0,0E0,0E0,3.7616043E0,6.422127E0,0E0,8.588851E0,1.57334175E1,5.408768E0,2.7646646E0,2.5062675E0,0E0,0E0,0E0,3.761383E0,0E0,5.500049E0,8.92378E0,0E0,4.553136E0,6.415848E0,4.7669983E0,1.8461633E-1,4.4033833E0,0E0,0E0,0E0,0E0,0E0,0E0,0E0,0E0,0E0,0E0,0E0,0E0,0E0,0E0,0E0,0E0,0E0,0E0,0E0,0E0,0E0,0E0,0E0,0E0,0E0,0E0,0E0,0E0,0E0,0E0,0E0,0E0,0E0,0E0,0E0,0E0,0E0,0E0,0E0,0E0,0E0,0E0],"parents":[2147483647,0,0,1,1,2,2,3,3,4,4,5,5,6,6,7,7,8,8,9,9,10,10,11,11,12,12,13,13,14,14,15,15,16,16,17,17,18,18,19,19,20,20,21,21,22,22,23,23,24,24,25,25,26,26,27,27,29,29,30,30,31,31,32,32,33,33,34,34,35,35,36,36,40,40,41,41,43,43,44,44,45,45,46,46,47,47,51,51,53,53,54,54,56,56,57,57,58,58,59,59,60,60],"right_children":[2,4,6,8,10,12,14,16,18,20,22,24,26,28,30,32,34,36,38,40,42,44,46,48,50,52,54,56,-1,58,60,62,64,66,68,70,72,-1,-1,-1,74,76,-1,78,80,82,84,86,-1,-1,-1,88,-1,90,92,-1,94,96,98,100,102,-1,-1,-1,-1,-1,-1,-1,-1,-1,-1,-1,-1,-1,-1,-1,-1,-1,-1,-1,-1,-1,-1,-1,-1,-1,-1,-1,-1,-1,-1,-1,-1,-1,-1,-1,-1,-1,-1,-1,-1,-1,-1],"split_conditions":[4.530509E-2,2.3881107E1,-5.0451303E0,4.2860486E2,5.2053127E0,8.756641E0,1.0719176E1,-6.19592E0,5.8522243E0,6.287234E2,6.7212777E0,1.4241447E1,2.037865E1,6.1748066E0,1.2869833E-1,8.2712456E1,1.729283E1,4.5267465E2,8.11928E1,2.4883884E1,4.853927E1,6.893456E0,7.193463E1,2.9299131E1,6.171972E0,1.7518858E1,6.512399E-2,-4.5924916E0,-5.2904803E-2,4.2661786E0,8.165274E0,-1.3690966E-1,6.615543E0,4.3478208E0,1.2438775E2,-2.159615E0,8.4899025E1,-1.4002402E-2,6.0090967E-2,-7.840594E-2,8.083558E0,3.4278828E1,-6.495097E-2,-1.0797769E0,3.609677E2,-8.9446335E0,-1.6731025E0,1.9281174E-1,9.209414E-3,4.7696706E-2,-4.7513764E-2,1.3320894E1,-3.0966494E-2,1.1458394E1,1.7252014E0,-1.3911995E-2,5.582899E0,4.207524E0,5.5252604E0,1.5453819E1,2.0192644E1,4.0797453E-2,4.662362E-3,2.1765348E-2,-5.395929E-2,-3.0039191E-2,5.165566E-2,-6.0477532E-2,8.669141E-3,-7.069509E-2,1.613969E-3,-2.4115134E-2,5.0771844E-2,-4.2548668E-2,3.2782856E-2,-4.133429E-2,3.127912E-2,-4.8365053E-3,-3.1243036E-2,1.1274994E-2,-4.67169E-2,-5.303074E-2,3.1354927E-2,-6.197427E-2,1.3737849E-2,8.680597E-2,1.738417E-2,5.6365263E-2,8.530849E-3,-4.5284946E-2,2.4240796E-2,4.5183845E-2,-4.4832908E-2,6.839133E-2,-3.21894E-3,-2.538148E-2,6.706231E-2,-6.2626466E-2,8.227828E-3,3.0345973E-4,2.6881818E-2,-6.022315E-2,2.7005339E-2],"split_indices":[31,3,6,27,20,17,16,6,25,28,23,2,15,25,30,13,3,27,1,5,3,20,13,5,19,2,31,6,0,25,17,2,7,23,1,8,1,0,0,0,17,13,0,10,27,10,2,30,0,0,0,17,0,7,10,0,21,24,25,15,16,0,0,0,0,0,0,0,0,0,0,0,0,0,0,0,0,0,0,0,0,0,0,0,0,0,0,0,0,0,0,0,0,0,0,0,0,0,0,0,0,0,0],"split_type":[0,0,0,0,0,0,0,0,0,0,0,0,0,0,0,0,0,0,0,0,0,0,0,0,0,0,0,0,0,0,0,0,0,0,0,0,0,0,0,0,0,0,0,0,0,0,0,0,0,0,0,0,0,0,0,0,0,0,0,0,0,0,0,0,0,0,0,0,0,0,0,0,0,0,0,0,0,0,0,0,0,0,0,0,0,0,0,0,0,0,0,0,0,0,0,0,0,0,0,0,0,0,0],"sum_hessian":[5.0974347E2,3.8349673E2,1.26246735E2,9.101192E1,2.9248483E2,7.75109E1,4.873583E1,7.7410286E1,1.3601626E1,5.2393963E1,2.4009087E2,2.3798887E1,5.3712013E1,1.4914944E1,3.3820885E1,6.1776268E1,1.5634022E1,1.006215E1,3.5394757E0,9.097255E0,4.3296707E1,2.1652E2,2.3570858E1,2.0820494E1,2.9783943E0,2.8928785E1,2.478323E1,1.3712543E1,1.2024009E0,1.4439811E1,1.9381075E1,5.5587944E1,6.188322E0,5.3174424E0,1.031658E1,7.3029823E0,2.759168E0,1.9836792E0,1.5557964E0,4.09465E0,5.0026045E0,4.1370052E1,1.9266573E0,1.4236981E2,7.415019E1,1.9160835E1,4.4100213E0,1.9061762E1,1.7587322E0,1.0331192E0,1.945275E0,2.6964659E1,1.9641268E0,1.0897843E1,1.38853855E1,1.9819697E0,1.1730573E1,6.0732207E0,8.36659E0,2.0188706E0,1.7362204E1,3.8827705E1,1.6760239E1,2.7779737E0,3.4103484E0,1.2224643E0,4.0949783E0,7.05927E0,3.2573097E0,6.301827E0,1.0011555E0,1.7211367E0,1.0380311E0,1.7043077E0,3.2982972E0,2.4449725E0,3.892508E1,9.819043E1,4.4179386E1,1.4041447E1,6.010875E1,1.2033993E0,1.7957438E1,3.1504045E0,1.259617E0,1.70421E1,2.0196614E0,2.1447104E1,5.5175543E0,7.358521E0,3.5393224E0,1.1198924E1,2.6864614E0,8.988641E0,2.7419324E0,2.461557E0,3.6116638E0,4.6116834E0,3.7549067E0,1.0001632E0,1.0187075E0,1.6342506E1,1.0196985E0],"tree_param":{"num_deleted":"0","num_feature":"33","num_nodes":"103","size_leaf_vector":"1"}},{"base_weights":[7.862816E-3,-3.5077244E-1,2.0929384E-1,2.0137319E-1,-5.1762927E-1,2.9372486E-1,-7.290796E-1,5.592747E-1,-4.8949155E-1,9.748823E-2,-6.507263E-1,2.095695E-1,9.4860184E-1,4.054047E-2,-8.5222995E-1,-9.6079093E-1,7.666308E-1,3.9364225E-1,-1.2381449E0,6.6708547E-1,-5.6190056E-1,-8.24383E-1,-1.9801371E-1,2.8482854E-1,-3.7460813E-1,1.0567446E0,-5.4430198E-2,-1.0155774E0,2.10971E-1,-9.332841E-3,-6.2425952E-2,9.6324307E-1,-2.0418425E-1,-5.775406E-1,1.0228974E0,-1.3644993E-2,-7.442296E-2,2.8076547E-4,1.1764268E0,-1.0849744E0,3.685666E-1,-9.5831794E-1,-1.3560995E-3,1.3289693E-1,-1.0753443E0,4.3690377E-1,4.9622193E-2,-6.349621E-1,4.4470933E-1,1.1401303E0,-3.012362E-2,-6.114482E-1,-1.37031E0,4.240545E-2,-2.3075832E-2,5.8784276E-2,-2.525923E-2,4.2071816E-2,-4.3456662E-2,2.6672626E-2,-5.9911378E-2,-7.271403E-3,7.1823016E-2,3.030209E-2,-6.2628336E-2,7.8994446E-2,-3.065817E-2,2.765288E-2,-6.947576E-2,-5.23878E-2,5.2188333E-2,-5.561129E-2,-2.0441614E-2,2.8805628E-2,-3.303446E-2,5.87462E-2,-1.2229445E-2,-6.9914006E-2,3.4108802E-3,9.981825E-3,3.461576E-2,7.799454E-2,-1.3951105E-3,3.3925068E-2,-3.939717E-2,-2.6084939E-2,5.9515554E-2,7.702684E-2,3.390377E-2,-5.7534885E-2,-1.6304961E-3,-7.5520806E-2,-6.8576424E-3],"categories":[],"categories_nodes":[],"categories_segments":[],"categories_sizes":[],"default_left":[0,0,0,0,0,0,0,0,0,0,0,0,0,0,0,0,0,0,0,0,0,0,0,0,0,0,0,0,0,0,0,0,0,0,0,0,0,0,0,0,0,0,0,0,0,0,0,0,0,0,0,0,0,0,0,0,0,0,0,0,0,0,0,0,0,0,0,0,0,0,0,0,0,0,0,0,0,0,0,0,0,0,0,0,0,0,0,0,0,0,0,0,0],"id":3,"left_children":[1,3,5,7,9,11,13,15,17,19,21,23,25,-1,27,29,31,33,35,37,39,41,43,45,47,49,-1,51,53,-1,-1,55,57,59,61,-1,-1,63,65,67,69,71,73,75,77,79,81,83,85,87,-1,89,91,-1,-1,-1,-1,-1,-1,-1,-1,-1,-1,-1,-1,-1,-1,-1,-1,-1,-1,-1,-1,-1,-1,-1,-1,-1,-1,-1,-1,-1,-1,-1,-1,-1,-1,-1,-1,-1,-1,-1,-1],"loss_changes":[3.6878494E1,1.7020245E1,2.6111343E1,1.0987639E1,1.1630199E1,1.6367697E1,5.8623857E0,9.880394E0,1.0616438E1,1.0140724E1,8.978279E0,1.1873997E1,8.629091E0,0E0,4.684206E0,6.4145684E-1,5.1754303E0,5.349893E0,1.6553926E0,4.893056E0,6.5293264E0,9.22797E0,9.884214E0,8.479746E0,6.8904195E0,5.2170143E0,0E0,2.3851376E0,2.2148416E0,0E0,0E0,7.4151535E0,4.359332E0,3.1913373E0,2.666584E0,0E0,0E0,6.2535315E0,6.866434E0,4.916565E0,6.1414113E0,5.634865E0,5.2235303E0,1.0221142E1,3.529727E0,8.601534E0,1.1102798E1,5.340988E0,6.427405E0,4.78722E0,0E0,3.8065128E0,1.7222214E0,0E0,0E0,0E0,0E0,0E0,0E0,0E0,0E0,0E0,0E0,0E0,0E0,0E0,0E0,0E0,0E0,0E0,0E0,0E0,0E0,0E0,0E0,0E0,0E0,0E0,0E0,0E0,0E0,0E0,0E0,0E0,0E0,0E0,0E0,0E0,0E0,0E0,0E0,0E0,0E0],"parents":[2147483647,0,0,1,1,2,2,3,3,4,4,5,5,6,6,7,7,8,8,9,9,10,10,11,11,12,12,14,14,15,15,16,16,17,17,18,18,19,19,20,20,21,21,22,22,23,23,24,24,25,25,27,27,28,28,31,31,32,32,33,33,34,34,37,37,38,38,39,39,40,40,41,41,42,42,43,43,44,44,45,45,46,46,47,47,48,48,49,49,51,51,52,52],"right_children":[2,4,6,8,10,12,14,16,18,20,22,24,26,-1,28,30,32,34,36,38,40,42,44,46,48,50,-1,52,54,-1,-1,56,58,60,62,-1,-1,64,66,68,70,72,74,76,78,80,82,84,86,88,-1,90,92,-1,-1,-1,-1,-1,-1,-1,-1,-1,-1,-1,-1,-1,-1,-1,-1,-1,-1,-1,-1,-1,-1,-1,-1,-1,-1,-1,-1,-1,-1,-1,-1,-1,-1,-1,-1,-1,-1,-1,-1],"split_conditions":[2.4666773E-2,2.587212E1,-1.4368492E0,-1.3690966E-1,4.3757024E0,7.831146E-2,8.329565E0,8.465253E0,2.540225E0,5.353824E0,5.079397E0,2.5609827E1,3.564517E0,4.054047E-2,1.16684885E1,3.5827384E0,7.422998E1,6.9164764E2,5.2053127E0,4.8020425E0,3.847994E1,2.9190693E1,1.9837933E-2,-6.818489E0,7.020872E0,4.732079E0,-5.4430198E-2,5.70022E0,4.2258215E0,-9.332841E-3,-6.2425952E-2,1.1798959E1,5.07854E-2,4.5703457E1,-1.3241147E1,-1.3644993E-2,-7.442296E-2,-3.818224E0,1.20835416E-1,-2.0983622E1,-6.002487E0,2.0520532E-1,-8.0044496E-1,8.217399E0,4.3001285E0,4.5694203E0,8.050766E0,3.5272176E0,2.1375385E1,1.2201951E1,-3.012362E-2,5.2587733E0,8.2712456E1,4.240545E-2,-2.3075832E-2,5.8784276E-2,-2.525923E-2,4.2071816E-2,-4.3456662E-2,2.6672626E-2,-5.9911378E-2,-7.271403E-3,7.1823016E-2,3.030209E-2,-6.2628336E-2,7.8994446E-2,-3.065817E-2,2.765288E-2,-6.947576E-2,-5.23878E-2,5.2188333E-2,-5.561129E-2,-2.0441614E-2,2.8805628E-2,-3.303446E-2,5.87462E-2,-1.2229445E-2,-6.9914006E-2,3.4108802E-3,9.981825E-3,3.461576E-2,7.799454E-2,-1.3951105E-3,3.3925068E-2,-3.939717E-2,-2.6084939E-2,5.9515554E-2,7.702684E-2,3.390377E-2,-5.7534885E-2,-1.6304961E-3,-7.5520806E-2,-6.8576424E-3],"split_indices":[31,3,6,2,22,31,7,16,11,20,25,15,8,0,9,25,13,28,20,20,3,5,31,6,22,11,0,22,25,0,0,17,29,13,4,0,0,4,29,2,4,30,12,7,11,25,16,25,5,16,0,21,13,0,0,0,0,0,0,0,0,0,0,0,0,0,0,0,0,0,0,0,0,0,0,0,0,0,0,0,0,0,0,0,0,0,0,0,0,0,0,0,0],"split_type":[0,0,0,0,0,0,0,0,0,0,0,0,0,0,0,0,0,0,0,0,0,0,0,0,0,0,0,0,0,0,0,0,0,0,0,0,0,0,0,0,0,0,0,0,0,0,0,0,0,0,0,0,0,0,0,0,0,0,0,0,0,0,0,0,0,0,0,0,0,0,0,0,0,0,0,0,0,0,0,0,0,0,0,0,0,0,0,0,0,0,0,0,0],"sum_hessian":[5.0848154E2,1.8261163E2,3.258699E2,4.233015E1,1.4028148E2,2.996001E2,2.6269814E1,2.8010054E1,1.4320097E1,2.5001736E1,1.1527975E2,2.6665363E2,3.2946476E1,1.5318208E0,2.4737993E1,2.926107E0,2.5083946E1,6.7875276E0,7.53257E0,1.3407938E1,1.1593799E1,8.272584E1,3.255391E1,2.3667538E2,2.9978233E1,3.1742725E1,1.2037481E0,2.14823E1,3.2556925E0,1.2396225E0,1.6864846E0,2.086592E1,4.2180266E0,2.7010114E0,4.086516E0,1.9815769E0,5.550993E0,6.2397346E0,7.1682034E0,7.3153367E0,4.2784615E0,7.100628E1,1.171956E1,2.425424E1,8.299667E0,1.4321841E2,9.345696E1,2.291998E1,7.058255E0,3.0521677E1,1.2210491E0,1.1315174E1,1.0167127E1,1.5376849E0,1.7180076E0,1.840287E1,2.4630487E0,1.5364971E0,2.6815293E0,1.0185006E0,1.6825109E0,1.2378662E0,2.84865E0,4.5540743E0,1.6856602E0,5.945069E0,1.2231343E0,1.0189072E0,6.2964296E0,1.2030764E0,3.0753853E0,5.466953E1,1.6336746E1,6.3149276E0,5.4046316E0,5.8880715E0,1.8366169E1,6.298316E0,2.0013514E0,7.517002E1,6.80484E1,3.6294587E0,8.982751E1,2.0326762E0,2.0887302E1,3.2047424E0,3.853513E0,1.510121E1,1.5420467E1,5.346447E0,5.968727E0,8.927935E0,1.2391913E0],"tree_param":{"num_deleted":"0","num_feature":"33","num_nodes":"93","size_leaf_vector":"1"}},{"base_weights":[-7.661924E-3,-3.7644245E-2,1.0959667E0,6.7259514E-1,-7.774436E-2,-1.5376481E-2,1.3640014E0,1.0732216E0,-5.568654E-1,2.5288023E-2,-3.541525E-1,7.3971204E-2,1.1758512E-2,1.3278708E0,-7.008901E-1,3.410566E-2,-9.41733E-1,1.698421E-1,-2.3300958E-1,-2.4208125E-1,-8.566772E-1,5.092943E-1,7.81242E-2,-5.2963924E-2,2.2203093E-3,2.0348579E-3,-1.1512674E0,-7.14609E-1,2.4730213E-1,-3.62913E-1,3.2301864E-1,-6.341182E-1,3.6122215E-3,-9.832889E-1,3.575131E-2,-2.185346E-2,6.371429E-2,-7.294606E-2,-6.7587914E-3,-4.455432E-2,2.867939E-2,3.124032E-2,5.9506968E-3,1.6617723E-2,-2.3425711E-2,-2.1118127E-2,4.2955574E-2,8.97771E-3,-4.046927E-2,-3.872462E-2,7.681945E-3,-5.4424804E-2,-2.6660468E-3],"categories":[],"categories_nodes":[],"categories_segments":[],"categories_sizes":[],"default_left":[0,0,0,0,0,0,0,0,0,0,0,0,0,0,0,0,0,0,0,0,0,0,0,0,0,0,0,0,0,0,0,0,0,0,0,0,0,0,0,0,0,0,0,0,0,0,0,0,0,0,0,0,0],"id":4,"left_children":[1,3,5,7,9,-1,11,13,15,17,19,-1,-1,21,23,-1,25,27,29,31,33,35,-1,-1,-1,-1,37,39,41,43,45,47,49,51,-1,-1,-1,-1,-1,-1,-1,-1,-1,-1,-1,-1,-1,-1,-1,-1,-1,-1,-1],"loss_changes":[1.678354E1,1.4109119E1,5.466158E0,1.3640761E1,1.3339288E1,0E0,1.1436977E0,1.0108101E1,4.0596676E0,1.2805767E1,6.9544744E0,0E0,0E0,2.68219E0,9.0293443E-1,0E0,1.2589235E0,1.52352295E1,9.009304E0,1.0151816E1,5.2391796E0,4.551599E0,0E0,0E0,0E0,0E0,1.3305264E0,4.593437E0,9.74925E0,7.5172234E0,9.890585E0,5.9355145E0,7.7968016E0,2.0471249E0,0E0,0E0,0E0,0E0,0E0,0E0,0E0,0E0,0E0,0E0,0E0,0E0,0E0,0E0,0E0,0E0,0E0,0E0,0E0],"parents":[2147483647,0,0,1,1,2,2,3,3,4,4,6,6,7,7,8,8,9,9,10,10,13,13,14,14,16,16,17,17,18,18,19,19,20,20,21,21,26,26,27,27,28,28,29,29,30,30,31,31,32,32,33,33],"right_children":[2,4,6,8,10,-1,12,14,16,18,20,-1,-1,22,24,-1,26,28,30,32,34,36,-1,-1,-1,-1,38,40,42,44,46,48,50,52,-1,-1,-1,-1,-1,-1,-1,-1,-1,-1,-1,-1,-1,-1,-1,-1,-1,-1,-1],"split_conditions":[1.5912866E2,6.18095E0,4.485788E2,8.021505E0,-4.8192425E0,-1.5376481E-2,1.4412092E-1,4.8315698E2,6.934474E0,4.1251047E2,1.0090767E1,7.3971204E-2,1.1758512E-2,9.739829E-2,5.7856636E0,3.410566E-2,3.068439E2,5.447856E2,-2.0900009E0,1.688726E1,1.778055E1,-5.0701814E0,7.81242E-2,-5.2963924E-2,2.2203093E-3,2.0348579E-3,8.514314E0,6.856365E0,4.7354097E0,2.3046813E0,5.755243E0,8.604878E0,1.958721E1,2.3626323E-1,3.575131E-2,-2.185346E-2,6.371429E-2,-7.294606E-2,-6.7587914E-3,-4.455432E-2,2.867939E-2,3.124032E-2,5.9506968E-3,1.6617723E-2,-2.3425711E-2,-2.1118127E-2,4.2955574E-2,8.97771E-3,-4.046927E-2,-3.872462E-2,7.681945E-3,-5.4424804E-2,-2.6660468E-3],"split_indices":[1,18,28,9,6,0,30,27,17,27,18,0,0,30,18,0,27,28,8,15,20,8,0,0,0,0,17,22,22,9,21,16,14,30,0,0,0,0,0,0,0,0,0,0,0,0,0,0,0,0,0,0,0],"split_type":[0,0,0,0,0,0,0,0,0,0,0,0,0,0,0,0,0,0,0,0,0,0,0,0,0,0,0,0,0,0,0,0,0,0,0,0,0,0,0,0,0,0,0,0,0,0,0,0,0,0,0,0,0],"sum_hessian":[5.0497202E2,4.925566E2,1.2415414E1,2.5480576E1,4.6707605E2,1.9672184E0,1.0448195E1,1.9314062E1,6.166513E0,3.4090912E2,1.2616691E2,9.197204E0,1.2509922E0,1.7109726E1,2.204337E0,1.2784743E0,4.8880386E0,2.188013E2,1.22107834E2,1.0437197E2,2.1794933E1,4.517774E0,1.2591951E1,1.2040596E0,1.0002773E0,1.0009102E0,3.8871284E0,1.6957085E1,2.0184421E2,9.926429E1,2.284355E1,3.960151E1,6.477046E1,2.0516562E1,1.2783726E0,2.2111022E0,2.3066719E0,2.649187E0,1.2379414E0,1.5185065E1,1.7720199E0,5.0213703E1,1.5163051E2,1.2805688E1,8.64586E1,9.645138E0,1.3198412E1,7.0141387E0,3.258737E1,9.796924E0,5.4973537E1,1.8278275E1,2.2382858E0],"tree_param":{"num_deleted":"0","num_feature":"33","num_nodes":"53","size_leaf_vector":"1"}},{"base_weights":[9.91732E-3,-2.9627723E-1,1.8985958E-1,1.3523816E-1,-4.7832122E-1,3.7745106E-1,-1.9474065E-1,-6.9856757E-1,2.7632487E-1,-6.7225546E-1,-3.192427E-2,4.8204756E-1,-3.901697E-1,4.3866485E-1,-4.0217814E-1,2.0719482E-2,-1.0066617E0,4.923142E-1,-5.634041E-1,-3.9204802E-2,-7.912092E-1,-3.769072E-1,4.3984342E-1,2.8230295E-1,8.371946E-1,3.3650446E-1,-7.1909595E-1,6.7561287E-1,-7.2193587E-1,-2.0207457E-1,-8.671051E-1,-7.369938E-2,4.1805767E-3,6.2382296E-2,9.63842E-1,2.6744577E-1,-1.1306611E0,3.9123154E-1,-6.0811937E-2,7.235115E-1,-8.4243506E-1,-6.8502253E-1,9.845926E-1,-4.38182E-1,7.692233E-1,-6.2202746E-1,3.59167E-1,9.3795395E-1,-4.7435656E-1,1.0585105E0,-2.9742593E-1,-8.769702E-1,1.8340541E-2,1.0767466E0,-6.8814605E-2,2.1665243E-2,-6.8108656E-2,-6.1637264E-1,2.0932627E-1,-9.786346E-1,2.2281718E-2,-4.070272E-2,2.7639976E-2,6.0935166E-2,-1.8456001E-3,4.4025496E-2,-3.6313683E-2,-6.706989E-2,-7.2704083E-3,4.0224083E-2,-5.0570756E-2,5.1754713E-2,2.2178998E-3,2.92817E-2,-4.4271823E-2,-6.593349E-2,-9.165882E-3,-8.149229E-3,7.130613E-2,-6.4264454E-2,2.5549129E-2,-1.5120341E-2,5.388343E-2,3.7091642E-3,-6.756446E-2,3.8833123E-2,8.906144E-3,6.464922E-2,1.8401483E-2,2.1976857E-2,-4.702689E-2,1.06490925E-2,6.6689044E-2,-5.56789E-2,4.3986645E-2,4.026577E-3,-5.734381E-2,1.50283845E-2,7.4434765E-2,-5.1876277E-2,2.3417382E-2,-5.9803065E-2,-7.704007E-3,2.937437E-2,-3.4255955E-2,-2.4348568E-2,-6.698093E-2],"categories":[],"categories_nodes":[],"categories_segments":[],"categories_sizes":[],"default_left":[0,0,0,0,0,0,0,0,0,0,0,0,0,0,0,0,0,0,0,0,0,0,0,0,0,0,0,0,0,0,0,0,0,0,0,0,0,0,0,0,0,0,0,0,0,0,0,0,0,0,0,0,0,0,0,0,0,0,0,0,0,0,0,0,0,0,0,0,0,0,0,0,0,0,0,0,0,0,0,0,0,0,0,0,0,0,0,0,0,0,0,0,0,0,0,0,0,0,0,0,0,0,0,0,0,0,0],"id":5,"left_children":[1,3,5,7,9,11,13,15,17,19,21,23,25,27,29,-1,31,33,35,37,39,41,43,45,47,49,51,53,55,57,59,-1,-1,61,63,65,67,69,-1,71,73,75,77,79,81,83,85,87,89,91,93,95,-1,97,99,-1,-1,101,103,105,-1,-1,-1,-1,-1,-1,-1,-1,-1,-1,-1,-1,-1,-1,-1,-1,-1,-1,-1,-1,-1,-1,-1,-1,-1,-1,-1,-1,-1,-1,-1,-1,-1,-1,-1,-1,-1,-1,-1,-1,-1,-1,-1,-1,-1,-1,-1],"loss_changes":[2.7546211E1,1.4602808E1,2.2790276E1,6.7443514E0,1.1265728E1,1.7207846E1,1.3826369E1,3.2779016E0,9.046215E0,6.8097534E0,6.7633123E0,1.30295105E1,6.4501157E0,7.667353E0,7.1539373E0,0E0,3.601038E0,7.8440094E0,5.1840167E0,8.289096E0,6.5392E0,1.0722954E1,5.4223747E0,8.647884E0,9.273575E0,4.330909E0,3.4415894E0,6.7026396E0,4.2216816E0,9.738446E0,3.8621578E0,0E0,0E0,9.675436E0,4.7701054E0,3.6923523E0,1.1226721E0,7.797719E0,0E0,5.969368E-1,5.0863037E0,6.155382E0,2.680122E0,5.025899E0,4.6724486E0,5.106512E0,8.352646E0,1.2145519E1,2.7269704E0,7.2177744E-1,6.218426E0,4.274762E0,0E0,4.1840324E0,5.019634E0,0E0,0E0,7.4115562E0,1.0223434E1,3.2311287E0,0E0,0E0,0E0,0E0,0E0,0E0,0E0,0E0,0E0,0E0,0E0,0E0,0E0,0E0,0E0,0E0,0E0,0E0,0E0,0E0,0E0,0E0,0E0,0E0,0E0,0E0,0E0,0E0,0E0,0E0,0E0,0E0,0E0,0E0,0E0,0E0,0E0,0E0,0E0,0E0,0E0,0E0,0E0,0E0,0E0,0E0,0E0],"parents":[2147483647,0,0,1,1,2,2,3,3,4,4,5,5,6,6,7,7,8,8,9,9,10,10,11,11,12,12,13,13,14,14,16,16,17,17,18,18,19,19,20,20,21,21,22,22,23,23,24,24,25,25,26,26,27,27,28,28,29,29,30,30,33,33,34,34,35,35,36,36,37,37,39,39,40,40,41,41,42,42,43,43,44,44,45,45,46,46,47,47,48,48,49,49,50,50,51,51,53,53,54,54,57,57,58,58,59,59],"right_children":[2,4,6,8,10,12,14,16,18,20,22,24,26,28,30,-1,32,34,36,38,40,42,44,46,48,50,52,54,56,58,60,-1,-1,62,64,66,68,70,-1,72,74,76,78,80,82,84,86,88,90,92,94,96,-1,98,100,-1,-1,102,104,106,-1,-1,-1,-1,-1,-1,-1,-1,-1,-1,-1,-1,-1,-1,-1,-1,-1,-1,-1,-1,-1,-1,-1,-1,-1,-1,-1,-1,-1,-1,-1,-1,-1,-1,-1,-1,-1,-1,-1,-1,-1,-1,-1,-1,-1,-1,-1],"split_conditions":[2.4666773E-2,5.626856E0,-5.0451303E0,2.129553E-2,6.1441827E0,2.5609827E1,8.281506E0,4.3251414E0,1.0324706E-1,2.3881107E1,7.047267E0,4.629921E-2,-1.6749514E1,6.341118E0,-1.4368492E0,2.0719482E-2,2.9299131E1,1.5353423E-1,-2.0543255E1,2.5796137E0,-6.778013E0,6.227718E0,6.710826E0,2.8574323E2,1.4241447E1,5.964718E0,-6.396041E0,1.070285E1,2.7335201E1,5.0187654E0,9.417506E0,-7.369938E-2,4.1805767E-3,-1.64297E0,2.7083494E1,1.6399633E1,-4.05605E0,2.7290518E1,-6.0811937E-2,-9.926591E0,3.3260323E1,2.2554274E1,1.7732417E-2,2.475324E1,-1.2358127E1,2.7064804E2,3.608039E2,1.6974217E-1,5.657362E-2,4.985362E0,7.422533E-2,6.976856E1,1.8340541E-2,1.3828736E-2,2.03223E1,2.1665243E-2,-6.8108656E-2,-9.4488883E-1,1.0368322E1,5.6083817E0,2.2281718E-2,-4.070272E-2,2.7639976E-2,6.0935166E-2,-1.8456001E-3,4.4025496E-2,-3.6313683E-2,-6.706989E-2,-7.2704083E-3,4.0224083E-2,-5.0570756E-2,5.1754713E-2,2.2178998E-3,2.92817E-2,-4.4271823E-2,-6.593349E-2,-9.165882E-3,-8.149229E-3,7.130613E-2,-6.4264454E-2,2.5549129E-2,-1.5120341E-2,5.388343E-2,3.7091642E-3,-6.756446E-2,3.8833123E-2,8.906144E-3,6.464922E-2,1.8401483E-2,2.1976857E-2,-4.702689E-2,1.06490925E-2,6.6689044E-2,-5.56789E-2,4.3986645E-2,4.026577E-3,-5.734381E-2,1.50283845E-2,7.4434765E-2,-5.1876277E-2,2.3417382E-2,-5.9803065E-2,-7.704007E-3,2.937437E-2,-3.4255955E-2,-2.4348568E-2,-6.698093E-2],"split_indices":[31,20,6,29,22,15,17,22,29,3,21,31,2,22,6,0,5,30,2,2,12,25,22,26,2,23,6,16,5,23,24,0,0,12,14,15,4,5,0,6,13,14,31,5,6,26,26,30,31,21,31,13,0,32,14,0,0,4,18,22,0,0,0,0,0,0,0,0,0,0,0,0,0,0,0,0,0,0,0,0,0,0,0,0,0,0,0,0,0,0,0,0,0,0,0,0,0,0,0,0,0,0,0,0,0,0,0],"split_type":[0,0,0,0,0,0,0,0,0,0,0,0,0,0,0,0,0,0,0,0,0,0,0,0,0,0,0,0,0,0,0,0,0,0,0,0,0,0,0,0,0,0,0,0,0,0,0,0,0,0,0,0,0,0,0,0,0,0,0,0,0,0,0,0,0,0,0,0,0,0,0,0,0,0,0,0,0,0,0,0,0,0,0,0,0,0,0,0,0,0,0,0,0,0,0,0,0,0,0,0,0,0,0,0,0,0,0],"sum_hessian":[4.9793448E2,1.8406982E2,3.1386465E2,5.469008E1,1.2937975E2,2.1097748E2,1.0288717E2,7.3429255E0,4.7347153E1,8.984236E1,3.9537384E1,1.8600443E2,2.4973053E1,2.5107454E1,7.777972E1,1.5171982E0,5.8257275E0,3.7989483E1,9.357671E0,1.4421784E1,7.542058E1,2.2953543E1,1.6583841E1,1.20197105E2,6.580731E1,7.7744517E0,1.71986E1,2.1197628E1,3.9098268E0,5.5379242E1,2.240047E1,3.8314865E0,1.994241E0,2.0463486E1,1.7525997E1,4.01115E0,5.3465214E0,1.1048872E1,3.3729131E0,2.0378704E0,7.3382706E1,1.9122803E1,3.8307395E0,4.433955E0,1.2149885E1,8.860298E0,1.1133681E2,6.137691E1,4.430402E0,3.3216019E0,4.45285E0,1.5183553E1,2.0150485E0,1.34848995E1,7.712729E0,1.5094303E0,2.4003963E0,2.7344223E1,2.803502E1,2.0880947E1,1.519522E0,7.105375E0,1.335811E1,1.3795039E1,3.7309577E0,2.5511632E0,1.4599867E0,4.106667E0,1.239854E0,8.863846E0,2.1850262E0,1.037699E0,1.0001715E0,1.776206E0,7.160651E1,7.7306757E0,1.1392127E1,1.2396466E0,2.5910928E0,2.1558146E0,2.2781405E0,2.7198615E0,9.430024E0,4.9924183E0,3.86788E0,3.268165E1,7.865516E1,3.703655E1,2.4340363E1,1.5158702E0,2.9145315E0,1.2514205E0,2.0701814E0,2.661548E0,1.791302E0,3.4931397E0,1.16904125E1,5.2751937E0,8.209705E0,2.4189444E0,5.2937846E0,1.1427521E1,1.5916702E1,1.9945484E1,8.089538E0,9.834832E0,1.1046116E1],"tree_param":{"num_deleted":"0","num_feature":"33","num_nodes":"107","size_leaf_vector":"1"}},{"base_weights":[3.458401E-2,-4.4241026E-2,8.712969E-1,3.0088535E-1,-1.6739574E-1,1.1578149E-1,1.1192535E0,-2.6549077E-2,5.9699E-1,-8.004343E-2,-6.88226E-1,-5.187224E-1,1.1258776E0,1.2369821E0,-3.391305E-1,4.178279E-1,-4.8551533E-1,7.502473E-1,-3.056964E-1,-3.7692118E-1,1.1506071E-1,-9.472397E-1,-2.114741E-1,3.3366892E-2,-1.0423634E0,1.0397091E-2,6.946959E-2,1.3630635E0,6.031165E-1,-4.9068578E-2,2.6549015E-2,-7.149409E-1,7.50843E-1,-1.2866874E-1,-9.852478E-1,9.284794E-1,4.045957E-2,-6.3838765E-2,4.5506716E-1,-5.1088035E-1,2.0673941E-1,1.9251494E-1,-5.4123497E-1,-1.5307364E0,-5.6928444E-1,1.7779495E-1,-1.1334369E0,-7.225594E-2,2.238554E-2,9.099462E-3,1.4192485E0,9.8129946E-1,-3.0840054E-2,3.0476073E-2,-5.459268E-2,4.4746023E-2,-5.319352E-2,2.7180111E-2,-2.904031E-2,1.26621295E-2,-6.115495E-2,-4.5320793E-4,5.4989077E-2,3.3452377E-2,-1.995343E-2,6.251865E-2,-3.5089247E-2,-4.1834157E-2,-1.647516E-2,4.769156E-2,-2.5037682E-2,1.4894621E-2,-2.0873172E-2,-2.7033542E-3,-4.657166E-2,-8.348855E-2,-1.009724E-2,-5.533241E-2,1.1855924E-2,4.1427366E-2,-2.0322897E-2,-1.2546599E-2,-6.942633E-2,3.1205235E-2,7.375211E-2,6.936404E-2,2.4240315E-3],"categories":[],"categories_nodes":[],"categories_segments":[],"categories_sizes":[],"default_left":[0,0,0,0,0,0,0,0,0,0,0,0,0,0,0,0,0,0,0,0,0,0,0,0,0,0,0,0,0,0,0,0,0,0,0,0,0,0,0,0,0,0,0,0,0,0,0,0,0,0,0,0,0,0,0,0,0,0,0,0,0,0,0,0,0,0,0,0,0,0,0,0,0,0,0,0,0,0,0,0,0,0,0,0,0,0,0],"id":6,"left_children":[1,3,5,7,9,11,13,15,17,19,21,23,25,27,29,31,33,35,37,39,41,43,45,-1,47,-1,-1,49,51,-1,-1,53,55,57,59,61,63,-1,65,67,69,71,73,75,77,79,81,-1,-1,-1,83,85,-1,-1,-1,-1,-1,-1,-1,-1,-1,-1,-1,-1,-1,-1,-1,-1,-1,-1,-1,-1,-1,-1,-1,-1,-1,-1,-1,-1,-1,-1,-1,-1,-1,-1,-1],"loss_changes":[3.2947826E1,1.9473194E1,7.9273987E0,1.1702421E1,1.5296495E1,8.110038E0,5.9593124E0,1.2072446E1,8.991856E0,1.6846346E1,5.768072E0,5.6000977E0,8.832507E-1,1.581131E0,2.306487E0,1.1893703E1,5.0610104E0,6.8489E0,7.89724E0,9.118725E0,9.041612E0,5.971943E0,6.770011E0,0E0,4.168921E0,0E0,0E0,1.353447E0,3.7344413E0,0E0,0E0,4.335738E0,7.162775E0,5.8241296E0,3.8355455E0,6.9904823E0,3.5744138E0,0E0,6.6648436E0,5.281782E0,1.2227989E1,1.028014E1,3.5275126E0,1.8070374E0,9.112917E0,5.5581684E0,9.052577E-1,0E0,0E0,0E0,1.0147858E-1,2.0396814E0,0E0,0E0,0E0,0E0,0E0,0E0,0E0,0E0,0E0,0E0,0E0,0E0,0E0,0E0,0E0,0E0,0E0,0E0,0E0,0E0,0E0,0E0,0E0,0E0,0E0,0E0,0E0,0E0,0E0,0E0,0E0,0E0,0E0,0E0,0E0],"parents":[2147483647,0,0,1,1,2,2,3,3,4,4,5,5,6,6,7,7,8,8,9,9,10,10,11,11,12,12,13,13,14,14,15,15,16,16,17,17,18,18,19,19,20,20,21,21,22,22,24,24,27,27,28,28,31,31,32,32,33,33,34,34,35,35,36,36,38,38,39,39,40,40,41,41,42,42,43,43,44,44,45,45,46,46,50,50,51,51],"right_children":[2,4,6,8,10,12,14,16,18,20,22,24,26,28,30,32,34,36,38,40,42,44,46,-1,48,-1,-1,50,52,-1,-1,54,56,58,60,62,64,-1,66,68,70,72,74,76,78,80,82,-1,-1,-1,84,86,-1,-1,-1,-1,-1,-1,-1,-1,-1,-1,-1,-1,-1,-1,-1,-1,-1,-1,-1,-1,-1,-1,-1,-1,-1,-1,-1,-1,-1,-1,-1,-1,-1,-1,-1],"split_conditions":[-1.2106391E2,5.583733E0,6.3175775E-2,-2.0839378E2,1.257557E1,2.6172084E-1,-1.3095084E0,1.1845873E1,5.319797E2,2.4666773E-2,-4.5496172E-1,2.248855E-2,5.3174862E1,-9.587116E-1,-1.411652E0,-5.7501793E0,6.1824062E1,1.38681345E1,-2.352899E0,5.6596103E0,-1.4368492E0,3.872019E2,-4.3871174E0,3.3366892E-2,8.300057E0,1.0397091E-2,6.946959E-2,-4.678651E0,2.3981956E1,-4.9068578E-2,2.6549015E-2,5.658053E0,3.4866247E0,1.10578384E2,9.349195E0,-1.3931899E1,1.8953578E0,-6.3838765E-2,-1.7416074E2,5.1326785E0,1.0764011E1,2.5230278E1,5.6083817E0,-9.1805863E-1,-1.0899887E1,1.498723E-1,6.0106344E0,-7.225594E-2,2.238554E-2,9.099462E-3,-3.9487206E1,9.725692E1,-3.0840054E-2,3.0476073E-2,-5.459268E-2,4.4746023E-2,-5.319352E-2,2.7180111E-2,-2.904031E-2,1.26621295E-2,-6.115495E-2,-4.5320793E-4,5.4989077E-2,3.3452377E-2,-1.995343E-2,6.251865E-2,-3.5089247E-2,-4.1834157E-2,-1.647516E-2,4.769156E-2,-2.5037682E-2,1.4894621E-2,-2.0873172E-2,-2.7033542E-3,-4.657166E-2,-8.348855E-2,-1.009724E-2,-5.533241E-2,1.1855924E-2,4.1427366E-2,-2.0322897E-2,-1.2546599E-2,-6.942633E-2,3.1205235E-2,7.375211E-2,6.936404E-2,2.4240315E-3],"split_indices":[0,20,31,0,17,30,6,7,26,31,12,32,13,10,12,10,13,7,10,25,6,27,6,0,22,0,0,11,15,0,0,7,12,1,16,6,11,0,0,9,7,15,22,12,2,30,22,0,0,0,2,1,0,0,0,0,0,0,0,0,0,0,0,0,0,0,0,0,0,0,0,0,0,0,0,0,0,0,0,0,0,0,0,0,0,0,0],"split_type":[0,0,0,0,0,0,0,0,0,0,0,0,0,0,0,0,0,0,0,0,0,0,0,0,0,0,0,0,0,0,0,0,0,0,0,0,0,0,0,0,0,0,0,0,0,0,0,0,0,0,0,0,0,0,0,0,0,0,0,0,0,0,0,0,0,0,0,0,0,0,0,0,0,0,0,0,0,0,0,0,0,0,0,0,0,0,0],"sum_hessian":[4.9797375E2,4.559653E2,4.200845E1,1.1953621E2,3.364291E2,1.0742712E1,3.1265738E1,5.719735E1,6.233886E1,2.890963E2,4.7332806E1,6.896841E0,3.8458707E0,2.9070799E1,2.1949387E0,2.9106092E1,2.8091257E1,5.3435497E1,8.90336E0,1.142767E2,1.748196E2,3.0030645E1,1.730216E1,2.0282912E0,4.8685503E0,1.2568436E0,2.5890272E0,2.328818E1,5.7826185E0,1.1892596E0,1.005679E0,6.3521247E0,2.2753967E1,1.7122196E1,1.0969061E1,4.2464336E1,1.0971162E1,3.6131117E0,5.2902484E0,9.304591E1,2.1230783E1,1.5699782E2,1.7821789E1,1.0606311E1,1.9424334E1,1.2733153E1,4.5690074E0,3.8563726E0,1.0121776E0,1.2500374E0,2.2038141E1,4.563503E0,1.2191157E0,1.2704947E0,5.08163E0,2.1549887E1,1.2040801E0,6.803685E0,1.031851E1,1.7567841E0,9.212277E0,6.706498E0,3.575784E1,4.299734E0,6.6714277E0,3.0871036E0,2.203145E0,3.1982922E1,6.1062992E1,1.0157052E1,1.1073732E1,1.3430708E2,2.2690735E1,8.432393E0,9.389397E0,9.369366E0,1.2369457E0,1.1433231E1,7.991103E0,5.825957E0,6.9071965E0,1.4693532E0,3.0996542E0,2.2439816E0,1.979416E1,2.8401995E0,1.7233036E0],"tree_param":{"num_deleted":"0","num_feature":"33","num_nodes":"87","size_leaf_vector":"1"}},{"base_weights":[2.1167217E-2,-5.4167453E-2,8.482532E-1,-3.834708E-1,3.6140542E-2,9.619904E-1,-5.953564E-2,1.7413348E-1,-4.999386E-1,9.023756E-2,-7.4823916E-1,1.4685429E0,6.377006E-1,3.746858E-1,-5.5802662E-2,6.539495E-2,-5.6275094E-1,1.792192E-1,-3.4420666E-1,-2.315031E-2,-1.0648328E0,7.83946E-2,1.0408819E-2,9.168018E-1,-6.305501E-2,-4.9603063E-1,6.9162667E-1,-8.4209657E-1,-4.0727116E-2,7.986313E-1,1.1022197E-1,-7.4245876E-1,5.3468462E-2,-6.620055E-1,7.1531683E-1,5.7693827E-3,-1.235932E0,-7.854102E-2,1.0713972E0,-6.056084E-1,8.569971E-1,2.5323823E-2,-4.421843E-2,5.6771338E-2,-3.9060363E-3,-1.0154852E-2,-4.953153E-2,1.8528419E-2,-4.140649E-2,-3.703085E-2,4.5506112E-2,7.49798E-3,-3.369429E-2,2.2526832E-2,-5.3590298E-2,-4.0214922E-2,2.3701012E-2,2.673143E-2,-5.5654287E-2,6.1852843E-2,-1.8736763E-3,-3.184845E-2,-7.371852E-2,-3.7254427E-2,3.0339068E-2,-2.8737136E-3,5.934766E-2,-5.5897832E-2,3.5196047E-2,5.4537673E-2,1.1910503E-2],"categories":[],"categories_nodes":[],"categories_segments":[],"categories_sizes":[],"default_left":[0,0,0,0,0,0,0,0,0,0,0,0,0,0,0,0,0,0,0,0,0,0,0,0,0,0,0,0,0,0,0,0,0,0,0,0,0,0,0,0,0,0,0,0,0,0,0,0,0,0,0,0,0,0,0,0,0,0,0,0,0,0,0,0,0,0,0,0,0,0,0],"id":7,"left_children":[1,3,5,7,9,11,-1,13,15,17,19,21,23,25,-1,-1,27,29,31,33,35,-1,-1,37,39,41,43,45,47,49,51,53,55,57,59,-1,61,63,65,67,69,-1,-1,-1,-1,-1,-1,-1,-1,-1,-1,-1,-1,-1,-1,-1,-1,-1,-1,-1,-1,-1,-1,-1,-1,-1,-1,-1,-1,-1,-1],"loss_changes":[3.1360432E1,1.3740019E1,1.0889044E1,6.543806E0,1.5476344E1,5.6915474E0,0E0,5.0549736E0,1.0104479E1,1.3228453E1,5.3783607E0,1.549469E0,5.2147923E0,4.829678E0,0E0,0E0,1.1694532E1,1.2021967E1,9.264072E0,4.3305626E0,3.4464607E0,0E0,0E0,2.9956722E0,4.7351117E0,2.3636959E0,4.3031607E0,4.7668457E0,9.7271185E0,5.5203495E0,8.081274E0,1.1943287E1,1.1230688E1,3.2415006E0,1.7245429E0,0E0,1.1138153E0,2.0396879E0,2.2135487E0,4.744775E0,2.5324965E-1,0E0,0E0,0E0,0E0,0E0,0E0,0E0,0E0,0E0,0E0,0E0,0E0,0E0,0E0,0E0,0E0,0E0,0E0,0E0,0E0,0E0,0E0,0E0,0E0,0E0,0E0,0E0,0E0,0E0,0E0],"parents":[2147483647,0,0,1,1,2,2,3,3,4,4,5,5,7,7,8,8,9,9,10,10,11,11,12,12,13,13,16,16,17,17,18,18,19,19,20,20,23,23,24,24,25,25,26,26,27,27,28,28,29,29,30,30,31,31,32,32,33,33,34,34,36,36,37,37,38,38,39,39,40,40],"right_children":[2,4,6,8,10,12,-1,14,16,18,20,22,24,26,-1,-1,28,30,32,34,36,-1,-1,38,40,42,44,46,48,50,52,54,56,58,60,-1,62,64,66,68,70,-1,-1,-1,-1,-1,-1,-1,-1,-1,-1,-1,-1,-1,-1,-1,-1,-1,-1,-1,-1,-1,-1,-1,-1,-1,-1,-1,-1,-1,-1],"split_conditions":[-1.2218517E2,1.8199552E-2,2.9299131E1,3.6028292E0,-5.7600665E-1,1.6634114E-1,-5.953564E-2,7.1093144E0,3.3260323E1,1.1990422E1,4.3755054E0,8.36038E0,-6.9350452E0,1.649781E1,-5.5802662E-2,6.539495E-2,5.079397E0,1.5824722E1,7.115402E0,6.737371E0,2.3430765E1,7.83946E-2,1.0408819E-2,1.7927201E-1,9.322627E0,3.0774853E0,1.5483149E-2,2.732735E1,1.15379305E1,2.992266E1,1.1341093E1,5.9138722E0,-2.2680396E2,4.990982E0,7.430687E0,5.7693827E-3,1.5325349E-2,-2.730847E0,6.442898E0,4.3932028E2,1.4384111E1,2.5323823E-2,-4.421843E-2,5.6771338E-2,-3.9060363E-3,-1.0154852E-2,-4.953153E-2,1.8528419E-2,-4.140649E-2,-3.703085E-2,4.5506112E-2,7.49798E-3,-3.369429E-2,2.2526832E-2,-5.3590298E-2,-4.0214922E-2,2.3701012E-2,2.673143E-2,-5.5654287E-2,6.1852843E-2,-1.8736763E-3,-3.184845E-2,-7.371852E-2,-3.7254427E-2,3.0339068E-2,-2.8737136E-3,5.934766E-2,-5.5897832E-2,3.5196047E-2,5.4537673E-2,1.1910503E-2],"split_indices":[0,31,5,25,6,30,0,20,13,17,25,9,6,5,0,0,25,5,9,19,5,0,0,30,21,25,31,3,7,13,18,20,0,20,19,0,32,12,18,27,3,0,0,0,0,0,0,0,0,0,0,0,0,0,0,0,0,0,0,0,0,0,0,0,0,0,0,0,0,0,0],"split_type":[0,0,0,0,0,0,0,0,0,0,0,0,0,0,0,0,0,0,0,0,0,0,0,0,0,0,0,0,0,0,0,0,0,0,0,0,0,0,0,0,0,0,0,0,0,0,0,0,0,0,0,0,0,0,0,0,0,0,0,0,0,0,0,0,0,0,0,0,0,0,0],"sum_hessian":[5.015736E2,4.605584E2,4.10152E1,9.84219E1,3.621365E2,3.934847E1,1.6667317E0,1.6920021E1,8.150188E1,3.3959998E2,2.2536537E1,1.3981056E1,2.5367413E1,1.525786E1,1.6621614E0,2.0710635E0,7.943081E1,2.8235608E2,5.7243904E1,7.175573E0,1.5360964E1,1.2733347E1,1.2477094E0,1.7921305E1,7.4461093E0,3.920954E0,1.1336906E1,5.1342987E1,2.8087822E1,2.723983E1,2.5511624E2,2.816802E1,2.9075884E1,3.9027803E0,3.2727923E0,1.9861771E0,1.3374787E1,2.4754426E0,1.5445862E1,4.898964E0,2.5471451E0,1.0098296E0,2.9111242E0,6.8896146E0,4.447292E0,1.0130121E1,4.1212864E1,1.8798111E1,9.289712E0,1.4586594E0,2.578117E1,2.4358063E2,1.1535617E1,6.0143294E0,2.215369E1,9.265427E0,1.9810455E1,1.0177244E0,2.885056E0,1.5530897E0,1.7197026E0,4.8536706E0,8.521117E0,1.2107009E0,1.2647418E0,1.4809573E0,1.3964905E1,3.6264293E0,1.2725348E0,1.2951525E0,1.2519926E0],"tree_param":{"num_deleted":"0","num_feature":"33","num_nodes":"71","size_leaf_vector":"1"}},{"base_weights":[-1.1977598E-2,-3.291425E-2,7.20756E-2,4.8387166E-2,-3.6549056E-1,-2.7297916E-2,5.093592E-1,-8.132345E-1,-1.9984752E-1,-9.25354E-1,6.22028E-3,1.5837334E-1,1.1053137E0,3.8750196E-1,-1.0309029E0,-4.6038693E-1,2.4785405E-1,-1.1545575E0,2.1802977E-2,4.968849E-1,-4.8484575E-2,8.86013E-1,-6.772981E-2,1.2471135E0,4.1706536E-2,8.5198987E-1,-2.6529152E-2,-9.266852E-2,-1.2276242E0,-5.7741845E-1,5.532332E-2,1.2545748E0,4.069871E-3,-6.757897E-2,-3.4961519E-3,9.364752E-3,5.9742015E-2,-7.483533E-3,9.620198E-3,-4.932606E-4,7.369199E-2,-3.6237065E-2,1.8688781E-2,6.8197116E-2,-2.4443758E-3,-3.2038547E-2,3.4229234E-2,5.6238383E-2,9.651726E-3,-5.5342656E-2,3.180162E-2,-7.2153784E-2,-2.2338336E-2,-9.1602905E-3,-5.2117538E-2,7.329551E-2,1.5704403E-2,1.0124144E-2,-4.7432248E-2],"categories":[],"categories_nodes":[],"categories_segments":[],"categories_sizes":[],"default_left":[0,0,0,0,0,0,0,0,0,0,0,0,0,0,0,0,0,0,0,0,0,0,0,0,0,0,0,0,0,0,0,0,0,0,0,0,0,0,0,0,0,0,0,0,0,0,0,0,0,0,0,0,0,0,0,0,0,0,0],"id":8,"left_children":[1,3,-1,5,7,9,11,13,15,17,19,21,23,25,27,29,31,33,-1,35,37,39,41,43,45,47,-1,49,51,53,-1,55,57,-1,-1,-1,-1,-1,-1,-1,-1,-1,-1,-1,-1,-1,-1,-1,-1,-1,-1,-1,-1,-1,-1,-1,-1,-1,-1],"loss_changes":[1.53637495E1,1.3459815E1,0E0,1.3982146E1,7.0889664E0,1.0386191E1,1.1646218E1,7.215225E0,8.593705E0,4.3772783E0,8.974108E0,6.10365E0,3.0820198E0,2.468555E0,4.011223E0,9.129654E0,6.7176948E0,2.234727E0,0E0,7.0225E0,7.3631372E0,4.638098E0,8.669976E0,2.837635E0,1.9651128E0,4.1628098E-1,0E0,4.3662243E0,2.4497795E0,7.8262787E0,0E0,6.0033226E-1,4.550351E0,0E0,0E0,0E0,0E0,0E0,0E0,0E0,0E0,0E0,0E0,0E0,0E0,0E0,0E0,0E0,0E0,0E0,0E0,0E0,0E0,0E0,0E0,0E0,0E0,0E0,0E0],"parents":[2147483647,0,0,1,1,3,3,4,4,5,5,6,6,7,7,8,8,9,9,10,10,11,11,12,12,13,13,14,14,15,15,16,16,17,17,19,19,20,20,21,21,22,22,23,23,24,24,25,25,27,27,28,28,29,29,31,31,32,32],"right_children":[2,4,-1,6,8,10,12,14,16,18,20,22,24,26,28,30,32,34,-1,36,38,40,42,44,46,48,-1,50,52,54,-1,56,58,-1,-1,-1,-1,-1,-1,-1,-1,-1,-1,-1,-1,-1,-1,-1,-1,-1,-1,-1,-1,-1,-1,-1,-1,-1,-1],"split_conditions":[1.6791913E2,1.4465239E1,7.20756E-2,1.3707947E2,6.4838654E2,5.849412E2,3.3988776E2,2.1172344E1,3.883468E1,3.1600641E1,5.4775195E0,6.535542E0,-7.6867046E0,3.0898642E2,1.8619066E1,1.305917E2,9.739829E-2,5.9374957E0,2.1802977E-2,2.1208266E-2,-3.310496E0,-9.752555E0,5.0660157E0,1.1407628E1,5.3065276E0,5.2103467E0,-2.6529152E-2,4.775204E0,7.080507E1,8.326786E0,5.532332E-2,9.965744E0,2.9845615E1,-6.757897E-2,-3.4961519E-3,9.364752E-3,5.9742015E-2,-7.483533E-3,9.620198E-3,-4.932606E-4,7.369199E-2,-3.6237065E-2,1.8688781E-2,6.8197116E-2,-2.4443758E-3,-3.2038547E-2,3.4229234E-2,5.6238383E-2,9.651726E-3,-5.5342656E-2,3.180162E-2,-7.2153784E-2,-2.2338336E-2,-9.1602905E-3,-5.2117538E-2,7.329551E-2,1.5704403E-2,1.0124144E-2,-4.7432248E-2],"split_indices":[1,7,0,1,28,28,26,5,3,5,19,18,6,26,14,1,30,22,0,32,8,6,22,7,22,23,0,21,13,9,0,17,14,0,0,0,0,0,0,0,0,0,0,0,0,0,0,0,0,0,0,0,0,0,0,0,0,0,0],"split_type":[0,0,0,0,0,0,0,0,0,0,0,0,0,0,0,0,0,0,0,0,0,0,0,0,0,0,0,0,0,0,0,0,0,0,0,0,0,0,0,0,0,0,0,0,0,0,0,0,0,0,0,0,0,0,0,0,0,0,0],"sum_hessian":[5.0230917E2,4.9613992E2,6.1692457E0,3.9936572E2,9.6774216E1,3.43851E2,5.5514694E1,2.507778E1,7.1696434E1,1.14144745E1,3.3243655E2,3.573463E1,1.9780066E1,3.7286992E0,2.1349081E1,4.5303677E1,2.6392756E1,9.899728E0,1.5147463E0,3.2535213E1,2.9990134E2,7.779668E0,2.7954962E1,1.7300974E1,2.4790916E0,2.5238147E0,1.2048844E0,3.9554064E0,1.7393675E1,4.2742622E1,2.5610552E0,4.336925E0,2.2055832E1,8.169617E0,1.7301114E0,2.3416693E1,9.118521E0,2.1145683E2,8.844451E1,3.4717536E0,4.3079143E0,1.0977556E1,1.6977406E1,1.5822244E1,1.4787308E0,1.2041001E0,1.2749913E0,1.2849913E0,1.2388235E0,1.4367872E0,2.5186193E0,1.2967627E1,4.426047E0,2.3884869E1,1.8857752E1,3.0850222E0,1.2519027E0,1.8905935E1,3.1498952E0],"tree_param":{"num_deleted":"0","num_feature":"33","num_nodes":"59","size_leaf_vector":"1"}},{"base_weights":[3.5171475E-2,-3.537367E-2,7.8740793E-1,3.1512734E-2,-5.4788905E-1,1.0349495E0,9.437787E-2,-1.409734E-1,2.425834E-1,5.3132165E-2,-6.426482E-1,5.7678646E-1,1.399247E0,6.1636485E-2,-3.2030296E-1,2.8804648E-1,-2.3218803E-1,4.7089833E-1,-3.3110734E-2,4.3888146E-1,-7.1447057E-1,-3.6877815E-2,8.1882066E-1,1.916556E-3,1.5006282E0,-7.979072E-1,6.571471E-1,-8.4126465E-2,8.7328863E-1,-2.7923962E-1,8.256225E-1,5.9358174E-1,-7.551115E-1,-1.6811147E-1,8.32721E-1,-2.6540471E-2,5.556974E-2,-5.865697E-1,-7.679703E-2,1.1971544E0,2.6987394E-2,8.0363445E-2,7.4113235E-3,-1.1950475E0,1.329979E-2,5.6156706E-2,-8.539481E-3,1.1667366E-2,-6.5436535E-2,-3.597319E-2,5.9645046E-2,-3.651297E-2,-9.173068E-3,-7.624896E-3,7.1064785E-2,3.638299E-2,-2.0669665E-2,-4.8560657E-2,2.631194E-2,4.1809278E-3,-3.41877E-2,5.947503E-2,-2.2180526E-2,-3.6369268E-2,4.1299584E-4,3.8659144E-3,6.795776E-2,3.7181616E-2,-2.568618E-2,-7.1754135E-2,-1.0491366E-2],"categories":[],"categories_nodes":[],"categories_segments":[],"categories_sizes":[],"default_left":[0,0,0,0,0,0,0,0,0,0,0,0,0,0,0,0,0,0,0,0,0,0,0,0,0,0,0,0,0,0,0,0,0,0,0,0,0,0,0,0,0,0,0,0,0,0,0,0,0,0,0,0,0,0,0,0,0,0,0,0,0,0,0,0,0,0,0,0,0,0,0],"id":9,"left_children":[1,3,5,7,9,11,13,15,17,-1,19,21,23,-1,25,27,29,31,33,35,37,-1,39,-1,41,43,45,47,49,51,53,55,57,59,61,-1,-1,63,-1,65,67,-1,-1,69,-1,-1,-1,-1,-1,-1,-1,-1,-1,-1,-1,-1,-1,-1,-1,-1,-1,-1,-1,-1,-1,-1,-1,-1,-1,-1,-1],"loss_changes":[2.6370329E1,1.5607923E1,7.211294E0,1.4714955E1,8.703709E0,4.415722E0,6.207278E0,8.775364E0,1.1453119E1,0E0,4.2176113E0,5.554258E0,2.25074E0,0E0,5.1082296E0,8.669257E0,9.392105E0,1.5408033E1,9.870545E0,3.0349412E0,4.090788E0,0E0,4.0465355E0,0E0,2.0035248E0,3.2956724E0,1.6468426E0,1.0038745E1,8.712452E0,7.511197E0,4.931239E0,1.2583252E1,3.1381736E0,9.513284E0,5.717522E0,0E0,0E0,3.584897E0,0E0,1.5621481E0,2.4842424E0,0E0,0E0,9.555907E-1,0E0,0E0,0E0,0E0,0E0,0E0,0E0,0E0,0E0,0E0,0E0,0E0,0E0,0E0,0E0,0E0,0E0,0E0,0E0,0E0,0E0,0E0,0E0,0E0,0E0,0E0,0E0],"parents":[2147483647,0,0,1,1,2,2,3,3,4,4,5,5,6,6,7,7,8,8,10,10,11,11,12,12,14,14,15,15,16,16,17,17,18,18,19,19,20,20,22,22,24,24,25,25,26,26,27,27,28,28,29,29,30,30,31,31,32,32,33,33,34,34,37,37,39,39,40,40,43,43],"right_children":[2,4,6,8,10,12,14,16,18,-1,20,22,24,-1,26,28,30,32,34,36,38,-1,40,-1,42,44,46,48,50,52,54,56,58,60,62,-1,-1,64,-1,66,68,-1,-1,70,-1,-1,-1,-1,-1,-1,-1,-1,-1,-1,-1,-1,-1,-1,-1,-1,-1,-1,-1,-1,-1,-1,-1,-1,-1,-1,-1],"split_conditions":[-1.2218517E2,1.257557E1,-6.532621E0,-2.0322266E2,3.6455028E0,2.3552565E1,8.232384E0,2.4234203E1,4.3311243E2,5.3132165E-2,-1.6589489E1,6.3175775E-2,3.924859E1,6.1636485E-2,1.0973393E1,-1.6406842E0,9.46474E1,3.1843456E1,6.4861264E0,-2.2490323E2,6.0004004E2,-3.6877815E-2,2.2128857E1,1.916556E-3,-9.1932066E-2,3.472921E0,7.234905E0,9.953195E-1,4.187415E0,-5.6477375E0,4.792512E0,8.311933E1,4.2229898E2,-9.94749E0,1.5613194E1,-2.6540471E-2,5.556974E-2,5.058771E2,-7.679703E-2,-2.2446589E1,-1.5620152E1,8.0363445E-2,7.4113235E-3,5.5252604E0,1.329979E-2,5.6156706E-2,-8.539481E-3,1.1667366E-2,-6.5436535E-2,-3.597319E-2,5.9645046E-2,-3.651297E-2,-9.173068E-3,-7.624896E-3,7.1064785E-2,3.638299E-2,-2.0669665E-2,-4.8560657E-2,2.631194E-2,4.1809278E-3,-3.41877E-2,5.947503E-2,-2.2180526E-2,-3.6369268E-2,4.1299584E-4,3.8659144E-3,6.795776E-2,3.7181616E-2,-2.568618E-2,-7.1754135E-2,-1.0491366E-2],"split_indices":[0,17,6,0,24,3,17,3,26,0,6,31,13,0,18,4,13,5,24,0,26,0,15,0,12,11,9,12,22,10,24,13,26,2,16,0,0,26,0,4,6,0,0,25,0,0,0,0,0,0,0,0,0,0,0,0,0,0,0,0,0,0,0,0,0,0,0,0,0,0,0],"split_type":[0,0,0,0,0,0,0,0,0,0,0,0,0,0,0,0,0,0,0,0,0,0,0,0,0,0,0,0,0,0,0,0,0,0,0,0,0,0,0,0,0,0,0,0,0,0,0,0,0,0,0,0,0,0,0,0,0,0,0,0,0,0,0,0,0,0,0,0,0,0,0],"sum_hessian":[4.9540375E2,4.537992E2,4.1604557E1,4.0224258E2,5.155661E1,3.029146E1,1.1313097E1,2.2153616E2,1.807064E2,2.2973056E0,4.9259304E1,1.4561411E1,1.573005E1,2.494008E0,8.819089E0,3.8464394E1,1.8307176E2,9.845952E1,8.224689E1,2.7492561E0,4.6510048E1,1.9460821E0,1.2615329E1,1.1861087E0,1.45439415E1,6.047721E0,2.7713683E0,2.4035656E1,1.4428738E1,1.7598016E2,7.0916066E0,8.997211E1,8.487417E0,7.184988E1,1.0397016E1,1.2121605E0,1.5370955E0,4.1727264E1,4.7827826E0,8.190211E0,4.4251175E0,1.3306251E1,1.2376907E0,4.31407E0,1.7336507E0,1.5451608E0,1.2262075E0,1.9730145E1,4.3055105E0,2.202378E0,1.2226359E1,2.9664692E1,1.4631548E2,2.9657354E0,4.125871E0,7.964483E1,1.0327276E1,7.469683E0,1.0177339E0,4.8843124E1,2.300675E1,8.178788E0,2.2182271E0,3.3559734E1,8.167532E0,1.2217934E0,6.968418E0,1.7415819E0,2.6835356E0,3.1017592E0,1.2123113E0],"tree_param":{"num_deleted":"0","num_feature":"33","num_nodes":"71","size_leaf_vector":"1"}},{"base_weights":[2.9346218E-2,-1.8122984E-1,2.4197146E-1,-2.8676715E-1,8.3204865E-2,1.177615E-1,1.02083E0,-2.1943024E-1,-1.0359384E0,2.6041162E-1,-7.108117E-1,1.9535992E-1,-7.0782185E-1,1.2558874E0,2.699173E-1,-3.3093664E-1,1.9897337E-1,-1.2894951E0,2.4622622E-1,-1.5542282E-1,6.880501E-1,-4.0583078E-2,-1.3207964E0,8.4337264E-1,7.7977136E-2,5.3256434E-1,-1.027348E0,-4.5641214E-3,1.341819E0,9.026206E-1,-7.516988E-1,-6.288051E-1,1.3101143E-2,7.013492E-1,-2.6502708E-1,-3.2114974E-1,-7.788258E-2,4.9396142E-2,-2.7502501E-2,1.9240966E-1,-5.845362E-1,-1.6837582E-1,9.932258E-1,-7.41774E-1,4.4460273E-1,-7.703572E-2,-8.070007E-3,1.0235282E0,-4.2764542E-1,-2.3140898E-2,5.951019E-1,6.183658E-2,-2.0081682E-2,-1.2944864E0,-1.9746664E-1,1.3952551E0,1.025742E-2,6.303596E-2,-1.6318781E-2,-2.1885165E-3,-5.6499284E-2,4.3550387E-2,-3.4024425E-2,-1.5130942E-2,2.031721E-2,4.5456618E-2,-1.5308735E-2,3.622241E-2,-3.740271E-2,-5.5047046E-2,3.664666E-2,3.5442766E-2,-2.4267927E-2,-6.23406E-2,1.6416041E-2,4.944358E-2,-3.384982E-2,7.007189E-2,1.5260401E-2,-6.4707245E-3,-5.122192E-2,5.2562695E-2,-2.279911E-2,6.505678E-2,1.9229876E-2,-6.3295014E-2,2.6793977E-2,9.185413E-3,-1.7680995E-2,-3.954723E-2,3.5093646E-2,-7.1629845E-2,-1.976432E-2,3.8541578E-2,-3.761966E-2,7.267652E-2,2.5764111E-2],"categories":[],"categories_nodes":[],"categories_segments":[],"categories_sizes":[],"default_left":[0,0,0,0,0,0,0,0,0,0,0,0,0,0,0,0,0,0,0,0,0,0,0,0,0,0,0,0,0,0,0,0,0,0,0,0,0,0,0,0,0,0,0,0,0,0,0,0,0,0,0,0,0,0,0,0,0,0,0,0,0,0,0,0,0,0,0,0,0,0,0,0,0,0,0,0,0,0,0,0,0,0,0,0,0,0,0,0,0,0,0,0,0,0,0,0,0],"id":10,"left_children":[1,3,5,7,9,11,13,15,17,19,21,23,25,27,29,31,33,35,37,39,41,43,45,47,49,51,53,-1,55,57,59,61,63,65,67,69,-1,-1,-1,71,73,75,77,79,81,-1,-1,83,85,87,89,-1,-1,91,93,95,-1,-1,-1,-1,-1,-1,-1,-1,-1,-1,-1,-1,-1,-1,-1,-1,-1,-1,-1,-1,-1,-1,-1,-1,-1,-1,-1,-1,-1,-1,-1,-1,-1,-1,-1,-1,-1,-1,-1,-1,-1],"loss_changes":[2.2328241E1,7.0184317E0,2.3879398E1,8.8209505E0,1.0353831E1,1.3917649E1,5.66066E0,7.8030186E0,5.0390053E0,1.0743742E1,5.4468985E0,1.4948946E1,7.957E0,3.0876312E0,6.7397656E0,1.3465434E1,8.465969E0,2.6899471E0,2.455475E0,4.760718E0,7.9227037E0,2.8617156E0,1.5391941E0,7.346199E0,8.810166E0,3.4491892E0,3.1158333E0,0E0,1.1800957E0,3.160016E0,1.0570889E0,6.0499344E0,7.8101277E0,3.9062405E0,9.714452E0,4.032365E0,0E0,0E0,0E0,6.627916E0,8.987919E0,5.7613554E0,5.7574787E0,4.59118E-1,3.2241113E0,0E0,0E0,4.2389164E0,4.273214E0,9.749425E0,4.6324377E0,0E0,0E0,8.40086E-1,3.2039235E0,4.2457962E-1,0E0,0E0,0E0,0E0,0E0,0E0,0E0,0E0,0E0,0E0,0E0,0E0,0E0,0E0,0E0,0E0,0E0,0E0,0E0,0E0,0E0,0E0,0E0,0E0,0E0,0E0,0E0,0E0,0E0,0E0,0E0,0E0,0E0,0E0,0E0,0E0,0E0,0E0,0E0,0E0,0E0],"parents":[2147483647,0,0,1,1,2,2,3,3,4,4,5,5,6,6,7,7,8,8,9,9,10,10,11,11,12,12,13,13,14,14,15,15,16,16,17,17,18,18,19,19,20,20,21,21,22,22,23,23,24,24,25,25,26,26,28,28,29,29,30,30,31,31,32,32,33,33,34,34,35,35,39,39,40,40,41,41,42,42,43,43,44,44,47,47,48,48,49,49,50,50,53,53,54,54,55,55],"right_children":[2,4,6,8,10,12,14,16,18,20,22,24,26,28,30,32,34,36,38,40,42,44,46,48,50,52,54,-1,56,58,60,62,64,66,68,70,-1,-1,-1,72,74,76,78,80,82,-1,-1,84,86,88,90,-1,-1,92,94,96,-1,-1,-1,-1,-1,-1,-1,-1,-1,-1,-1,-1,-1,-1,-1,-1,-1,-1,-1,-1,-1,-1,-1,-1,-1,-1,-1,-1,-1,-1,-1,-1,-1,-1,-1,-1,-1,-1,-1,-1,-1],"split_conditions":[-2.0322266E2,5.0618873E0,1.3707947E2,7.1243806E0,7.1492877E0,-1.4368492E0,2.3589838E1,1.6974217E-1,1.050374E1,6.1847725E0,9.908617E0,1.361964E-1,5.812135E0,3.540596E-2,5.519462E0,2.605242E1,1.9416857E0,1.2604043E-2,2.2411768E1,1.1672936E1,-3.559245E0,8.405895E0,1.0242431E1,4.946937E0,-1.2106391E2,6.677749E-2,8.018549E0,-4.5641214E-3,2.3789454E1,1.2701754E-1,-7.397619E0,3.2605217E0,1.2259904E2,1.3787638E0,1.3449993E1,1.317348E1,-7.788258E-2,4.9396142E-2,-2.7502501E-2,5.636346E0,-1.7055635E0,-8.0587845E0,2.7335201E1,7.324909E0,7.0060287E0,-7.703572E-2,-8.070007E-3,8.140641E0,1.2223195E1,-1.6244534E2,3.9409359E0,6.183658E-2,-2.0081682E-2,2.62275E1,5.381168E-2,8.337982E0,1.025742E-2,6.303596E-2,-1.6318781E-2,-2.1885165E-3,-5.6499284E-2,4.3550387E-2,-3.4024425E-2,-1.5130942E-2,2.031721E-2,4.5456618E-2,-1.5308735E-2,3.622241E-2,-3.740271E-2,-5.5047046E-2,3.664666E-2,3.5442766E-2,-2.4267927E-2,-6.23406E-2,1.6416041E-2,4.944358E-2,-3.384982E-2,7.007189E-2,1.5260401E-2,-6.4707245E-3,-5.122192E-2,5.2562695E-2,-2.279911E-2,6.505678E-2,1.9229876E-2,-6.3295014E-2,2.6793977E-2,9.185413E-3,-1.7680995E-2,-3.954723E-2,3.5093646E-2,-7.1629845E-2,-1.976432E-2,3.8541578E-2,-3.761966E-2,7.267652E-2,2.5764111E-2],"split_indices":[0,25,1,21,24,6,5,30,18,21,18,30,19,31,22,5,11,32,15,7,4,18,19,11,0,31,21,0,15,30,6,24,1,4,15,16,0,0,0,25,8,8,5,21,25,0,0,9,16,0,23,0,0,15,31,2,0,0,0,0,0,0,0,0,0,0,0,0,0,0,0,0,0,0,0,0,0,0,0,0,0,0,0,0,0,0,0,0,0,0,0,0,0,0,0,0,0],"split_type":[0,0,0,0,0,0,0,0,0,0,0,0,0,0,0,0,0,0,0,0,0,0,0,0,0,0,0,0,0,0,0,0,0,0,0,0,0,0,0,0,0,0,0,0,0,0,0,0,0,0,0,0,0,0,0,0,0,0,0,0,0,0,0,0,0,0,0,0,0,0,0,0,0,0,0,0,0,0,0,0,0,0,0,0,0,0,0,0,0,0,0,0,0,0,0,0,0],"sum_hessian":[4.9671063E2,2.4963205E2,2.4707857E2,1.7836226E2,7.126979E1,2.1408772E2,3.2990852E1,1.6483911E2,1.3523153E1,5.8815514E1,1.2454276E1,1.9639178E2,1.7695934E1,2.46136E1,8.377251E0,1.3031787E2,3.4521236E1,1.1285627E1,2.2375262E0,3.014204E1,2.8673475E1,6.442275E0,6.0120015E0,2.9170572E1,1.672212E2,3.4881938E0,1.420774E1,1.4721476E0,2.3141453E1,5.2452564E0,3.1319945E0,6.9401886E1,6.0915985E1,1.6329582E1,1.8191656E1,2.9240718E0,8.361555E0,1.0338559E0,1.2036703E0,1.6952347E1,1.31896925E1,7.650856E0,2.102262E1,2.418382E0,4.023893E0,4.7769923E0,1.235009E0,2.5719742E1,3.4508295E0,1.4067E2,2.6551214E1,1.8043169E0,1.683877E0,1.0324458E1,3.8832812E0,2.1885118E1,1.2563342E0,4.041774E0,1.203483E0,1.4793105E0,1.6526839E0,1.7838242E0,6.7618065E1,3.3916313E1,2.699967E1,1.3618646E1,2.710937E0,5.803483E0,1.2388172E1,1.6551605E0,1.2689112E0,9.595162E0,7.357185E0,7.4319754E0,5.757717E0,2.0476606E0,5.6031957E0,1.2543461E1,8.479158E0,1.2241788E0,1.1942031E0,2.3043425E0,1.7195504E0,1.7207066E1,8.512677E0,1.6775552E0,1.7732744E0,8.679101E1,5.387899E1,1.4407169E0,2.5110497E1,8.435618E0,1.8888403E0,1.2729777E0,2.6103034E0,1.9914515E1,1.9706051E0],"tree_param":{"num_deleted":"0","num_feature":"33","num_nodes":"97","size_leaf_vector":"1"}},{"base_weights":[-1.9817974E-2,-8.495368E-2,7.0208263E-1,-2.5349647E-1,7.243563E-2,8.4644216E-1,-1.4799617E-1,-3.0059603E-1,4.3537265E-1,1.8337958E-1,-5.5275667E-1,9.247822E-1,-1.5793417E-1,7.228229E-1,-8.136862E-1,-4.5099443E-1,-7.671824E-2,7.372751E-1,-4.4308744E-2,9.0480286E-1,9.71186E-2,-2.1771741E-1,-1.2355281E0,1.180338E0,5.883768E-1,-3.7426796E-2,2.4872264E-2,7.1051675E-3,4.856051E-2,-6.459006E-2,1.1701177E-2,-3.871599E-1,-1.2437562E0,6.85184E-1,-2.106895E-1,-2.362485E-2,9.7782E-1,1.3050575E0,-4.439196E-1,2.349219E-1,-3.098583E-1,5.361132E-1,-6.542349E-1,-1.4477757E0,1.4148401E-2,1.2983559E0,2.2445896E-3,-3.7361008E-1,1.0716802E0,1.0340394E-2,-2.3434943E-2,-6.948433E-2,-1.0008211E-2,5.1892705E-2,-4.304247E-2,-4.4908538E-3,-5.904896E-2,6.868849E-2,2.5271508E-3,6.957375E-2,5.495254E-3,-4.587895E-2,4.3675307E-2,-2.1308565E-3,2.2576584E-2,8.350154E-3,-3.500959E-2,-3.5734445E-2,4.9532678E-2,-4.2736925E-2,3.207227E-2,-8.014949E-2,-8.543805E-3,7.081002E-2,2.341053E-2,-3.874711E-2,3.284041E-2,-4.993159E-3,6.314373E-2],"categories":[],"categories_nodes":[],"categories_segments":[],"categories_sizes":[],"default_left":[0,0,0,0,0,0,0,0,0,0,0,0,0,0,0,0,0,0,0,0,0,0,0,0,0,0,0,0,0,0,0,0,0,0,0,0,0,0,0,0,0,0,0,0,0,0,0,0,0,0,0,0,0,0,0,0,0,0,0,0,0,0,0,0,0,0,0,0,0,0,0,0,0,0,0,0,0,0,0],"id":11,"left_children":[1,3,5,7,9,11,13,15,17,19,21,23,25,27,29,31,33,35,-1,37,39,41,43,45,47,-1,-1,-1,-1,-1,-1,49,51,53,55,-1,57,59,61,63,65,67,69,71,-1,73,-1,75,77,-1,-1,-1,-1,-1,-1,-1,-1,-1,-1,-1,-1,-1,-1,-1,-1,-1,-1,-1,-1,-1,-1,-1,-1,-1,-1,-1,-1,-1,-1],"loss_changes":[2.3317354E1,1.2076813E1,5.161936E0,7.2601805E0,1.6459772E1,2.9183426E0,4.5354447E0,6.910408E0,6.4268026E0,1.2423609E1,7.9189157E0,2.127943E0,1.6897296E0,3.6390626E-1,2.4711132E0,5.7516975E0,8.7275505E0,4.0487747E0,0E0,1.2105825E1,1.020684E1,8.651263E0,4.1381454E0,2.3086262E0,7.916981E0,0E0,0E0,0E0,0E0,0E0,0E0,5.6881504E0,1.0508881E0,7.877972E0,8.370867E0,0E0,3.8249655E0,1.573885E0,4.3163137E0,8.168726E0,8.7050495E0,6.279676E0,4.815288E0,1.7700939E0,0E0,8.986721E-1,0E0,3.0513306E0,2.5943651E0,0E0,0E0,0E0,0E0,0E0,0E0,0E0,0E0,0E0,0E0,0E0,0E0,0E0,0E0,0E0,0E0,0E0,0E0,0E0,0E0,0E0,0E0,0E0,0E0,0E0,0E0,0E0,0E0,0E0,0E0],"parents":[2147483647,0,0,1,1,2,2,3,3,4,4,5,5,6,6,7,7,8,8,9,9,10,10,11,11,12,12,13,13,14,14,15,15,16,16,17,17,19,19,20,20,21,21,22,22,23,23,24,24,31,31,32,32,33,33,34,34,36,36,37,37,38,38,39,39,40,40,41,41,42,42,43,43,45,45,47,47,48,48],"right_children":[2,4,6,8,10,12,14,16,18,20,22,24,26,28,30,32,34,36,-1,38,40,42,44,46,48,-1,-1,-1,-1,-1,-1,50,52,54,56,-1,58,60,62,64,66,68,70,72,-1,74,-1,76,78,-1,-1,-1,-1,-1,-1,-1,-1,-1,-1,-1,-1,-1,-1,-1,-1,-1,-1,-1,-1,-1,-1,-1,-1,-1,-1,-1,-1,-1,-1],"split_conditions":[-1.2380449E2,-2.1167882E2,3.5926403E1,4.742766E2,5.3876215E2,1.0905386E0,5.6729813E1,8.563153E0,8.707388E0,6.5729113E0,-1.1882462E1,6.29566E-2,2.0159098E1,-8.03288E0,1.6561002E0,-2.167013E2,2.3881107E1,3.8601437E0,-4.4308744E-2,7.9132423E0,-4.5149813E0,6.909224E1,1.0368322E1,9.960406E1,4.94439E0,-3.7426796E-2,2.4872264E-2,7.1051675E-3,4.856051E-2,-6.459006E-2,1.1701177E-2,4.4585037E1,-3.728612E0,-5.584194E0,4.858281E-2,-2.362485E-2,1.295834E1,2.084935E1,5.0259767E0,-2.199123E0,4.974827E0,1.1369021E-1,4.189637E1,-3.037829E0,1.4148401E-2,9.5606165E0,2.2445896E-3,7.2745743E0,3.9074405E2,1.0340394E-2,-2.3434943E-2,-6.948433E-2,-1.0008211E-2,5.1892705E-2,-4.304247E-2,-4.4908538E-3,-5.904896E-2,6.868849E-2,2.5271508E-3,6.957375E-2,5.495254E-3,-4.587895E-2,4.3675307E-2,-2.1308565E-3,2.2576584E-2,8.350154E-3,-3.500959E-2,-3.5734445E-2,4.9532678E-2,-4.2736925E-2,3.207227E-2,-8.014949E-2,-8.543805E-3,7.081002E-2,2.341053E-2,-3.874711E-2,3.284041E-2,-4.993159E-3,6.314373E-2],"split_indices":[0,0,3,27,26,4,13,9,9,18,2,29,3,4,11,0,3,24,0,9,6,13,18,13,24,0,0,0,0,0,0,13,6,6,29,0,16,2,23,12,24,29,3,4,0,23,0,19,27,0,0,0,0,0,0,0,0,0,0,0,0,0,0,0,0,0,0,0,0,0,0,0,0,0,0,0,0,0,0],"split_type":[0,0,0,0,0,0,0,0,0,0,0,0,0,0,0,0,0,0,0,0,0,0,0,0,0,0,0,0,0,0,0,0,0,0,0,0,0,0,0,0,0,0,0,0,0,0,0,0,0,0,0,0,0,0,0,0,0,0,0,0,0,0,0,0,0,0,0,0,0,0,0,0,0,0,0,0,0,0,0],"sum_hessian":[4.9361856E2,4.5357562E2,4.004294E1,2.1873221E2,2.348434E2,3.4233685E1,5.8092527E0,2.0526163E2,1.3470575E1,2.0005006E2,3.4793343E1,3.1830217E1,2.4034674E0,2.4796653E0,3.3295872E0,1.221729E2,8.308874E1,1.1325435E1,2.1451402E0,2.0351976E1,1.7969809E2,2.4224926E1,1.0568418E1,1.6663126E1,1.5167093E1,1.1894455E0,1.2140219E0,1.2138458E0,1.2658195E0,2.1262922E0,1.203295E0,1.1444589E2,7.727008E0,1.1810026E1,7.127871E1,1.7184677E0,9.606967E0,1.5719378E1,4.632598E0,1.345589E2,4.5139187E1,8.799953E0,1.5424972E1,9.313233E0,1.2551839E0,1.4964269E1,1.6988566E0,5.147755E0,1.0019338E1,1.3629071E1,1.0081682E2,6.4881063E0,1.2389013E0,9.884047E0,1.9259794E0,6.4354416E1,6.92429E0,6.394843E0,3.2121243E0,1.4506216E1,1.2131624E0,3.6307323E0,1.0018657E0,5.9335896E1,7.5223E1,2.0575155E1,2.4564034E1,2.1929824E0,6.6069713E0,1.3652582E1,1.7723894E0,8.076158E0,1.2370762E0,1.2485854E1,2.4784143E0,3.8832307E0,1.2645245E0,1.4727503E0,8.546587E0],"tree_param":{"num_deleted":"0","num_feature":"33","num_nodes":"79","size_leaf_vector":"1"}},{"base_weights":[-6.561328E-3,-1.935842E-1,1.7980614E-1,1.0031637E0,-2.1842097E-1,3.8932756E-1,-2.0916957E-1,7.047434E-2,-9.754867E-3,-1.545225E-1,-6.076133E-1,9.4447446E-1,2.3007126E-1,6.3905396E-2,-2.955484E-1,-3.0836183E-1,1.860648E-1,-7.211951E-1,3.149954E-1,1.0323037E0,-3.55468E-2,4.0882292E-1,-3.0394393E-1,1.994464E-1,-4.7777572E-1,-6.6353756E-1,-1.9157659E-1,2.5643432E-1,-6.1443176E-2,1.6765507E-1,-8.481187E-1,5.504271E-2,-3.5013148E-1,6.844266E-1,1.3902383E0,7.254836E-1,1.55847E-1,-4.9930114E-1,1.1070917E0,-7.224066E-1,5.969618E-1,5.8747496E-2,-7.5136256E-1,4.7864433E-2,-4.2081304E-2,-1.2355145E-2,4.8928373E-2,1.6285354E-2,-6.080481E-2,-3.5669237E-2,3.8736027E-2,-4.728694E-2,2.4588156E-2,2.4277559E-2,-4.7899727E-2,4.179213E-2,-2.29622E-2,7.400378E-2,2.4027698E-2,4.0265493E-2,-3.1181082E-2,-4.8753573E-3,3.458584E-2,2.4339E-3,-4.881012E-2,6.755543E-2,1.4074507E-2,-5.64737E-2,3.6432058E-2,6.4264975E-2,7.4477675E-3,2.5590694E-2,-2.6742859E-2,-4.6514746E-2,7.826587E-3],"categories":[],"categories_nodes":[],"categories_segments":[],"categories_sizes":[],"default_left":[0,0,0,0,0,0,0,0,0,0,0,0,0,0,0,0,0,0,0,0,0,0,0,0,0,0,0,0,0,0,0,0,0,0,0,0,0,0,0,0,0,0,0,0,0,0,0,0,0,0,0,0,0,0,0,0,0,0,0,0,0,0,0,0,0,0,0,0,0,0,0,0,0,0,0],"id":12,"left_children":[1,3,5,7,9,11,13,-1,-1,15,17,19,21,-1,23,25,27,29,31,33,-1,35,37,39,41,43,45,47,-1,49,51,-1,53,55,57,59,61,63,65,67,69,71,73,-1,-1,-1,-1,-1,-1,-1,-1,-1,-1,-1,-1,-1,-1,-1,-1,-1,-1,-1,-1,-1,-1,-1,-1,-1,-1,-1,-1,-1,-1,-1,-1],"loss_changes":[1.757588E1,7.699564E0,2.0667162E1,2.8533335E0,6.057993E0,1.432737E1,1.1821381E1,0E0,0E0,1.126105E1,3.8472548E0,6.019161E0,1.2453482E1,0E0,7.762384E0,5.998226E0,7.0016637E0,3.6465816E0,2.7285366E0,3.397606E0,0E0,7.6730537E0,9.639862E0,9.07114E0,9.206848E0,1.123611E1,7.553777E0,7.006228E0,0E0,3.0751994E0,4.0419827E0,0E0,2.0838578E0,3.792265E0,6.1637115E-1,5.1213284E0,7.5758815E0,7.7948427E0,4.8994923E-1,5.2861686E0,5.0575185E0,6.1927595E0,6.8733654E0,0E0,0E0,0E0,0E0,0E0,0E0,0E0,0E0,0E0,0E0,0E0,0E0,0E0,0E0,0E0,0E0,0E0,0E0,0E0,0E0,0E0,0E0,0E0,0E0,0E0,0E0,0E0,0E0,0E0,0E0,0E0,0E0],"parents":[2147483647,0,0,1,1,2,2,3,3,4,4,5,5,6,6,9,9,10,10,11,11,12,12,14,14,15,15,16,16,17,17,18,18,19,19,21,21,22,22,23,23,24,24,25,25,26,26,27,27,29,29,30,30,32,32,33,33,34,34,35,35,36,36,37,37,38,38,39,39,40,40,41,41,42,42],"right_children":[2,4,6,8,10,12,14,-1,-1,16,18,20,22,-1,24,26,28,30,32,34,-1,36,38,40,42,44,46,48,-1,50,52,-1,54,56,58,60,62,64,66,68,70,72,74,-1,-1,-1,-1,-1,-1,-1,-1,-1,-1,-1,-1,-1,-1,-1,-1,-1,-1,-1,-1,-1,-1,-1,-1,-1,-1,-1,-1,-1,-1,-1,-1],"split_conditions":[-2.0322266E2,5.551932E0,4.148842E2,2.8589992E-2,2.4115753E1,9.958391E0,4.547906E0,7.047434E-2,-9.754867E-3,1.947919E1,8.356201E0,9.617636E0,-4.8192425E0,6.3905396E-2,8.391916E0,-4.545875E0,-4.3773818E-1,4.8140016E0,8.924103E0,1.8897481E-2,-3.55468E-2,6.7066475E1,4.0624344E2,3.924859E1,5.0863853E0,2.1116873E1,1.604075E1,1.9185532E1,-6.1443176E-2,7.115402E0,3.4169857E1,5.504271E-2,2.534821E1,-1.0477058E0,4.367375E1,1.5041828E1,-3.402025E0,-1.8088609E0,7.3041406E0,7.065049E-1,5.931667E0,1.0121859E1,4.7020253E-2,4.7864433E-2,-4.2081304E-2,-1.2355145E-2,4.8928373E-2,1.6285354E-2,-6.080481E-2,-3.5669237E-2,3.8736027E-2,-4.728694E-2,2.4588156E-2,2.4277559E-2,-4.7899727E-2,4.179213E-2,-2.29622E-2,7.400378E-2,2.4027698E-2,4.0265493E-2,-3.1181082E-2,-4.8753573E-3,3.458584E-2,2.4339E-3,-4.881012E-2,6.755543E-2,1.4074507E-2,-5.64737E-2,3.6432058E-2,6.4264975E-2,7.4477675E-3,2.5590694E-2,-2.6742859E-2,-4.6514746E-2,7.826587E-3],"split_indices":[0,18,27,31,15,16,20,0,0,15,20,19,6,0,17,10,6,7,18,32,0,13,27,13,9,3,16,16,0,9,5,0,15,12,3,17,8,10,20,12,19,7,32,0,0,0,0,0,0,0,0,0,0,0,0,0,0,0,0,0,0,0,0,0,0,0,0,0,0,0,0,0,0,0,0],"split_type":[0,0,0,0,0,0,0,0,0,0,0,0,0,0,0,0,0,0,0,0,0,0,0,0,0,0,0,0,0,0,0,0,0,0,0,0,0,0,0,0,0,0,0,0,0,0,0,0,0,0,0,0,0,0,0,0,0,0,0,0,0,0,0,0,0,0,0,0,0,0,0,0,0,0,0],"sum_hessian":[5.022587E2,2.5066922E2,2.5158948E2,4.295637E0,2.4637358E2,1.6351263E2,8.807684E1,3.0762296E0,1.2194076E0,2.1282803E2,3.354555E1,3.5351463E1,1.2816118E2,4.077286E0,8.399956E1,1.4667241E2,6.615562E1,3.0062843E1,3.4827082E0,3.3927803E1,1.4236627E0,9.619584E1,3.1965336E1,2.257722E1,6.1422333E1,3.5135155E1,1.11537254E2,6.380131E1,2.3543065E0,3.7163336E0,2.6346508E1,1.2961642E0,2.1865442E0,1.8682455E1,1.5245346E1,4.1891136E1,5.4304703E1,2.8645523E1,3.319813E0,6.5560927E0,1.602113E1,2.1008482E1,4.041385E1,3.045151E0,3.2090004E1,1.072374E2,4.2998605E0,6.167856E1,2.1227536E0,1.4446145E0,2.2717192E0,2.4831518E1,1.5149915E0,1.0054626E0,1.1810815E0,1.6735872E1,1.9465836E0,1.3304425E1,1.9409206E0,3.9931477E1,1.9596584E0,3.7427414E1,1.6877287E1,1.37472725E1,1.489825E1,2.0711453E0,1.2486676E0,5.2928786E0,1.2632139E0,5.579539E0,1.044159E1,1.1992806E1,9.015676E0,3.373961E1,6.674241E0],"tree_param":{"num_deleted":"0","num_feature":"33","num_nodes":"75","size_leaf_vector":"1"}},{"base_weights":[1.2343678E-2,-4.5694668E-2,6.935707E-1,-6.388466E-2,6.734376E-2,4.3817005E-1,1.1835679E0,-2.1452087E-1,7.388418E-2,-1.22121826E-1,9.9351656E-1,6.774824E-2,6.861484E-3,6.131869E-1,-2.5086948E-1,-2.6143965E-1,2.710599E-1,3.1383502E-1,-7.876017E-1,2.574074E-3,1.3159106E0,9.0003777E-1,-2.2204045E-2,-4.6482304E-1,-1.09114334E-1,-5.5662054E-1,-7.338292E-2,7.8161573E-1,1.3187538E-1,-5.472736E-1,9.2594963E-1,3.5275254E-2,-7.2003394E-2,-2.9678104E-2,3.483105E-2,1.4512348E0,7.982136E-3,6.522983E-2,-1.0387329E-2,4.0625524E-2,-2.7002295E-2,2.813561E-3,-2.7151098E-2,-7.611736E-2,-1.9366322E-2,4.8021483E-3,-3.6154088E-2,4.6126645E-2,-1.9914933E-2,2.0215582E-2,-5.0534764E-3,2.2587594E-2,-7.2214335E-2,-5.4001203E-3,6.440431E-2,2.4436755E-2,7.6849155E-2],"categories":[],"categories_nodes":[],"categories_segments":[],"categories_sizes":[],"default_left":[0,0,0,0,0,0,0,0,0,0,0,0,0,0,0,0,0,0,0,0,0,0,0,0,0,0,0,0,0,0,0,0,0,0,0,0,0,0,0,0,0,0,0,0,0,0,0,0,0,0,0,0,0,0,0,0,0],"id":13,"left_children":[1,3,5,7,-1,9,11,13,15,17,19,-1,-1,21,23,25,27,29,31,33,35,37,-1,39,41,43,45,47,49,51,53,-1,-1,-1,-1,55,-1,-1,-1,-1,-1,-1,-1,-1,-1,-1,-1,-1,-1,-1,-1,-1,-1,-1,-1,-1,-1],"loss_changes":[1.9852518E1,1.1811697E1,4.4145737E0,9.518356E0,0E0,8.67836E0,2.1308918E0,6.742218E0,1.5932606E1,4.4771247E0,4.443944E0,0E0,0E0,3.2815807E0,6.3330097E0,4.9185157E0,1.0667067E1,5.5269127E0,6.9155374E0,2.2419145E0,1.4115181E0,3.7689085E0,0E0,8.468937E0,9.209562E0,5.069772E0,6.2033825E0,5.731945E0,7.6752396E0,4.7619295E0,2.3626504E0,0E0,0E0,0E0,0E0,1.4537811E-2,0E0,0E0,0E0,0E0,0E0,0E0,0E0,0E0,0E0,0E0,0E0,0E0,0E0,0E0,0E0,0E0,0E0,0E0,0E0,0E0,0E0],"parents":[2147483647,0,0,1,1,2,2,3,3,5,5,6,6,7,7,8,8,9,9,10,10,13,13,14,14,15,15,16,16,17,17,18,18,19,19,20,20,21,21,23,23,24,24,25,25,26,26,27,27,28,28,29,29,30,30,35,35],"right_children":[2,4,6,8,-1,10,12,14,16,18,20,-1,-1,22,24,26,28,30,32,34,36,38,-1,40,42,44,46,48,50,52,54,-1,-1,-1,-1,56,-1,-1,-1,-1,-1,-1,-1,-1,-1,-1,-1,-1,-1,-1,-1,-1,-1,-1,-1,-1,-1],"split_conditions":[-1.2218517E2,1.6791913E2,1.21113914E2,-2.1167882E2,6.734376E-2,-2.6481884E0,2.1394592E1,6.014219E-3,9.894363E1,-6.9350452E0,5.500521E0,6.774824E-2,6.861484E-3,4.8650405E-1,1.6830502E1,-8.289293E0,4.537922E0,7.388037E-2,-2.7601874E0,4.4008365E2,1.6719778E1,1.0620832E1,-2.2204045E-2,1.4838406E1,2.3611979E1,9.3556287E2,1.4457006E1,1.5904012E1,6.379624E1,7.3735332E0,5.091784E0,3.5275254E-2,-7.2003394E-2,-2.9678104E-2,3.483105E-2,-1.6727766E1,7.982136E-3,6.522983E-2,-1.0387329E-2,4.0625524E-2,-2.7002295E-2,2.813561E-3,-2.7151098E-2,-7.611736E-2,-1.9366322E-2,4.8021483E-3,-3.6154088E-2,4.6126645E-2,-1.9914933E-2,2.0215582E-2,-5.0534764E-3,2.2587594E-2,-7.2214335E-2,-5.4001203E-3,6.440431E-2,2.4436755E-2,7.6849155E-2],"split_indices":[0,1,1,0,0,12,15,32,1,6,21,0,0,12,15,4,22,29,11,27,17,17,0,14,15,28,16,2,13,19,7,0,0,0,0,4,0,0,0,0,0,0,0,0,0,0,0,0,0,0,0,0,0,0,0,0,0],"split_type":[0,0,0,0,0,0,0,0,0,0,0,0,0,0,0,0,0,0,0,0,0,0,0,0,0,0,0,0,0,0,0,0,0,0,0,0,0,0,0,0,0,0,0,0,0,0,0,0,0,0,0,0,0,0,0,0,0],"sum_hessian":[5.003198E2,4.619003E2,3.8419495E1,4.568865E2,5.013809E0,2.6500763E1,1.1918731E1,2.1798499E2,2.389015E2,1.3579967E1,1.2920797E1,9.98772E0,1.931011E0,8.502468E0,2.0948251E2,8.834057E1,1.5056094E2,8.524175E0,5.0557914E0,3.4191961E0,9.501601E0,6.8049173E0,1.6975514E0,8.257362E1,1.2690889E2,3.3615913E1,5.4724655E1,3.1263752E1,1.1929719E2,3.585752E0,4.9384227E0,1.5127401E0,3.5430515E0,1.917222E0,1.5019741E0,8.277713E0,1.2238884E0,4.8544326E0,1.9504846E0,4.047253E0,7.8526375E1,9.251627E1,3.4392612E1,3.8218882E0,2.9794027E1,4.4081444E1,1.0643211E1,2.812314E1,3.140611E0,5.4648468E1,6.464872E1,1.9312518E0,1.6545001E0,1.4630283E0,3.4753942E0,1.2251707E0,7.0525417E0],"tree_param":{"num_deleted":"0","num_feature":"33","num_nodes":"57","size_leaf_vector":"1"}},{"base_weights":[-1.177553E-2,-1.9998324E-1,1.8412378E-1,-2.6420802E-1,1.4822254E-1,9.082885E-2,9.6802926E-1,1.0273386E0,-2.9182506E-1,2.7088636E-1,-5.4403614E-2,1.571619E-1,-5.68664E-1,1.1856071E0,-3.8164502E-1,7.926101E-3,6.4296775E-2,-3.514483E-1,2.1782462E-1,7.415834E-1,-3.981193E-2,5.9405214E-1,6.91598E-2,-8.969682E-1,2.9795873E-1,1.3471847E0,1.1491715E-1,1.4320751E-2,-5.255074E-2,-5.175506E-1,-1.1500528E-1,4.2871985E-1,-8.5656416E-1,-4.2485887E-1,1.1852964E0,-8.768567E-1,2.9674256E-1,-8.973806E-1,7.879855E-1,3.1921524E-1,-1.5260094E-1,1.438783E-2,-1.0946066E0,8.007754E-1,-3.571868E-2,2.0612305E-2,6.9190025E-2,4.959696E-2,-4.4601094E-2,1.441135E-2,-2.9715708E-2,1.073694E-2,-2.2881994E-2,4.9878698E-2,-9.923554E-3,-5.7567902E-2,-4.416941E-3,2.384667E-2,-4.8431043E-2,-1.508556E-2,7.209584E-2,-5.9563614E-2,2.5008101E-2,3.8204864E-2,-3.5936877E-2,-6.841323E-2,1.6740564E-3,6.0458034E-2,1.909434E-2,2.3379946E-2,-9.322872E-3,-2.510412E-2,5.6327023E-3,-6.795761E-2,-2.044751E-3,4.6700374E-3,5.453653E-2],"categories":[],"categories_nodes":[],"categories_segments":[],"categories_sizes":[],"default_left":[0,0,0,0,0,0,0,0,0,0,0,0,0,0,0,0,0,0,0,0,0,0,0,0,0,0,0,0,0,0,0,0,0,0,0,0,0,0,0,0,0,0,0,0,0,0,0,0,0,0,0,0,0,0,0,0,0,0,0,0,0,0,0,0,0,0,0,0,0,0,0,0,0,0,0,0,0],"id":14,"left_children":[1,3,5,7,9,11,13,15,17,19,-1,21,23,25,27,-1,-1,29,31,33,35,37,39,41,43,45,47,-1,-1,49,51,53,55,57,59,61,63,65,67,69,71,-1,73,75,-1,-1,-1,-1,-1,-1,-1,-1,-1,-1,-1,-1,-1,-1,-1,-1,-1,-1,-1,-1,-1,-1,-1,-1,-1,-1,-1,-1,-1,-1,-1,-1,-1],"loss_changes":[1.857436E1,5.7844543E0,1.7967407E1,8.04914E0,6.458752E0,9.789013E0,8.132648E0,8.6775064E-1,6.5638504E0,5.5544186E0,0E0,7.7347016E0,6.0941343E0,3.783699E0,2.2629318E0,0E0,0E0,7.46187E0,5.573511E0,8.304536E0,6.9384494E0,1.04765005E1,9.446205E0,3.8511858E0,3.818304E0,1.0351181E-1,4.486489E0,0E0,0E0,7.1115227E0,9.171756E0,7.288478E0,8.27667E-1,2.8596637E0,4.7023354E0,3.6486244E0,8.928043E0,1.9543507E0,4.7415867E0,6.088112E0,8.445391E0,0E0,3.6104393E0,8.688021E-1,0E0,0E0,0E0,0E0,0E0,0E0,0E0,0E0,0E0,0E0,0E0,0E0,0E0,0E0,0E0,0E0,0E0,0E0,0E0,0E0,0E0,0E0,0E0,0E0,0E0,0E0,0E0,0E0,0E0,0E0,0E0,0E0,0E0],"parents":[2147483647,0,0,1,1,2,2,3,3,4,4,5,5,6,6,7,7,8,8,9,9,11,11,12,12,13,13,14,14,17,17,18,18,19,19,20,20,21,21,22,22,23,23,24,24,25,25,26,26,29,29,30,30,31,31,32,32,33,33,34,34,35,35,36,36,37,37,38,38,39,39,40,40,42,42,43,43],"right_children":[2,4,6,8,10,12,14,16,18,20,-1,22,24,26,28,-1,-1,30,32,34,36,38,40,42,44,46,48,-1,-1,50,52,54,56,58,60,62,64,66,68,70,72,-1,74,76,-1,-1,-1,-1,-1,-1,-1,-1,-1,-1,-1,-1,-1,-1,-1,-1,-1,-1,-1,-1,-1,-1,-1,-1,-1,-1,-1,-1,-1,-1,-1,-1,-1],"split_conditions":[-2.0322266E2,3.0511478E1,1.3994255E2,5.551932E0,2.704268E0,1.6050379E1,2.5972656E1,1.6089815E1,8.238461E0,-2.5541411E2,-5.4403614E-2,1.357541E-1,6.5274854E0,6.6854696E0,5.690375E0,7.926101E-3,6.4296775E-2,1.9143297E1,8.239401E0,1.0357747E1,9.7064495E-2,3.3012415E2,5.4603953E0,6.1214366E0,7.781149E0,-1.7968409E1,-1.6205776E1,1.4320751E-2,-5.255074E-2,8.050766E0,7.1066966E0,2.016616E1,9.186001E0,9.259582E0,-9.40062E0,-1.284658E-1,1.27403345E1,5.474074E0,2.4999294E1,8.72109E1,-1.9363233E0,1.438783E-2,5.700718E-1,-7.392303E0,-3.571868E-2,2.0612305E-2,6.9190025E-2,4.959696E-2,-4.4601094E-2,1.441135E-2,-2.9715708E-2,1.073694E-2,-2.2881994E-2,4.9878698E-2,-9.923554E-3,-5.7567902E-2,-4.416941E-3,2.384667E-2,-4.8431043E-2,-1.508556E-2,7.209584E-2,-5.9563614E-2,2.5008101E-2,3.8204864E-2,-3.5936877E-2,-6.841323E-2,1.6740564E-3,6.0458034E-2,1.909434E-2,2.3379946E-2,-9.322872E-3,-2.510412E-2,5.6327023E-3,-6.795761E-2,-2.044751E-3,4.6700374E-3,5.453653E-2],"split_indices":[0,5,1,18,12,7,5,14,20,0,0,30,21,21,22,0,0,15,23,16,30,27,9,18,9,6,2,0,0,16,19,15,24,16,6,8,16,24,14,13,12,0,8,2,0,0,0,0,0,0,0,0,0,0,0,0,0,0,0,0,0,0,0,0,0,0,0,0,0,0,0,0,0,0,0,0,0],"split_type":[0,0,0,0,0,0,0,0,0,0,0,0,0,0,0,0,0,0,0,0,0,0,0,0,0,0,0,0,0,0,0,0,0,0,0,0,0,0,0,0,0,0,0,0,0,0,0,0,0,0,0,0,0,0,0,0,0,0,0,0,0,0,0,0,0,0,0,0,0,0,0,0,0,0,0,0,0],"sum_hessian":[5.0178433E2,2.5590556E2,2.4587877E2,2.1625893E2,3.9646633E1,2.2072545E2,2.515333E1,3.7695906E0,2.1248935E2,3.6778408E1,2.8682249E0,2.0124548E2,1.9479965E1,2.1766039E1,3.3872917E0,1.2346162E0,2.5349746E0,1.9051201E2,2.1977339E1,1.4072394E1,2.2706013E1,3.27762E1,1.6846928E2,1.4102482E1,5.377484E0,1.8687649E1,3.0783894E0,1.9816408E0,1.4056509E0,1.11202705E2,7.9309296E1,1.8873552E1,3.1037862E0,3.8896613E0,1.0182734E1,6.0510507E0,1.6654963E1,3.3541384E0,2.9422062E1,7.8976555E1,8.949272E1,1.9510609E0,1.2151421E1,3.7325423E0,1.6449416E0,1.1663008E0,1.7521349E1,1.6532986E0,1.4250908E0,9.432823E0,1.0176988E2,4.0605103E1,3.8704197E1,9.58738E0,9.286172E0,1.8826327E0,1.2211535E0,1.5093715E0,2.3802896E0,1.4727952E0,8.709938E0,5.036055E0,1.0149955E0,1.1575238E1,5.0797243E0,1.9153517E0,1.4387865E0,1.34722E1,1.5949862E1,6.111761E1,1.7858944E1,3.823031E1,5.1262417E1,9.4811945E0,2.6702263E0,1.4695498E0,2.2629924E0],"tree_param":{"num_deleted":"0","num_feature":"33","num_nodes":"77","size_leaf_vector":"1"}},{"base_weights":[2.2190804E-2,-3.3067707E-2,6.812874E-1,-5.830541E-2,9.310435E-1,8.338646E-1,-3.7849838E-1,-2.4023183E-1,4.7165975E-2,1.1524202E0,-1.8987026E-2,9.676755E-1,2.6312414E-1,-6.46687E-2,5.2309733E-2,-5.5663663E-1,-9.8357E-2,1.3540433E-1,-3.8010085E-1,6.793692E-2,-2.6506137E-3,3.359477E-1,1.1563146E0,4.7998738E-2,-2.985063E-1,-7.281963E-1,1.2824157E-1,3.292653E-1,-2.260504E-1,-2.0647895E-1,2.2636339E-1,2.4894196E-1,-7.478836E-1,-3.529796E-1,5.2608144E-2,1.2214613E0,8.554016E-3,3.465336E-1,-5.085936E-2,4.652981E-2,-4.1946776E-2,-2.797035E-2,4.905055E-2,3.4166347E-2,-1.0156127E-2,-3.6195856E-2,-2.2576337E-3,3.9085373E-2,-1.5792547E-2,6.8110356E-5,2.059917E-2,-2.3637064E-2,4.1166157E-2,-4.7220584E-2,2.853533E-4,3.689988E-2,-5.4866463E-2,6.365053E-2,2.200273E-2,4.505184E-2,-1.8722128E-2],"categories":[],"categories_nodes":[],"categories_segments":[],"categories_sizes":[],"default_left":[0,0,0,0,0,0,0,0,0,0,0,0,0,0,0,0,0,0,0,0,0,0,0,0,0,0,0,0,0,0,0,0,0,0,0,0,0,0,0,0,0,0,0,0,0,0,0,0,0,0,0,0,0,0,0,0,0,0,0,0,0],"id":15,"left_children":[1,3,5,7,9,11,13,15,17,19,-1,21,23,-1,-1,25,27,29,31,-1,-1,33,35,-1,37,39,41,43,45,47,49,51,53,55,-1,57,-1,59,-1,-1,-1,-1,-1,-1,-1,-1,-1,-1,-1,-1,-1,-1,-1,-1,-1,-1,-1,-1,-1,-1,-1],"loss_changes":[1.8049326E1,1.1189234E1,6.5141373E0,8.586345E0,3.842184E0,2.328373E0,8.537726E0,7.3147583E0,1.0748288E1,2.630025E0,0E0,2.832014E0,3.3380752E0,0E0,0E0,6.0398054E0,6.329909E0,7.3825426E0,1.1482491E1,0E0,0E0,4.1330614E0,1.1004581E0,0E0,2.7075417E0,8.242472E0,6.992284E0,5.1810784E0,7.965796E0,5.661208E0,7.8011875E0,8.167872E0,4.605753E0,4.573481E0,0E0,2.0404625E-1,0E0,1.7059014E0,0E0,0E0,0E0,0E0,0E0,0E0,0E0,0E0,0E0,0E0,0E0,0E0,0E0,0E0,0E0,0E0,0E0,0E0,0E0,0E0,0E0,0E0,0E0],"parents":[2147483647,0,0,1,1,2,2,3,3,4,4,5,5,6,6,7,7,8,8,9,9,11,11,12,12,15,15,16,16,17,17,18,18,21,21,22,22,24,24,25,25,26,26,27,27,28,28,29,29,30,30,31,31,32,32,33,33,35,35,37,37],"right_children":[2,4,6,8,10,12,14,16,18,20,-1,22,24,-1,-1,26,28,30,32,-1,-1,34,36,-1,38,40,42,44,46,48,50,52,54,56,-1,58,-1,60,-1,-1,-1,-1,-1,-1,-1,-1,-1,-1,-1,-1,-1,-1,-1,-1,-1,-1,-1,-1,-1,-1,-1],"split_conditions":[-1.2106391E2,1.5912866E2,-3.349636E0,2.3503227E-2,1.3140483E1,8.959709E0,-6.1520832E1,-4.0808163E0,7.1243806E0,8.9943695E0,-1.8987026E-2,6.3175775E-2,9.063215E1,-6.46687E-2,5.2309733E-2,2.267313E0,2.0630164E0,9.909211E1,1.045236E1,6.793692E-2,-2.6506137E-3,2.2758436E-1,4.062374E1,4.7998738E-2,1.2311903E1,3.8493042E0,5.4324436E0,1.8668745E-1,-7.844136E0,2.517773E-2,-2.0022612E2,4.3825895E-2,3.1235512E1,4.26494E0,5.2608144E-2,-4.8192425E0,8.554016E-3,1.534156E1,-5.085936E-2,4.652981E-2,-4.1946776E-2,-2.797035E-2,4.905055E-2,3.4166347E-2,-1.0156127E-2,-3.6195856E-2,-2.2576337E-3,3.9085373E-2,-1.5792547E-2,6.8110356E-5,2.059917E-2,-2.3637064E-2,4.1166157E-2,-4.7220584E-2,2.853533E-4,3.689988E-2,-5.4866463E-2,6.365053E-2,2.200273E-2,4.505184E-2,-1.8722128E-2],"split_indices":[0,1,6,31,2,22,0,10,21,18,0,31,1,0,0,4,11,1,17,0,0,30,14,0,17,22,22,2,4,31,0,29,14,23,0,6,0,5,0,0,0,0,0,0,0,0,0,0,0,0,0,0,0,0,0,0,0,0,0,0,0],"split_type":[0,0,0,0,0,0,0,0,0,0,0,0,0,0,0,0,0,0,0,0,0,0,0,0,0,0,0,0,0,0,0,0,0,0,0,0,0,0,0,0,0,0,0,0,0,0,0,0,0,0,0,0,0,0,0,0,0,0,0,0,0],"sum_hessian":[4.9396027E2,4.5662662E2,3.7333645E1,4.458939E2,1.0732716E1,3.282151E1,4.5121326E0,1.6316856E2,2.8272534E2,9.285343E0,1.4473733E0,2.6024548E1,6.7969627E0,2.8038175E0,1.7083154E0,4.9608906E1,1.1355966E2,2.3489777E2,4.7827564E1,7.819757E0,1.465586E0,6.6236634E0,1.9400885E1,2.7167964E0,4.080166E0,3.962078E1,9.988126E0,2.5749763E1,8.78099E1,4.909538E1,1.8580238E2,1.776539E1,3.0062176E1,3.6346521E0,2.9890113E0,1.7972708E1,1.4281778E0,2.4231389E0,1.6570274E0,2.016191E0,3.760459E1,5.719831E0,4.2682943E0,1.5294636E1,1.0455128E1,2.2602232E1,6.5207664E1,4.279794E0,4.4815582E1,8.444675E1,1.01355644E2,7.951569E0,9.813821E0,2.36431E1,6.419074E0,1.4775591E0,2.1570928E0,1.6270235E1,1.702472E0,1.2285299E0,1.1946088E0],"tree_param":{"num_deleted":"0","num_feature":"33","num_nodes":"61","size_leaf_vector":"1"}},{"base_weights":[7.788163E-3,-5.7163328E-2,7.975002E-1,-1.7949377E-1,1.2947673E-1,9.351757E-1,1.0813227E-1,1.5116072E-1,-2.5539112E-1,2.094965E-1,-7.606306E-1,1.052849E0,1.9015877E-1,-8.111913E-1,7.734361E-1,3.1986833E-1,-8.3649254E-1,-3.1515393E-1,3.0098075E-1,2.9681265E-1,-5.274755E-1,3.5916742E-2,-9.755795E-1,1.1390684E0,2.1949135E-1,4.3891452E-2,-4.374109E-2,-6.573601E-2,5.6285295E-3,-1.5315661E-2,5.9952475E-2,6.0045385E-1,-1.1640236E-1,4.5394298E-2,-1.2256907E0,5.319075E-1,-3.6207354E-1,5.1870215E-1,-4.9122542E-2,7.088458E-1,1.7314975E-1,-1.0136132E0,2.8436467E-1,1.7969739E-2,-1.3756181E0,1.2195739E0,2.7239795E-3,-2.7832095E-2,4.443379E-2,-1.9152157E-2,3.765731E-2,-3.324142E-2,1.5686708E-2,-7.207069E-2,-1.2283809E-2,-2.5508583E-2,4.590994E-2,-2.0414906E-2,2.1699188E-2,-3.3200182E-2,3.8982585E-2,4.2855486E-2,-3.5594597E-2,2.5523454E-2,6.772091E-5,-9.763486E-3,-7.562877E-2,-1.2614599E-2,6.455823E-2,4.6202872E-2,-4.6724524E-2,-7.702889E-2,-5.074762E-3,6.311368E-2,1.3234252E-2],"categories":[],"categories_nodes":[],"categories_segments":[],"categories_sizes":[],"default_left":[0,0,0,0,0,0,0,0,0,0,0,0,0,0,0,0,0,0,0,0,0,0,0,0,0,0,0,0,0,0,0,0,0,0,0,0,0,0,0,0,0,0,0,0,0,0,0,0,0,0,0,0,0,0,0,0,0,0,0,0,0,0,0,0,0,0,0,0,0,0,0,0,0,0,0],"id":16,"left_children":[1,3,5,7,9,11,13,15,17,19,21,23,25,27,29,31,33,35,37,39,41,-1,43,45,47,-1,-1,-1,-1,-1,-1,49,51,-1,53,55,57,59,-1,61,63,65,67,69,71,73,-1,-1,-1,-1,-1,-1,-1,-1,-1,-1,-1,-1,-1,-1,-1,-1,-1,-1,-1,-1,-1,-1,-1,-1,-1,-1,-1,-1,-1],"loss_changes":[2.5498596E1,1.0513281E1,3.4843998E0,7.0142117E0,1.3157446E1,2.5489826E0,5.1654654E0,9.018549E0,7.6240587E0,1.0981569E1,5.5546646E0,1.6799927E0,4.7943325E0,1.823997E0,2.5806963E0,5.649424E0,6.502585E0,8.338661E0,6.7898974E0,7.57335E0,7.463145E0,0E0,5.491769E0,2.0381908E0,2.4460604E0,0E0,0E0,0E0,0E0,0E0,0E0,4.4785986E0,4.614737E0,0E0,1.1080551E0,4.9618015E0,7.3454075E0,6.650125E0,0E0,7.8866997E0,6.8083115E0,4.4370365E0,4.426587E0,5.122989E0,1.9074802E0,5.788765E-1,0E0,0E0,0E0,0E0,0E0,0E0,0E0,0E0,0E0,0E0,0E0,0E0,0E0,0E0,0E0,0E0,0E0,0E0,0E0,0E0,0E0,0E0,0E0,0E0,0E0,0E0,0E0,0E0,0E0],"parents":[2147483647,0,0,1,1,2,2,3,3,4,4,5,5,6,6,7,7,8,8,9,9,10,10,11,11,12,12,13,13,14,14,15,15,16,16,17,17,18,18,19,19,20,20,22,22,23,23,24,24,31,31,32,32,34,34,35,35,36,36,37,37,39,39,40,40,41,41,42,42,43,43,44,44,45,45],"right_children":[2,4,6,8,10,12,14,16,18,20,22,24,26,28,30,32,34,36,38,40,42,-1,44,46,48,-1,-1,-1,-1,-1,-1,50,52,-1,54,56,58,60,-1,62,64,66,68,70,72,74,-1,-1,-1,-1,-1,-1,-1,-1,-1,-1,-1,-1,-1,-1,-1,-1,-1,-1,-1,-1,-1,-1,-1,-1,-1,-1,-1,-1,-1],"split_conditions":[-1.2218517E2,-1.9747438E2,-9.587116E-1,2.4234203E1,1.1297703E1,-6.207446E0,-3.9134643E0,1.2421117E1,8.238461E0,1.5902641E1,2.3037119E-2,-1.5537945E0,1.5498047E-1,-9.138316E0,-3.3083683E1,3.3984501E0,6.3036275E0,6.2977844E-3,8.239401E0,1.3708875E-1,1.0905386E0,3.5916742E-2,6.355237E0,4.7447613E1,6.0106344E0,4.3891452E-2,-4.374109E-2,-6.573601E-2,5.6285295E-3,-1.5315661E-2,5.9952475E-2,4.2129984E0,4.73942E0,4.5394298E-2,2.4905773E1,-4.9829903E0,6.647049E0,8.960233E0,-4.9122542E-2,-2.8813365E-1,8.738852E0,1.6299716E-1,8.089763E2,2.381175E1,-2.6730509E0,-1.6222713E0,2.7239795E-3,-2.7832095E-2,4.443379E-2,-1.9152157E-2,3.765731E-2,-3.324142E-2,1.5686708E-2,-7.207069E-2,-1.2283809E-2,-2.5508583E-2,4.590994E-2,-2.0414906E-2,2.1699188E-2,-3.3200182E-2,3.8982585E-2,4.2855486E-2,-3.5594597E-2,2.5523454E-2,6.772091E-5,-9.763486E-3,-7.562877E-2,-1.2614599E-2,6.455823E-2,4.6202872E-2,-4.6724524E-2,-7.702889E-2,-5.074762E-3,6.311368E-2,1.3234252E-2],"split_indices":[0,0,10,3,18,2,8,17,20,7,29,4,30,4,2,11,19,32,23,30,4,0,21,14,22,0,0,0,0,0,0,22,23,0,15,8,23,17,0,6,17,30,28,3,2,6,0,0,0,0,0,0,0,0,0,0,0,0,0,0,0,0,0,0,0,0,0,0,0,0,0,0,0,0,0],"split_type":[0,0,0,0,0,0,0,0,0,0,0,0,0,0,0,0,0,0,0,0,0,0,0,0,0,0,0,0,0,0,0,0,0,0,0,0,0,0,0,0,0,0,0,0,0,0,0,0,0,0,0,0,0,0,0,0,0,0,0,0,0,0,0,0,0,0,0,0,0,0,0,0,0,0,0],"sum_hessian":[4.95228E2,4.584495E2,3.6778507E1,2.7695908E2,1.8149042E2,3.0358883E1,6.419624E0,5.1519135E1,2.2543994E2,1.6722195E2,1.4268451E1,2.5861021E1,4.497862E0,2.6032069E0,3.8164172E0,4.4580223E1,6.9389114E0,2.039646E2,2.1475348E1,1.5004227E2,1.7179693E1,1.5134186E0,1.2755033E1,2.3103848E1,2.7571723E0,2.839862E0,1.6579996E0,1.4109144E0,1.1922925E0,1.1582711E0,2.658146E0,2.6901995E1,1.7678228E1,1.02266E0,5.916251E0,1.0162353E1,1.9380225E2,1.8870075E1,2.6052728E0,3.354417E1,1.164981E2,1.058985E1,6.589843E0,3.9355788E0,8.819454E0,2.1391565E1,1.7122822E0,1.3544424E0,1.40273E0,3.4126155E0,2.3489378E1,7.5308003E0,1.0147428E1,4.4630303E0,1.4532211E0,2.6615984E0,7.5007544E0,1.8362671E2,1.0175529E1,3.131692E0,1.5738383E1,3.0733616E1,2.8105536E0,3.8645824E1,7.785227E1,4.538177E0,6.051673E0,4.787411E0,1.8024317E0,2.0321698E0,1.9034089E0,7.6233377E0,1.1961161E0,2.0167816E1,1.2237508E0],"tree_param":{"num_deleted":"0","num_feature":"33","num_nodes":"75","size_leaf_vector":"1"}},{"base_weights":[-4.6528163E-3,-2.3668763E-1,1.1647166E-1,-3.316202E-1,1.05581425E-1,3.862691E-2,6.502755E-1,-1.6585545E-1,-6.253346E-1,9.9614906E-1,-7.939981E-2,5.5235153E-1,-1.3877711E-2,1.0979377E0,-2.3984575E-1,7.291096E-1,-2.916839E-1,-8.5002893E-1,7.624124E-2,9.16434E-2,7.608432E-2,-5.3133845E-1,3.78774E-1,7.6369834E-1,-2.7699274E-1,-5.483672E-1,3.55041E-2,1.1689086E0,-7.066744E-3,5.067722E-2,-4.7856736E-1,1.0218762E0,-4.6591934E-2,-4.0236643E-1,4.5131114E-1,-6.485995E-1,-7.435423E-2,-9.917127E-1,6.55849E-1,-3.4334015E-2,4.9033877E-2,4.449722E-1,-7.565934E-1,-1.9446333E-1,9.706852E-1,2.1970989E-1,1.0736868E0,5.4284763E-1,-5.523568E-2,-7.3107064E-1,7.311267E-1,9.819518E-2,-4.307824E-1,1.2221707E0,-1.478305E-4,-7.1212375E-1,4.7874805E-2,7.814189E-2,4.5565367E-3,-5.0058573E-2,-1.3190131E-2,4.4716936E-2,-2.1629993E-2,-4.3199997E-2,2.678018E-4,-3.5024572E-3,-6.423666E-2,7.424877E-2,1.8046245E-4,-2.9138912E-2,5.8043033E-2,-4.9716305E-2,2.2180533E-2,3.5703193E-2,-5.1197287E-2,6.8416506E-2,-1.0480657E-2,-1.7371472E-2,6.0856678E-2,6.3853964E-2,-1.7370585E-2,5.341622E-2,-1.5028852E-2,-4.961249E-2,1.9399367E-2,9.479987E-3,4.8318446E-2,2.2665424E-2,4.2740264E-4,5.1071394E-2,-2.9744903E-2,1.0186456E-2,6.330493E-2,-5.6492995E-2,1.6312247E-2],"categories":[],"categories_nodes":[],"categories_segments":[],"categories_sizes":[],"default_left":[0,0,0,0,0,0,0,0,0,0,0,0,0,0,0,0,0,0,0,0,0,0,0,0,0,0,0,0,0,0,0,0,0,0,0,0,0,0,0,0,0,0,0,0,0,0,0,0,0,0,0,0,0,0,0,0,0,0,0,0,0,0,0,0,0,0,0,0,0,0,0,0,0,0,0,0,0,0,0,0,0,0,0,0,0,0,0,0,0,0,0,0,0,0,0],"id":17,"left_children":[1,3,5,7,9,11,13,15,17,19,21,23,25,27,29,31,33,35,37,39,-1,41,43,45,47,49,51,53,-1,-1,55,57,-1,59,61,63,-1,65,67,-1,-1,69,71,73,75,77,79,81,-1,83,85,87,89,91,-1,93,-1,-1,-1,-1,-1,-1,-1,-1,-1,-1,-1,-1,-1,-1,-1,-1,-1,-1,-1,-1,-1,-1,-1,-1,-1,-1,-1,-1,-1,-1,-1,-1,-1,-1,-1,-1,-1,-1,-1],"loss_changes":[1.3966326E1,5.572648E0,1.3543165E1,6.404025E0,6.300395E0,7.722714E0,1.6797424E1,9.987751E0,7.609518E0,2.9830813E0,6.8679376E0,4.8646965E0,6.8946567E0,2.609211E0,4.8851595E0,6.294177E0,6.498804E0,3.6977558E0,8.404952E0,3.0801315E0,0E0,3.99268E0,5.811549E0,3.3764944E0,4.7561827E0,5.69879E0,7.0401754E0,1.650814E0,0E0,0E0,5.052882E0,4.80007E0,0E0,5.327133E0,4.4716454E0,4.1428823E0,0E0,1.2077441E0,4.7116065E0,0E0,0E0,3.4328182E0,4.400924E0,7.7032537E0,4.1916475E0,5.532828E0,4.3135395E0,1.9821022E0,0E0,6.1811247E0,2.3211169E-1,6.739842E0,7.413581E0,8.714981E-1,0E0,5.4795117E0,0E0,0E0,0E0,0E0,0E0,0E0,0E0,0E0,0E0,0E0,0E0,0E0,0E0,0E0,0E0,0E0,0E0,0E0,0E0,0E0,0E0,0E0,0E0,0E0,0E0,0E0,0E0,0E0,0E0,0E0,0E0,0E0,0E0,0E0,0E0,0E0,0E0,0E0,0E0],"parents":[2147483647,0,0,1,1,2,2,3,3,4,4,5,5,6,6,7,7,8,8,9,9,10,10,11,11,12,12,13,13,14,14,15,15,16,16,17,17,18,18,19,19,21,21,22,22,23,23,24,24,25,25,26,26,27,27,30,30,31,31,33,33,34,34,35,35,37,37,38,38,41,41,42,42,43,43,44,44,45,45,46,46,47,47,49,49,50,50,51,51,52,52,53,53,55,55],"right_children":[2,4,6,8,10,12,14,16,18,20,22,24,26,28,30,32,34,36,38,40,-1,42,44,46,48,50,52,54,-1,-1,56,58,-1,60,62,64,-1,66,68,-1,-1,70,72,74,76,78,80,82,-1,84,86,88,90,92,-1,94,-1,-1,-1,-1,-1,-1,-1,-1,-1,-1,-1,-1,-1,-1,-1,-1,-1,-1,-1,-1,-1,-1,-1,-1,-1,-1,-1,-1,-1,-1,-1,-1,-1,-1,-1,-1,-1,-1,-1],"split_conditions":[-2.2717006E2,1.6974217E-1,1.3765437E2,3.6414584E2,4.245107E2,3.4481826E0,2.3843046E1,1.1076693E2,5.5915585E0,6.958752E0,-1.2927502E0,8.959137E0,3.9514718E0,1.1011336E1,6.027078E0,9.9689E0,3.4913196E2,1.0044734E1,2.1172344E1,4.213756E-2,7.608432E-2,5.4758015E0,-9.806471E0,4.4780155E1,2.5282173E1,-2.2276802E0,-2.2941573E0,3.4240796E2,-7.066744E-3,5.067722E-2,1.613175E2,3.52491E2,-4.6591934E-2,1.8467216E-2,2.1837031E-2,1.5498047E-1,-7.435423E-2,8.821918E0,2.4546867E1,-3.4334015E-2,4.9033877E-2,4.2443833E0,7.0550046E0,6.7133465E0,7.1975145E0,-1.87488E0,3.331927E1,-3.7882419E0,-5.523568E-2,3.2347252E0,7.0733647E0,1.3894697E-1,5.5397587E0,2.7706036E-2,-1.478305E-4,-1.8735234E2,4.7874805E-2,7.814189E-2,4.5565367E-3,-5.0058573E-2,-1.3190131E-2,4.4716936E-2,-2.1629993E-2,-4.3199997E-2,2.678018E-4,-3.5024572E-3,-6.423666E-2,7.424877E-2,1.8046245E-4,-2.9138912E-2,5.8043033E-2,-4.9716305E-2,2.2180533E-2,3.5703193E-2,-5.1197287E-2,6.8416506E-2,-1.0480657E-2,-1.7371472E-2,6.0856678E-2,6.3853964E-2,-1.7370585E-2,5.341622E-2,-1.5028852E-2,-4.961249E-2,1.9399367E-2,9.479987E-3,4.8318446E-2,2.2665424E-2,4.2740264E-4,5.1071394E-2,-2.9744903E-2,1.0186456E-2,6.330493E-2,-5.6492995E-2,1.6312247E-2],"split_indices":[0,30,1,26,26,25,5,1,24,19,4,18,23,18,18,4,26,18,5,29,0,20,6,13,5,6,6,27,0,0,1,26,0,31,31,30,0,18,5,0,0,23,23,20,9,8,14,8,0,4,18,30,19,31,0,0,0,0,0,0,0,0,0,0,0,0,0,0,0,0,0,0,0,0,0,0,0,0,0,0,0,0,0,0,0,0,0,0,0,0,0,0,0,0,0],"split_type":[0,0,0,0,0,0,0,0,0,0,0,0,0,0,0,0,0,0,0,0,0,0,0,0,0,0,0,0,0,0,0,0,0,0,0,0,0,0,0,0,0,0,0,0,0,0,0,0,0,0,0,0,0,0,0,0,0,0,0,0,0,0,0,0,0,0,0,0,0,0,0,0,0,0,0,0,0,0,0,0,0,0,0,0,0,0,0,0,0,0,0,0,0,0,0],"sum_hessian":[4.949513E2,1.6942824E2,3.2552304E2,1.3266348E2,3.6764748E1,2.8502948E2,4.0493565E1,8.580314E1,4.686035E1,5.5688963E0,3.119585E1,2.5547106E1,2.594824E2,2.6787868E1,1.3705695E1,9.985561E0,7.581757E1,3.5332714E1,1.1527638E1,2.4781377E0,3.0907586E0,1.5624394E1,1.5571455E1,2.0421997E1,5.125108E0,2.1091503E1,2.3839087E2,2.5390575E1,1.3972937E0,1.6734823E0,1.2032212E1,8.8163185E0,1.1692432E0,6.638656E1,9.431019E0,2.8378038E1,6.954676E0,3.8052619E0,7.7223763E0,1.4427035E0,1.0354342E0,2.7462125E0,1.2878182E1,8.251623E0,7.319832E0,8.033334E0,1.2388664E1,2.747717E0,2.3773909E0,1.8831161E1,2.2603424E0,2.1083415E2,2.7556726E1,2.4245663E1,1.144911E0,1.0782671E1,1.249542E0,5.1461716E0,3.6701467E0,1.1305286E1,5.508127E1,6.274408E0,3.1566107E0,2.1105202E1,7.272837E0,1.216851E0,2.5884109E0,2.837992E0,4.884384E0,1.2038572E0,1.5423553E0,1.08922205E1,1.9859617E0,4.0045776E0,4.2470455E0,5.3560567E0,1.9637752E0,5.536774E0,2.49656E0,1.0926211E1,1.4624528E0,1.5286655E0,1.2190512E0,1.5359657E1,3.4715035E0,1.2314725E0,1.0288699E0,4.1678646E1,1.691555E2,2.2675977E0,2.5289127E1,1.2356509E0,2.3010012E1,7.62644E0,3.156231E0],"tree_param":{"num_deleted":"0","num_feature":"33","num_nodes":"95","size_leaf_vector":"1"}},{"base_weights":[1.7375328E-2,-1.09083064E-1,2.3295571E-1,-4.2506644E-1,-5.1455967E-2,4.1785148E-1,-8.7313324E-2,-6.837571E-1,2.4966264E-1,-2.3821926E-1,5.698884E-2,4.762544E-1,-7.031843E-1,-1.8001124E-1,7.7453315E-1,-7.997067E-1,5.025177E-1,-4.5880234E-1,9.8617005E-1,3.3399406E-1,-4.6433488E-1,-2.8366908E-1,2.5438896E-1,1.0231345E0,3.7772033E-1,2.3934742E-2,-1.0697495E0,4.659702E-1,-3.3672062E-1,6.208956E-2,-3.0676205E-2,-5.2715945E-1,-7.447872E-2,5.4873753E-2,-1.27303E-2,3.7350576E-2,-8.018928E-1,-2.2025537E-2,1.3350252E0,5.554988E-1,-3.260758E-1,4.0771863E-1,-5.8100176E-1,5.104532E-1,-3.9996177E-1,4.5279542E-1,-6.65213E-4,1.2630848E0,1.7825863E-1,-1.1239759E-1,5.463027E-1,-6.84026E-2,-9.298403E-3,-5.4691125E-2,7.155429E-1,1.0065394E-1,-5.5733454E-1,-5.944386E-2,-6.627459E-3,1.3238269E-2,-5.7647165E-2,8.103616E-2,1.9402644E-2,4.2176705E-2,-1.6195437E-2,-6.2659346E-2,1.8743087E-2,5.6725234E-2,-3.021105E-2,3.5502177E-2,-3.2048073E-2,-4.289059E-2,5.227232E-2,-2.9186627E-2,1.3627409E-2,-8.95772E-3,3.4978177E-2,1.3049393E-2,-2.2448694E-2,6.804228E-2,2.0128926E-2,-3.709851E-2,5.2984606E-2,1.5460843E-2,-3.9165657E-2,3.0323936E-2,-2.373069E-2,4.9223915E-2,-6.1364784E-3,-3.2515746E-2,2.689958E-2,-4.7013305E-2,-1.7650059E-3],"categories":[],"categories_nodes":[],"categories_segments":[],"categories_sizes":[],"default_left":[0,0,0,0,0,0,0,0,0,0,0,0,0,0,0,0,0,0,0,0,0,0,0,0,0,0,0,0,0,0,0,0,0,0,0,0,0,0,0,0,0,0,0,0,0,0,0,0,0,0,0,0,0,0,0,0,0,0,0,0,0,0,0,0,0,0,0,0,0,0,0,0,0,0,0,0,0,0,0,0,0,0,0,0,0,0,0,0,0,0,0,0,0],"id":18,"left_children":[1,3,5,7,9,11,13,15,17,19,21,23,25,27,29,31,33,35,37,39,41,43,45,47,49,-1,51,53,55,-1,-1,57,-1,-1,-1,-1,59,-1,61,63,65,67,69,71,73,75,77,79,81,83,85,-1,-1,-1,87,89,91,-1,-1,-1,-1,-1,-1,-1,-1,-1,-1,-1,-1,-1,-1,-1,-1,-1,-1,-1,-1,-1,-1,-1,-1,-1,-1,-1,-1,-1,-1,-1,-1,-1,-1,-1,-1],"loss_changes":[1.35845785E1,5.6987543E0,1.09444275E1,8.604724E0,5.4180527E0,7.992256E0,5.5918603E0,5.2429657E0,7.82221E0,1.2863075E1,1.1478693E1,5.6359577E0,3.1960683E0,6.476957E0,5.182796E0,5.3156376E0,1.9676981E0,3.859638E0,4.1927013E0,4.3335085E0,7.4417915E0,5.9948845E0,5.4615517E0,3.1152306E0,8.016919E0,0E0,1.0737104E0,5.6907616E0,4.960129E0,0E0,0E0,6.3199325E0,0E0,0E0,0E0,0E0,2.7833805E0,0E0,1.0126429E0,5.753217E0,5.5164833E0,7.2633934E0,5.3221664E0,7.0814447E0,6.987912E0,9.591598E0,5.773199E0,5.178566E-1,4.6868305E0,7.447302E0,4.6996403E0,0E0,0E0,0E0,2.707425E0,6.224597E0,6.750781E0,0E0,0E0,0E0,0E0,0E0,0E0,0E0,0E0,0E0,0E0,0E0,0E0,0E0,0E0,0E0,0E0,0E0,0E0,0E0,0E0,0E0,0E0,0E0,0E0,0E0,0E0,0E0,0E0,0E0,0E0,0E0,0E0,0E0,0E0,0E0,0E0],"parents":[2147483647,0,0,1,1,2,2,3,3,4,4,5,5,6,6,7,7,8,8,9,9,10,10,11,11,12,12,13,13,14,14,15,15,16,16,17,17,18,18,19,19,20,20,21,21,22,22,23,23,24,24,26,26,27,27,28,28,31,31,36,36,38,38,39,39,40,40,41,41,42,42,43,43,44,44,45,45,46,46,47,47,48,48,49,49,50,50,54,54,55,55,56,56],"right_children":[2,4,6,8,10,12,14,16,18,20,22,24,26,28,30,32,34,36,38,40,42,44,46,48,50,-1,52,54,56,-1,-1,58,-1,-1,-1,-1,60,-1,62,64,66,68,70,72,74,76,78,80,82,84,86,-1,-1,-1,88,90,92,-1,-1,-1,-1,-1,-1,-1,-1,-1,-1,-1,-1,-1,-1,-1,-1,-1,-1,-1,-1,-1,-1,-1,-1,-1,-1,-1,-1,-1,-1,-1,-1,-1,-1,-1,-1],"split_conditions":[-1.8685469E2,-2.7578662E2,1.1711767E1,2.5955545E1,5.8748283E0,1.3335235E0,6.175591E0,6.3962755E0,5.713068E0,5.7435694E0,4.9827166E0,5.093883E0,6.529143E0,-4.4535174E0,-2.4281127E0,-5.462323E-1,8.256744E0,4.4303484E0,6.1091457E1,6.741214E0,-7.202997E0,4.625433E0,2.564984E1,5.0660157E0,1.9745074E-2,2.3934742E-2,-1.3032135E2,-7.894123E0,1.7558925E-2,6.208956E-2,-3.0676205E-2,-9.40062E0,-7.447872E-2,5.4873753E-2,-1.27303E-2,3.7350576E-2,-5.6066327E0,-2.2025537E-2,9.718129E0,5.1445103E0,-5.895882E0,5.4690638E0,5.361306E0,4.058979E0,5.755243E0,2.3501736E1,2.720332E1,8.020486E1,-1.464946E2,3.2394566E1,-3.826409E0,-6.84026E-2,-9.298403E-3,-5.4691125E-2,7.964615E1,-3.7298656E0,-1.464946E2,-5.944386E-2,-6.627459E-3,1.3238269E-2,-5.7647165E-2,8.103616E-2,1.9402644E-2,4.2176705E-2,-1.6195437E-2,-6.2659346E-2,1.8743087E-2,5.6725234E-2,-3.021105E-2,3.5502177E-2,-3.2048073E-2,-4.289059E-2,5.227232E-2,-2.9186627E-2,1.3627409E-2,-8.95772E-3,3.4978177E-2,1.3049393E-2,-2.2448694E-2,6.804228E-2,2.0128926E-2,-3.709851E-2,5.2984606E-2,1.5460843E-2,-3.9165657E-2,3.0323936E-2,-2.373069E-2,4.9223915E-2,-6.1364784E-3,-3.2515746E-2,2.689958E-2,-4.7013305E-2,-1.7650059E-3],"split_indices":[0,0,7,14,9,8,4,23,22,20,22,20,22,10,6,10,7,21,13,2,10,20,14,22,32,0,0,8,32,0,0,6,0,0,0,0,4,0,9,22,8,23,19,21,21,5,5,13,0,3,6,0,0,0,13,8,0,0,0,0,0,0,0,0,0,0,0,0,0,0,0,0,0,0,0,0,0,0,0,0,0,0,0,0,0,0,0,0,0,0,0,0,0],"split_type":[0,0,0,0,0,0,0,0,0,0,0,0,0,0,0,0,0,0,0,0,0,0,0,0,0,0,0,0,0,0,0,0,0,0,0,0,0,0,0,0,0,0,0,0,0,0,0,0,0,0,0,0,0,0,0,0,0,0,0,0,0,0,0,0,0,0,0,0,0,0,0,0,0,0,0,0,0,0,0,0,0,0,0,0,0,0,0,0,0,0,0,0,0],"sum_hessian":[4.9636603E2,3.1316122E2,1.8320482E2,4.731969E1,2.6584152E2,1.1595671E2,6.7248116E1,3.41957E1,1.312399E1,9.7217384E1,1.6862415E2,1.10761505E2,5.1952066E0,6.1431805E1,5.8163095E0,3.144778E1,2.74792E0,6.8815303E0,6.24246E0,2.7400347E1,6.981703E1,6.170367E1,1.0692047E2,1.5477164E1,9.528434E1,1.1574534E0,4.037753E0,1.1608053E1,4.982375E1,4.430318E0,